{"learner":{"attributes":{"scikit_learn":"{\"_estimator_type\": \"classifier\"}"},"feature_names":[],"feature_types":[],"gradient_booster":{"model":{"gbtree_model_param":{"num_parallel_tree":"1","num_trees":"900"},"iteration_indptr":[0,3,6,9,12,15,18,21,24,27,30,33,36,39,42,45,48,51,54,57,60,63,66,69,72,75,78,81,84,87,90,93,96,99,102,105,108,111,114,117,120,123,126,129,132,135,138,141,144,147,150,153,156,159,162,165,168,171,174,177,180,183,186,189,192,195,198,201,204,207,210,213,216,219,222,225,228,231,234,237,240,243,246,249,252,255,258,261,264,267,270,273,276,279,282,285,288,291,294,297,300,303,306,309,312,315,318,321,324,327,330,333,336,339,342,345,348,351,354,357,360,363,366,369,372,375,378,381,384,387,390,393,396,399,402,405,408,411,414,417,420,423,426,429,432,435,438,441,444,447,450,453,456,459,462,465,468,471,474,477,480,483,486,489,492,495,498,501,504,507,510,513,516,519,522,525,528,531,534,537,540,543,546,549,552,555,558,561,564,567,570,573,576,579,582,585,588,591,594,597,600,603,606,609,612,615,618,621,624,627,630,633,636,639,642,645,648,651,654,657,660,663,666,669,672,675,678,681,684,687,690,693,696,699,702,705,708,711,714,717,720,723,726,729,732,735,738,741,744,747,750,753,756,759,762,765,768,771,774,777,780,783,786,789,792,795,798,801,804,807,810,813,816,819,822,825,828,831,834,837,840,843,846,849,852,855,858,861,864,867,870,873,876,879,882,885,888,891,894,897,900],"tree_info":[0,1,2,0,1,2,0,1,2,0,1,2,0,1,2,0,1,2,0,1,2,0,1,2,0,1,2,0,1,2,0,1,2,0,1,2,0,1,2,0,1,2,0,1,2,0,1,2,0,1,2,0,1,2,0,1,2,0,1,2,0,1,2,0,1,2,0,1,2,0,1,2,0,1,2,0,1,2,0,1,2,0,1,2,0,1,2,0,1,2,0,1,2,0,1,2,0,1,2,0,1,2,0,1,2,0,1,2,0,1,2,0,1,2,0,1,2,0,1,2,0,1,2,0,1,2,0,1,2,0,1,2,0,1,2,0,1,2,0,1,2,0,1,2,0,1,2,0,1,2,0,1,2,0,1,2,0,1,2,0,1,2,0,1,2,0,1,2,0,1,2,0,1,2,0,1,2,0,1,2,0,1,2,0,1,2,0,1,2,0,1,2,0,1,2,0,1,2,0,1,2,0,1,2,0,1,2,0,1,2,0,1,2,0,1,2,0,1,2,0,1,2,0,1,2,0,1,2,0,1,2,0,1,2,0,1,2,0,1,2,0,1,2,0,1,2,0,1,2,0,1,2,0,1,2,0,1,2,0,1,2,0,1,2,0,1,2,0,1,2,0,1,2,0,1,2,0,1,2,0,1,2,0,1,2,0,1,2,0,1,2,0,1,2,0,1,2,0,1,2,0,1,2,0,1,2,0,1,2,0,1,2,0,1,2,0,1,2,0,1,2,0,1,2,0,1,2,0,1,2,0,1,2,0,1,2,0,1,2,0,1,2,0,1,2,0,1,2,0,1,2,0,1,2,0,1,2,0,1,2,0,1,2,0,1,2,0,1,2,0,1,2,0,1,2,0,1,2,0,1,2,0,1,2,0,1,2,0,1,2,0,1,2,0,1,2,0,1,2,0,1,2,0,1,2,0,1,2,0,1,2,0,1,2,0,1,2,0,1,2,0,1,2,0,1,2,0,1,2,0,1,2,0,1,2,0,1,2,0,1,2,0,1,2,0,1,2,0,1,2,0,1,2,0,1,2,0,1,2,0,1,2,0,1,2,0,1,2,0,1,2,0,1,2,0,1,2,0,1,2,0,1,2,0,1,2,0,1,2,0,1,2,0,1,2,0,1,2,0,1,2,0,1,2,0,1,2,0,1,2,0,1,2,0,1,2,0,1,2,0,1,2,0,1,2,0,1,2,0,1,2,0,1,2,0,1,2,0,1,2,0,1,2,0,1,2,0,1,2,0,1,2,0,1,2,0,1,2,0,1,2,0,1,2,0,1,2,0,1,2,0,1,2,0,1,2,0,1,2,0,1,2,0,1,2,0,1,2,0,1,2,0,1,2,0,1,2,0,1,2,0,1,2,0,1,2,0,1,2,0,1,2,0,1,2,0,1,2,0,1,2,0,1,2,0,1,2,0,1,2,0,1,2,0,1,2,0,1,2,0,1,2,0,1,2,0,1,2,0,1,2,0,1,2,0,1,2,0,1,2,0,1,2,0,1,2,0,1,2,0,1,2,0,1,2,0,1,2,0,1,2,0,1,2,0,1,2,0,1,2,0,1,2,0,1,2,0,1,2,0,1,2,0,1,2,0,1,2,0,1,2,0,1,2,0,1,2,0,1,2,0,1,2,0,1,2,0,1,2,0,1,2,0,1,2,0,1,2,0,1,2,0,1,2,0,1,2,0,1,2,0,1,2,0,1,2,0,1,2,0,1,2,0,1,2,0,1,2,0,1,2,0,1,2,0,1,2,0,1,2,0,1,2,0,1,2,0,1,2,0,1,2,0,1,2,0,1,2,0,1,2,0,1,2,0,1,2,0,1,2,0,1,2,0,1,2,0,1,2,0,1,2,0,1,2,0,1,2,0,1,2,0,1,2,0,1,2,0,1,2,0,1,2,0,1,2,0,1,2,0,1,2,0,1,2,0,1,2,0,1,2,0,1,2,0,1,2,0,1,2,0,1,2,0,1,2,0,1,2,0,1,2,0,1,2,0,1,2,0,1,2,0,1,2,0,1,2,0,1,2],"trees":[{"base_weights":[-1.4883707E-3,7.436387E-2,-1.8481709E-1,-7.277104E-1,-4.3125884E-3,1.2406013E-2,-7.452081E-1,5.5484605E-1,-1.4695449E-1,-2.5000004E-2,-3.745121E-2,1.2637795E0,4.862945E-1,-3.9189404E-1,-1.1129075E-3,7.2452836E-2,3.9E-2,-1.3740462E-1,5.5263156E-1,-6.4505907E-3,-7.334608E-1,6.589595E-1,-1.12398535E-1,-1.9816056E-2,3.1310678E-2,3.225927E-2,1.4628482E-2,3.0130271E-3,-3.4572493E-2,-3.705344E-2,-2.5000004E-2,-1.9148938E-2,3.7894737E-2,2.4650637E-3,-1.5475622E-2],"categories":[],"categories_nodes":[],"categories_segments":[],"categories_sizes":[],"default_left":[0,0,0,0,0,0,0,0,0,0,0,0,0,0,0,0,0,0,0,0,0,0,0,0,0,0,0,0,0,0,0,0,0,0,0],"id":0,"left_children":[1,-1,3,5,7,-1,9,11,13,-1,-1,15,17,19,21,-1,-1,23,25,27,29,31,33,-1,-1,-1,-1,-1,-1,-1,-1,-1,-1,-1,-1],"loss_changes":[1.9566339E3,0E0,6.254829E2,2.7564209E1,3.8238806E2,0E0,7.1551514E-1,4.612738E1,1.3645067E2,0E0,0E0,5.328415E0,3.7048584E1,1.8767159E2,1.7616638E2,0E0,0E0,1.7763329E1,1.9033386E1,3.0781618E1,6.013489E-1,3.6247696E1,6.544157E1,0E0,0E0,0E0,0E0,0E0,0E0,0E0,0E0,0E0,0E0,0E0,0E0],"parents":[2147483647,0,0,2,2,3,3,4,4,6,6,7,7,8,8,11,11,12,12,13,13,14,14,17,17,18,18,19,19,20,20,21,21,22,22],"right_children":[2,-1,4,6,8,-1,10,12,14,-1,-1,16,18,20,22,-1,-1,24,26,28,30,32,34,-1,-1,-1,-1,-1,-1,-1,-1,-1,-1,-1,-1],"split_conditions":[-1.3763994E0,7.436387E-2,-6.7163795E-1,-1.3671653E0,-1.3421775E-1,1.2406013E-2,-1.3540907E0,-3.4664786E-1,8.6065245E-1,-2.5000004E-2,-3.745121E-2,1.1274859E0,-3.1271473E-1,3.4665791E-3,1.018649E0,7.2452836E-2,3.9E-2,-2.7927843E-1,-1.666123E-1,8.065685E-1,3.969876E-1,-1.3594034E0,1.1693434E0,-1.9816056E-2,3.1310678E-2,3.225927E-2,1.4628482E-2,3.0130271E-3,-3.4572493E-2,-3.705344E-2,-2.5000004E-2,-1.9148938E-2,3.7894737E-2,2.4650637E-3,-1.5475622E-2],"split_indices":[3,0,0,3,3,0,3,3,5,0,0,10,3,3,3,0,0,5,3,9,5,9,5,0,0,0,0,0,0,0,0,0,0,0,0],"split_type":[0,0,0,0,0,0,0,0,0,0,0,0,0,0,0,0,0,0,0,0,0,0,0,0,0,0,0,0,0,0,0,0,0,0,0],"sum_hessian":[7.1648887E3,7.8399994E2,6.3808887E3,1.5906666E3,4.790222E3,2.7555553E1,1.563111E3,9.724444E2,3.8177776E3,2.7999998E1,1.535111E3,8.2666664E1,8.897777E2,1.4235554E3,2.3942222E3,5.6888885E1,2.5777777E1,8.533333E1,8.044444E2,6.697777E2,7.537777E2,3.4399997E2,2.0502222E3,6.444444E1,2.0888887E1,5.911111E2,2.1333331E2,6.1199994E2,5.7777775E1,7.257777E2,2.7999998E1,2.9333332E1,3.1466666E2,1.1271111E3,9.231111E2],"tree_param":{"num_deleted":"0","num_feature":"16","num_nodes":"35","size_leaf_vector":"1"}},{"base_weights":[4.19614E-4,-7.390496E-1,9.046536E-2,-3.7399586E-2,-2.3936173E-2,1.1019582E0,3.5387456E-2,1.3111566E0,6.842105E-1,2.2024615E-1,-1.21847644E-1,1.392E0,2.8378377E-2,9.7384614E-1,8.756343E-3,2.4116106E-1,-3.626374E-2,-4.5939034E-1,1.7413368E-2,7.2982065E-2,5.6162793E-2,2.9126194E-3,6.720779E-2,3.0907102E-2,3.3313766E-1,1.5862482E-2,-7.1535987E-1,1.4353551E-1,-5.1144856E-1,-2.7803088E-2,1.9598965E-2,1.7706212E-2,-3.428572E-2,-7.767194E-3,3.357143E-2,-3.704048E-2,-1.3761489E-3,9.415906E-3,-3.6678836E-2,-1.5674792E-2,-3.6435336E-2],"categories":[],"categories_nodes":[],"categories_segments":[],"categories_sizes":[],"default_left":[0,0,0,0,0,0,0,0,0,0,0,0,0,0,0,0,0,0,0,0,0,0,0,0,0,0,0,0,0,0,0,0,0,0,0,0,0,0,0,0,0],"id":1,"left_children":[1,3,5,-1,-1,7,9,11,13,15,17,19,-1,21,-1,23,-1,25,27,-1,-1,-1,-1,29,31,33,35,37,39,-1,-1,-1,-1,-1,-1,-1,-1,-1,-1,-1,-1],"loss_changes":[4.7613522E2,1.0907593E0,3.55048E2,0E0,0E0,2.6967499E1,1.758271E2,1.1471405E1,1.6468056E1,5.5330063E1,1.5368558E2,2.5558472E-1,0E0,2.4330574E1,0E0,5.261003E1,0E0,1.16185165E2,1.5464162E2,0E0,0E0,0E0,0E0,1.7643875E2,4.0964554E1,3.7945206E1,1.0824097E1,7.3798546E1,1.8743279E1,0E0,0E0,0E0,0E0,0E0,0E0,0E0,0E0,0E0,0E0,0E0,0E0],"parents":[2147483647,0,0,1,1,2,2,5,5,6,6,7,7,8,8,9,9,10,10,11,11,13,13,15,15,17,17,18,18,23,23,24,24,25,25,26,26,27,27,28,28],"right_children":[2,4,6,-1,-1,8,10,12,14,16,18,20,-1,22,-1,24,-1,26,28,-1,-1,-1,-1,30,32,34,36,38,40,-1,-1,-1,-1,-1,-1,-1,-1,-1,-1,-1,-1],"split_conditions":[-1.3763994E0,-1.3886943E0,-1.1971337E0,-3.7399586E-2,-2.3936173E-2,-3.306151E-2,-3.921753E-2,-1.2212467E0,-1.2384263E0,2.2623954E0,9.262604E-1,-1.2663778E0,2.8378377E-2,-1.3352054E0,8.756343E-3,-2.3861708E-1,-3.626374E-2,5.318964E-2,1.2614969E0,7.2982065E-2,5.6162793E-2,2.9126194E-3,6.720779E-2,-2.5802734E-1,2.33513E0,1.0208608E-1,9.4077224E-1,1.3357899E0,1.2895252E0,-2.7803088E-2,1.9598965E-2,1.7706212E-2,-3.428572E-2,-7.767194E-3,3.357143E-2,-3.704048E-2,-1.3761489E-3,9.415906E-3,-3.6678836E-2,-1.5674792E-2,-3.6435336E-2],"split_indices":[3,3,5,0,0,8,3,5,3,7,3,5,0,5,0,7,0,3,6,0,0,0,0,5,11,6,6,5,3,0,0,0,0,0,0,0,0,0,0,0,0],"split_type":[0,0,0,0,0,0,0,0,0,0,0,0,0,0,0,0,0,0,0,0,0,0,0,0,0,0,0,0,0,0,0,0,0,0,0,0,0,0,0,0,0],"sum_hessian":[7.146666E3,7.7422217E2,6.372444E3,7.4488885E2,2.9333332E1,3.2711108E2,6.045333E3,2.151111E2,1.1199999E2,2.7782222E3,3.2671108E3,1.9244443E2,2.2666666E1,7.022222E1,4.1777775E1,2.7195554E3,5.8666664E1,9.5288885E2,2.3142222E3,1.4666666E2,4.5777775E1,2.0888887E1,4.9333332E1,8.284444E2,1.891111E3,3.342222E2,6.186666E2,1.8697777E3,4.4444443E2,3.1511108E2,5.133333E2,1.8542222E3,3.6888885E1,2.662222E2,6.799999E1,5.964444E2,2.2222221E1,1.7804443E3,8.933333E1,2.351111E2,2.0933333E2],"tree_param":{"num_deleted":"0","num_feature":"16","num_nodes":"41","size_leaf_vector":"1"}},{"base_weights":[-8.8643166E-4,-7.4132067E-1,1.16681635E-1,-3.7419666E-2,-5.7209307E-1,3.772176E-2,7.9045E-1,-3.456522E-2,-1.9954132E-2,-2.6716266E-3,1.3936023E0,1.412742E-1,8.792497E-1,4.934354E-1,-1.0449628E-1,4.3902438E-2,7.38843E-2,6.365546E-2,-4.0039846E-1,1.1756077E0,6.163636E-1,2.0228513E-1,1.3802955E0,-6.08589E-1,1.864233E-1,1.4018671E-3,-3.382353E-2,1.2560503E0,3.106509E-2,4.132897E-2,1.071708E0,4.3457944E-2,3.1673748E-3,7.406896E-2,5.4682273E-2,-3.6194693E-2,-1.733068E-2,5.8516484E-2,-5.887954E-3,4.8458446E-2,6.995516E-2,-1.298371E-2,5.666667E-2,6.775363E-2,-6.290325E-3],"categories":[],"categories_nodes":[],"categories_segments":[],"categories_sizes":[],"default_left":[0,0,0,0,0,0,0,0,0,0,0,0,0,0,0,0,0,0,0,0,0,0,0,0,0,0,0,0,0,0,0,0,0,0,0,0,0,0,0,0,0,0,0,0,0],"id":2,"left_children":[1,3,5,-1,7,9,11,-1,-1,13,15,17,19,21,23,-1,-1,-1,25,27,29,31,33,35,37,-1,-1,39,-1,41,43,-1,-1,-1,-1,-1,-1,-1,-1,-1,-1,-1,-1,-1,-1],"loss_changes":[6.2216516E2,3.157959E-1,3.2807025E2,0E0,4.3363285E-1,3.0248834E2,3.704251E1,0E0,0E0,2.7112668E2,4.33136E0,5.0202473E1,4.2854736E1,2.3544508E2,6.5327765E2,0E0,0E0,0E0,6.6352835E0,1.0260498E1,7.9917694E1,6.386222E1,3.2954102E0,4.8735718E1,8.4579456E2,0E0,0E0,6.708832E0,0E0,4.5656574E1,5.817842E1,0E0,0E0,0E0,0E0,0E0,0E0,0E0,0E0,0E0,0E0,0E0,0E0,0E0,0E0],"parents":[2147483647,0,0,1,1,2,2,4,4,5,5,6,6,9,9,10,10,11,11,12,12,13,13,14,14,18,18,19,19,20,20,21,21,22,22,23,23,24,24,27,27,29,29,30,30],"right_children":[2,4,6,-1,8,10,12,-1,-1,14,16,18,20,22,24,-1,-1,-1,26,28,30,32,34,36,38,-1,-1,40,-1,42,44,-1,-1,-1,-1,-1,-1,-1,-1,-1,-1,-1,-1,-1,-1],"split_conditions":[-1.2663778E0,-1.2306193E0,1.2571551E0,-3.7419666E-2,-1.3471152E0,1.3127799E0,-1.991286E0,-3.456522E-2,-1.9954132E-2,-9.107802E-1,1.3195955E0,-6.474415E-1,-4.3169007E-2,-9.896446E-1,-8.573424E-3,4.3902438E-2,7.38843E-2,6.365546E-2,1.21899E0,2.7175668E-1,1.7287854E0,-6.114292E-1,-6.957671E-2,-1.1463485E-1,3.969876E-1,1.4018671E-3,-3.382353E-2,1.5063393E0,3.106509E-2,1.5982755E0,-5.8792406E-1,4.3457944E-2,3.1673748E-3,7.406896E-2,5.4682273E-2,-3.6194693E-2,-1.733068E-2,5.8516484E-2,-5.887954E-3,4.8458446E-2,6.995516E-2,-1.298371E-2,5.666667E-2,6.775363E-2,-6.290325E-3],"split_indices":[5,3,8,0,7,3,15,0,0,5,3,11,15,3,3,0,0,0,14,12,15,8,9,3,5,0,0,7,0,14,14,0,0,0,0,0,0,0,0,0,0,0,0,0,0],"split_type":[0,0,0,0,0,0,0,0,0,0,0,0,0,0,0,0,0,0,0,0,0,0,0,0,0,0,0,0,0,0,0,0,0,0,0,0,0,0,0,0,0,0,0,0,0],"sum_hessian":[7.143111E3,9.7733325E2,6.1657773E3,9.315555E2,4.5777775E1,5.5208887E3,6.4488885E2,2.3555553E1,2.2222221E1,5.363111E3,1.5777777E2,7.822221E1,5.666666E2,9.1199994E2,4.451111E3,2.5333332E1,1.3244444E2,2.4444443E1,5.3777775E1,2.6311108E2,3.0355554E2,6.884444E2,2.2355554E2,1.6279999E3,2.8231108E3,2.1777777E1,3.1999998E1,2.2755554E2,3.5555553E1,1.351111E2,1.6844443E2,1.16888885E2,5.7155554E2,1.591111E2,6.444444E1,1.1279999E3,4.9999997E2,6.653333E2,2.1577776E3,8.0888885E1,1.4666666E2,1.0711111E2,2.7999998E1,1.3599998E2,3.2444443E1],"tree_param":{"num_deleted":"0","num_feature":"16","num_nodes":"45","size_leaf_vector":"1"}},{"base_weights":[-6.5444955E-3,6.917579E-2,-1.8347134E-1,-7.1765995E-1,-7.6259533E-3,6.7818696E-3,-7.327025E-1,5.395025E-1,-1.4949505E-1,-2.6428122E-2,-3.679335E-2,1.2068264E0,4.778546E-1,-3.8921022E-1,-4.623968E-3,3.85848E-2,6.9009244E-2,-1.2347052E-1,5.4096E-1,-1.96501E-2,-7.165067E-1,6.236878E-1,-1.06636584E-1,-1.8247418E-2,3.0534444E-2,3.099038E-2,1.4203833E-2,-2.2305343E-2,5.7676057E-3,-2.7681304E-2,-3.640912E-2,-1.7376356E-2,3.5630587E-2,3.3610873E-3,-1.4181577E-2],"categories":[],"categories_nodes":[],"categories_segments":[],"categories_sizes":[],"default_left":[0,0,0,0,0,0,0,0,0,0,0,0,0,0,0,0,0,0,0,0,0,0,0,0,0,0,0,0,0,0,0,0,0,0,0],"id":3,"left_children":[1,-1,3,5,7,-1,9,11,13,-1,-1,15,17,19,21,-1,-1,23,25,27,29,31,33,-1,-1,-1,-1,-1,-1,-1,-1,-1,-1,-1,-1],"loss_changes":[1.7477487E3,0E0,5.9215155E2,2.0238098E1,3.6845392E2,0E0,2.133789E-1,3.905661E1,1.3089804E2,0E0,0E0,4.0061417E0,3.4212418E1,1.7171326E2,1.5085367E2,0E0,0E0,1.5855868E1,1.6117798E1,3.8615223E1,6.2557983E-1,2.8887688E1,6.234357E1,0E0,0E0,0E0,0E0,0E0,0E0,0E0,0E0,0E0,0E0,0E0,0E0],"parents":[2147483647,0,0,2,2,3,3,4,4,6,6,7,7,8,8,11,11,12,12,13,13,14,14,17,17,18,18,19,19,20,20,21,21,22,22],"right_children":[2,-1,4,6,8,-1,10,12,14,-1,-1,16,18,20,22,-1,-1,24,26,28,30,32,34,-1,-1,-1,-1,-1,-1,-1,-1,-1,-1,-1,-1],"split_conditions":[-1.3763994E0,6.917579E-2,-8.0043924E-1,-1.3671653E0,-1.3421775E-1,6.7818696E-3,-1.3540907E0,-3.4664786E-1,8.6065245E-1,-2.6428122E-2,-3.679335E-2,-3.8363233E-1,-3.1271473E-1,3.4665791E-3,1.018649E0,3.85848E-2,6.9009244E-2,-2.7927843E-1,-1.6318592E-1,-9.3900286E-2,-5.868068E-2,-1.3914998E0,1.1548483E0,-1.8247418E-2,3.0534444E-2,3.099038E-2,1.4203833E-2,-2.2305343E-2,5.7676057E-3,-2.7681304E-2,-3.640912E-2,-1.7376356E-2,3.5630587E-2,3.3610873E-3,-1.4181577E-2],"split_indices":[3,0,5,3,3,0,3,3,5,0,0,5,3,3,3,0,0,5,3,6,5,7,5,0,0,0,0,0,0,0,0,0,0,0,0],"split_type":[0,0,0,0,0,0,0,0,0,0,0,0,0,0,0,0,0,0,0,0,0,0,0,0,0,0,0,0,0,0,0,0,0,0,0],"sum_hessian":[7.102368E3,8.003808E2,6.3019873E3,1.5592095E3,4.742778E3,2.6732916E1,1.5324766E3,9.7541473E2,3.767363E3,2.8523539E1,1.503953E3,7.934727E1,8.9606744E2,1.41787E3,2.3494932E3,2.571227E1,5.3635E1,8.492379E1,8.111436E2,6.669345E2,7.509354E2,3.267515E2,2.0227416E3,6.4661354E1,2.0262442E1,6.184816E2,1.92662E2,1.592555E2,5.0767902E2,5.6705246E1,6.9423016E2,2.6919897E1,2.998316E2,1.0210382E3,1.00170337E3],"tree_param":{"num_deleted":"0","num_feature":"16","num_nodes":"35","size_leaf_vector":"1"}},{"base_weights":[-4.1081454E-3,-7.226392E-1,8.27619E-2,-3.670327E-2,-2.0913312E-2,5.0414616E-1,-2.8843645E-2,7.933812E-1,1.233469E-1,1.8538022E-2,-5.179489E-1,1.187881E0,6.687195E-1,2.1561304E-1,-3.5579186E-2,5.3205624E-2,-6.5010905E-1,-3.2821795E-1,-3.5831157E-2,6.930434E-2,1.8854078E-2,7.1165127E-1,-2.3179362E-2,2.9233277E-1,-3.3429865E-2,-5.0065523E-1,1.0402774E-1,4.728003E-3,-3.6793504E-2,-5.450539E-1,3.6659744E-2,8.772235E-3,3.8284555E-2,1.8749928E-2,-3.4262616E-2,-3.6257844E-2,-6.4251507E-3,1.6256867E-2,-6.425979E-4,-2.4250973E-2,-3.5295982E-2,1.1561076E-2,-2.0315519E-2],"categories":[],"categories_nodes":[],"categories_segments":[],"categories_sizes":[],"default_left":[0,0,0,0,0,0,0,0,0,0,0,0,0,0,0,0,0,0,0,0,0,0,0,0,0,0,0,0,0,0,0,0,0,0,0,0,0,0,0,0,0,0,0],"id":4,"left_children":[1,3,5,-1,-1,7,9,11,13,15,17,19,21,23,-1,25,27,29,-1,-1,-1,31,-1,33,-1,35,37,-1,-1,39,41,-1,-1,-1,-1,-1,-1,-1,-1,-1,-1,-1,-1],"loss_changes":[4.477858E2,2.0769348E0,3.0102313E2,0E0,0E0,1.474235E2,1.1732736E2,3.585379E1,4.5059254E1,1.0708824E2,1.6384003E1,2.7920212E1,2.9006012E1,3.598165E1,0E0,1.2370576E2,1.4682243E1,1.8427343E1,0E0,0E0,0E0,1.6033447E1,0E0,3.9640232E1,0E0,3.0676788E1,1.03992905E2,0E0,0E0,7.242584E-1,7.8155274E0,0E0,0E0,0E0,0E0,0E0,0E0,0E0,0E0,0E0,0E0,0E0,0E0],"parents":[2147483647,0,0,1,1,2,2,5,5,6,6,7,7,8,8,9,9,10,10,11,11,12,12,13,13,15,15,16,16,17,17,21,21,23,23,25,25,26,26,29,29,30,30],"right_children":[2,4,6,-1,-1,8,10,12,14,16,18,20,22,24,-1,26,28,30,-1,-1,-1,32,-1,34,-1,36,38,-1,-1,40,42,-1,-1,-1,-1,-1,-1,-1,-1,-1,-1,-1,-1],"split_conditions":[-1.3763994E0,-1.3886943E0,-9.8061174E-1,-3.670327E-2,-2.0913312E-2,9.451011E-1,1.2614969E0,-1.2306193E0,2.2623954E0,1.2192395E0,1.2895252E0,5.3020245E-1,-9.833784E-1,2.33513E0,-3.5579186E-2,-3.4664786E-1,-1.901159E-1,-1.1390274E0,-3.5831157E-2,6.930434E-2,1.8854078E-2,-1.2136326E0,-2.3179362E-2,2.33513E0,-3.3429865E-2,-8.268785E-2,-3.921753E-2,4.728003E-3,-3.6793504E-2,1.2616113E0,-4.967261E-1,8.772235E-3,3.8284555E-2,1.8749928E-2,-3.4262616E-2,-3.6257844E-2,-6.4251507E-3,1.6256867E-2,-6.425979E-4,-2.4250973E-2,-3.5295982E-2,1.1561076E-2,-2.0315519E-2],"split_indices":[3,3,6,0,0,7,6,3,7,7,3,7,3,12,0,3,6,8,0,0,0,6,0,10,0,8,3,0,0,3,9,0,0,0,0,0,0,0,0,0,0,0,0],"split_type":[0,0,0,0,0,0,0,0,0,0,0,0,0,0,0,0,0,0,0,0,0,0,0,0,0,0,0,0,0,0,0,0,0,0,0,0,0,0,0,0,0,0,0],"sum_hessian":[7.1699736E3,7.7176996E2,6.3982036E3,7.4112463E2,3.0645353E1,1.3382805E3,5.0599233E3,7.5935077E2,5.7892975E2,4.614793E3,4.4513004E2,1.7824043E2,5.8111035E2,5.226558E2,5.6273895E1,4.3890723E3,2.2572102E2,2.3040277E2,2.1472726E2,1.4208716E2,3.615327E1,5.605981E2,2.051228E1,4.821594E2,4.049645E1,3.6740286E2,4.0216692E3,2.328969E1,2.0243134E2,1.4389981E2,8.650296E1,5.2102955E1,5.0849512E2,4.45703E2,3.6456387E1,2.2797775E2,1.3942513E2,1.3894967E3,2.6321726E3,1.10639656E2,3.3260155E1,6.076829E1,2.573467E1],"tree_param":{"num_deleted":"0","num_feature":"16","num_nodes":"43","size_leaf_vector":"1"}},{"base_weights":[-1.4390217E-3,-3.6744937E-2,1.09368995E-1,3.0246416E-2,8.011871E-1,-2.1565403E-1,2.4278104E-1,2.229619E-1,8.784857E-1,3.8298228E-1,-5.955547E-1,1.1204244E0,-1.7647412E-2,5.4103684E-2,-3.1869832E-2,1.1591659E0,6.327262E-1,9.87541E-2,1.0354564E0,-3.655409E-2,-3.3209592E-1,4.5319945E-1,1.3622972E0,-1.22259445E-1,1.3206878E0,9.6631235E-1,6.5121554E-2,8.2688284E-1,-5.178762E-1,6.941046E-3,-1.845826E-2,6.652134E-2,1.2020079E-2,-2.1874499E-2,1.6156873E-2,2.6566556E-3,5.9684195E-2,6.967642E-2,2.9862393E-2,-3.6989264E-2,-2.600405E-4,4.313369E-2,6.927303E-2,2.2547716E-2,6.47156E-2,1.30289635E-2,5.975681E-2,-1.7938178E-2,-3.2055266E-2],"categories":[],"categories_nodes":[],"categories_segments":[],"categories_sizes":[],"default_left":[0,0,0,0,0,0,0,0,0,0,0,0,0,0,0,0,0,0,0,0,0,0,0,0,0,0,0,0,0,0,0,0,0,0,0,0,0,0,0,0,0,0,0,0,0,0,0,0,0],"id":5,"left_children":[1,-1,3,5,7,9,11,13,15,17,19,21,23,-1,-1,25,27,29,31,-1,33,35,37,39,41,43,-1,45,47,-1,-1,-1,-1,-1,-1,-1,-1,-1,-1,-1,-1,-1,-1,-1,-1,-1,-1,-1,-1],"loss_changes":[5.8164844E2,0E0,3.4028384E2,2.918021E2,2.8125336E1,5.8917267E2,6.845309E2,5.8970036E1,3.730728E1,1.8639998E2,5.608783E1,1.0936621E2,3.239363E2,0E0,0E0,4.6666565E0,6.879183E1,1.3284361E1,7.0914154E1,0E0,3.7702515E1,5.4777225E1,1.0329773E1,1.5509656E2,2.5860596E0,1.8875992E1,0E0,5.3799683E1,4.249859E-1,0E0,0E0,0E0,0E0,0E0,0E0,0E0,0E0,0E0,0E0,0E0,0E0,0E0,0E0,0E0,0E0,0E0,0E0,0E0,0E0],"parents":[2147483647,0,0,2,2,3,3,4,4,5,5,6,6,7,7,8,8,9,9,10,10,11,11,12,12,15,15,16,16,17,17,18,18,20,20,21,21,22,22,23,23,24,24,25,25,27,27,28,28],"right_children":[2,-1,4,6,8,10,12,14,16,18,20,22,24,-1,-1,26,28,30,32,-1,34,36,38,40,42,44,-1,46,48,-1,-1,-1,-1,-1,-1,-1,-1,-1,-1,-1,-1,-1,-1,-1,-1,-1,-1,-1,-1],"split_conditions":[-1.2609829E0,-3.6744937E-2,1.2571551E0,3.4665791E-3,-1.991286E0,-7.352157E-1,7.2347313E-1,9.5124185E-1,-8.5422054E-2,-1.0016195E0,-1.195975E-1,5.318964E-2,1.3127799E0,5.4103684E-2,-3.1869832E-2,1.5612342E0,9.3206584E-1,-8.957219E-1,3.014589E-1,-3.655409E-2,3.3246896E-1,-2.3861708E-1,4.7289446E-1,1.018649E0,1.3195955E0,-4.4774348E-1,6.5121554E-2,1.5362623E0,-1.0484061E0,6.941046E-3,-1.845826E-2,6.652134E-2,1.2020079E-2,-2.1874499E-2,1.6156873E-2,2.6566556E-3,5.9684195E-2,6.967642E-2,2.9862393E-2,-3.6989264E-2,-2.600405E-4,4.313369E-2,6.927303E-2,2.2547716E-2,6.47156E-2,1.30289635E-2,5.975681E-2,-1.7938178E-2,-3.2055266E-2],"split_indices":[3,0,8,3,13,2,2,15,10,3,3,3,3,0,0,8,12,0,7,0,8,7,2,3,3,0,0,13,3,0,0,0,0,0,0,0,0,0,0,0,0,0,0,0,0,0,0,0,0],"split_type":[0,0,0,0,0,0,0,0,0,0,0,0,0,0,0,0,0,0,0,0,0,0,0,0,0,0,0,0,0,0,0,0,0,0,0,0,0,0,0,0,0,0,0,0,0,0,0,0,0],"sum_hessian":[7.1527275E3,9.372991E2,6.215428E3,5.579405E3,6.3602374E2,2.5866487E3,2.9927559E3,7.591526E1,5.601085E2,1.004217E3,1.5824316E3,6.833302E2,2.3094258E3,3.7727264E1,3.8187996E1,2.5800705E2,3.0210144E2,7.0110645E2,3.031105E2,1.0425691E3,5.398626E2,1.8333467E2,4.999955E2,2.1436807E3,1.6574521E2,1.16573586E2,1.4143347E2,2.589654E2,4.313602E1,6.471032E2,5.4003265E1,2.201038E2,8.300669E1,4.656307E2,7.423189E1,1.20418755E2,6.2915913E1,4.7880646E2,2.1189054E1,3.3990762E2,1.803773E3,2.4083809E1,1.416614E2,4.71852E1,6.938838E1,1.0338861E2,1.555768E2,2.2241127E1,2.0894896E1],"tree_param":{"num_deleted":"0","num_feature":"16","num_nodes":"49","size_leaf_vector":"1"}},{"base_weights":[-3.4629647E-4,6.477749E-2,-1.7159466E-1,-7.007928E-1,6.937749E-4,-9.292446E-2,-3.6186945E-2,5.0596976E-1,-1.3550659E-1,3.5649516E-2,-3.4326505E-2,1.1824696E0,4.3868002E-1,-3.748972E-1,4.9149985E-3,4.216557E-2,6.539471E-2,-1.2471592E-1,4.9625885E-1,-1.8725984E-2,-7.038227E-1,6.08485E-1,-9.734161E-2,-1.7325066E-2,2.7047908E-2,5.154409E-2,2.3081297E-2,-2.2282902E-2,5.846017E-3,-3.5569865E-2,-2.3479333E-2,-1.9661723E-2,3.497877E-2,-2.626499E-3,-3.6099143E-2],"categories":[],"categories_nodes":[],"categories_segments":[],"categories_sizes":[],"default_left":[0,0,0,0,0,0,0,0,0,0,0,0,0,0,0,0,0,0,0,0,0,0,0,0,0,0,0,0,0,0,0,0,0,0,0],"id":6,"left_children":[1,-1,3,5,7,9,-1,11,13,-1,-1,15,17,19,21,-1,-1,23,25,27,29,31,33,-1,-1,-1,-1,-1,-1,-1,-1,-1,-1,-1,-1],"loss_changes":[1.581107E3,0E0,5.737687E2,2.142395E1,3.2698843E2,2.8973026E1,0E0,4.4886536E1,1.2581377E2,0E0,0E0,1.6263428E0,2.9992706E1,1.620814E2,1.4583035E2,0E0,0E0,1.3215379E1,1.4523148E1,3.8696537E1,6.081238E-1,3.1784966E1,5.6482624E1,0E0,0E0,0E0,0E0,0E0,0E0,0E0,0E0,0E0,0E0,0E0,0E0],"parents":[2147483647,0,0,2,2,3,3,4,4,5,5,7,7,8,8,11,11,12,12,13,13,14,14,17,17,18,18,19,19,20,20,21,21,22,22],"right_children":[2,-1,4,6,8,10,-1,12,14,-1,-1,16,18,20,22,-1,-1,24,26,28,30,32,34,-1,-1,-1,-1,-1,-1,-1,-1,-1,-1,-1,-1],"split_conditions":[-1.4042605E0,6.477749E-2,-8.0043924E-1,-1.3373233E0,-1.3421775E-1,-1.3163121E0,-3.6186945E-2,-3.4664786E-1,8.6065245E-1,3.5649516E-2,-3.4326505E-2,-3.8363233E-1,-3.1271473E-1,3.4665791E-3,1.018649E0,4.216557E-2,6.539471E-2,-2.7927843E-1,-1.2308003E0,-9.3900286E-2,3.969876E-1,-1.3914998E0,1.3195955E0,-1.7325066E-2,2.7047908E-2,5.154409E-2,2.3081297E-2,-2.2282902E-2,5.846017E-3,-3.5569865E-2,-2.3479333E-2,-1.9661723E-2,3.497877E-2,-2.626499E-3,-3.6099143E-2],"split_indices":[6,0,5,6,3,5,0,3,5,0,0,5,3,3,3,0,0,5,8,6,5,7,3,0,0,0,0,0,0,0,0,0,0,0,0],"split_type":[0,0,0,0,0,0,0,0,0,0,0,0,0,0,0,0,0,0,0,0,0,0,0,0,0,0,0,0,0,0,0,0,0,0,0],"sum_hessian":[7.120664E3,8.2960706E2,6.2910566E3,1.5436067E3,4.74745E3,5.651653E1,1.4870902E3,1.0068413E3,3.7406086E3,2.380084E1,3.271569E1,8.808904E1,9.1875226E2,1.3817177E3,2.358891E3,2.7951937E1,6.0137104E1,8.4973526E1,8.3377875E2,6.643988E2,7.1731885E2,3.4030984E2,2.0185812E3,6.445705E1,2.0516476E1,4.7226032E1,7.8655273E2,1.590947E2,5.053041E2,6.909025E2,2.6416338E1,2.7813326E1,3.1249652E2,1.8854851E3,1.3309612E2],"tree_param":{"num_deleted":"0","num_feature":"16","num_nodes":"35","size_leaf_vector":"1"}},{"base_weights":[-1.48557E-4,-7.1025276E-1,8.3654955E-2,-3.608976E-2,-2.5032187E-2,9.768359E-1,3.1023461E-2,1.1931293E0,6.5408033E-1,2.0630617E-1,-1.1875806E-1,6.52745E-2,2.6194373E-2,9.0654236E-1,2.5091046E-1,1.7743854E-1,8.382616E-1,-4.458691E-1,1.38348285E-2,1.4311661E-2,6.0470372E-2,-1.02615245E-2,3.3009384E-2,-2.4379797E-1,2.5769708E-1,9.72977E-1,7.83012E-3,3.7278472E-3,-6.941904E-1,1.3502933E-1,-4.9479014E-1,-3.233744E-2,9.279238E-3,1.440257E-2,-2.6783708E-2,5.7454932E-2,3.7225198E-2,-7.0828334E-3,3.4485877E-2,-3.607527E-2,3.365211E-3,8.824714E-3,-3.5810374E-2,-1.5291099E-2,-3.5425484E-2],"categories":[],"categories_nodes":[],"categories_segments":[],"categories_sizes":[],"default_left":[0,0,0,0,0,0,0,0,0,0,0,0,0,0,0,0,0,0,0,0,0,0,0,0,0,0,0,0,0,0,0,0,0,0,0,0,0,0,0,0,0,0,0,0,0],"id":7,"left_children":[1,3,5,-1,-1,7,9,11,13,15,17,-1,-1,19,21,23,25,27,29,-1,-1,-1,-1,31,33,35,-1,37,39,41,43,-1,-1,-1,-1,-1,-1,-1,-1,-1,-1,-1,-1,-1,-1],"loss_changes":[4.2458456E2,1.0994263E0,2.999367E2,0E0,0E0,2.3225403E1,1.5832419E2,1.4435516E1,1.4496456E1,5.0391838E1,1.4106143E2,0E0,0E0,1.6133865E1,1.1346901E1,9.0044685E1,1.0792206E1,1.04733E2,1.4289685E2,0E0,0E0,0E0,0E0,7.406496E1,5.4133087E1,2.3337173E0,0E0,3.3680447E1,1.2666718E1,6.632424E1,1.7582428E1,0E0,0E0,0E0,0E0,0E0,0E0,0E0,0E0,0E0,0E0,0E0,0E0,0E0,0E0],"parents":[2147483647,0,0,1,1,2,2,5,5,6,6,7,7,8,8,9,9,10,10,13,13,14,14,15,15,16,16,17,17,18,18,23,23,24,24,25,25,27,27,28,28,29,29,30,30],"right_children":[2,4,6,-1,-1,8,10,12,14,16,18,-1,-1,20,22,24,26,28,30,-1,-1,-1,-1,32,34,36,-1,38,40,42,44,-1,-1,-1,-1,-1,-1,-1,-1,-1,-1,-1,-1,-1,-1],"split_conditions":[-1.4042605E0,1.042685E0,-1.1971337E0,-3.608976E-2,-2.5032187E-2,-2.5587144E-1,-3.9217535E-2,-1.2376555E0,-1.2384263E0,-1.4023741E-2,9.2626035E-1,6.52745E-2,2.6194373E-2,-1.3373233E0,-1.2136326E0,-6.925981E-1,-7.7028763E-1,5.318964E-2,1.2614969E0,1.4311661E-2,6.0470372E-2,-1.02615245E-2,3.3009384E-2,-2.5330737E-1,2.1509387E0,-6.755423E-2,7.83012E-3,1.1152868E-1,9.4077224E-1,1.3357899E0,1.2895249E0,-3.233744E-2,9.279238E-3,1.440257E-2,-2.6783708E-2,5.7454932E-2,3.7225198E-2,-7.0828334E-3,3.4485877E-2,-3.607527E-2,3.365211E-3,8.824714E-3,-3.5810374E-2,-1.5291099E-2,-3.5425484E-2],"split_indices":[6,7,5,0,0,8,4,5,4,6,4,0,0,6,6,7,7,4,6,0,0,0,0,5,7,0,0,6,6,5,4,0,0,0,0,0,0,0,0,0,0,0,0,0,0],"split_type":[0,0,0,0,0,0,0,0,0,0,0,0,0,0,0,0,0,0,0,0,0,0,0,0,0,0,0,0,0,0,0,0,0,0,0,0,0,0,0,0,0,0,0,0,0],"sum_hessian":[7.1307725E3,7.511337E2,6.3796387E3,7.0729834E2,4.383537E1,3.5305252E2,6.026586E3,2.0816092E2,1.448916E2,2.7765532E3,3.2500327E3,1.766083E2,3.1552622E1,8.7563126E1,5.732847E1,2.657711E3,1.1884233E2,9.360475E2,2.3139854E3,3.0003012E1,5.7560116E1,2.7583578E1,2.974489E1,4.2468396E2,2.233027E3,9.8517685E1,2.0324648E1,3.3374927E2,6.022982E2,1.8698976E3,4.4408774E2,2.185629E2,2.0612106E2,2.1519668E3,8.106027E1,5.1081715E1,4.7435966E1,2.7669516E2,5.7054108E1,5.815431E2,2.0755098E1,1.7845547E3,8.534288E1,2.3827228E2,2.0581546E2],"tree_param":{"num_deleted":"0","num_feature":"16","num_nodes":"45","size_leaf_vector":"1"}},{"base_weights":[-1.3628192E-3,-3.609119E-2,1.050999E-1,2.966557E-2,7.5843394E-1,-2.0773515E-1,2.3423421E-1,2.446094E-1,8.2705885E-1,3.7431878E-1,-5.8408296E-1,1.0651095E0,-1.8671293E-2,6.1464883E-2,-4.301589E-1,1.1011937E0,5.885635E-1,1.0864702E-1,9.8316044E-1,-7.158481E-1,-3.1728074E-1,4.2297795E-1,1.292437E0,-1.1814757E-1,1.2277652E0,-4.3084896E-3,-3.468972E-2,9.0599275E-1,6.141134E-2,7.6879275E-1,-4.9238247E-1,7.187781E-3,-2.2797067E-2,6.339377E-2,1.597515E-2,-3.6014616E-2,-2.6080078E-2,-2.1076567E-2,1.7529046E-2,3.8212014E-3,5.38261E-2,6.580087E-2,4.01338E-2,-3.638696E-2,-3.767563E-4,3.7359368E-2,6.530311E-2,5.703376E-3,5.3983927E-2,1.0679192E-2,5.572761E-2,-1.3674021E-2,-3.22936E-2],"categories":[],"categories_nodes":[],"categories_segments":[],"categories_sizes":[],"default_left":[0,0,0,0,0,0,0,0,0,0,0,0,0,0,0,0,0,0,0,0,0,0,0,0,0,0,0,0,0,0,0,0,0,0,0,0,0,0,0,0,0,0,0,0,0,0,0,0,0,0,0,0,0],"id":8,"left_children":[1,-1,3,5,7,9,11,13,15,17,19,21,23,-1,25,27,29,31,33,35,37,39,41,43,45,-1,-1,47,-1,49,51,-1,-1,-1,-1,-1,-1,-1,-1,-1,-1,-1,-1,-1,-1,-1,-1,-1,-1,-1,-1,-1,-1],"loss_changes":[5.451493E2,0E0,3.0513666E2,2.69799E2,2.2193634E1,5.637391E2,6.2706274E2,5.3115837E1,3.5612854E1,1.6331886E2,5.4476013E1,1.00555786E2,2.8417764E2,0E0,4.230958E0,4.2302856E0,6.04078E1,1.4127691E1,5.717755E1,1.5002441E-1,3.651108E1,4.1744755E1,3.8154297E0,1.4308466E2,4.4223633E0,0E0,0E0,1.4919319E1,0E0,5.005229E1,1.157856E0,0E0,0E0,0E0,0E0,0E0,0E0,0E0,0E0,0E0,0E0,0E0,0E0,0E0,0E0,0E0,0E0,0E0,0E0,0E0,0E0,0E0,0E0],"parents":[2147483647,0,0,2,2,3,3,4,4,5,5,6,6,7,7,8,8,9,9,10,10,11,11,12,12,14,14,15,15,16,16,17,17,18,18,19,19,20,20,21,21,22,22,23,23,24,24,27,27,29,29,30,30],"right_children":[2,-1,4,6,8,10,12,14,16,18,20,22,24,-1,26,28,30,32,34,36,38,40,42,44,46,-1,-1,48,-1,50,52,-1,-1,-1,-1,-1,-1,-1,-1,-1,-1,-1,-1,-1,-1,-1,-1,-1,-1,-1,-1,-1,-1],"split_conditions":[-1.2609829E0,-3.609119E-2,1.2571551E0,3.4665791E-3,-1.991286E0,-7.352157E-1,9.038319E-1,-6.474415E-1,-9.7020276E-2,-1.0016195E0,-1.1463485E-1,5.318964E-2,1.3127799E0,6.1464883E-2,2.9952762E-1,1.5565475E0,9.3236876E-1,-8.832939E-1,1.6137879E-1,-1.195975E-1,3.3246896E-1,-2.3861708E-1,2.9223463E-1,1.018649E0,1.3195955E0,-4.3084896E-3,-3.468972E-2,-1.776692E0,6.141134E-2,1.5358231E0,1.6020391E0,7.187781E-3,-2.2797067E-2,6.339377E-2,1.597515E-2,-3.6014616E-2,-2.6080078E-2,-2.1076567E-2,1.7529046E-2,3.8212014E-3,5.38261E-2,6.580087E-2,4.01338E-2,-3.638696E-2,-3.767563E-4,3.7359368E-2,6.530311E-2,5.703376E-3,5.3983927E-2,1.0679192E-2,5.572761E-2,-1.3674021E-2,-3.22936E-2],"split_indices":[3,0,8,3,15,0,3,11,12,3,3,3,3,0,11,7,11,1,7,3,8,7,3,3,3,0,0,12,0,15,8,0,0,0,0,0,0,0,0,0,0,0,0,0,0,0,0,0,0,0,0,0,0],"split_type":[0,0,0,0,0,0,0,0,0,0,0,0,0,0,0,0,0,0,0,0,0,0,0,0,0,0,0,0,0,0,0,0,0,0,0,0,0,0,0,0,0,0,0,0,0,0,0,0,0,0,0,0,0],"sum_hessian":[7.103367E3,9.130384E2,6.1903286E3,5.5514463E3,6.388824E2,2.569512E3,2.9819346E3,7.634948E1,5.6253296E2,1.00900714E3,1.5605048E3,6.9435004E2,2.2875845E3,3.0376904E1,4.5972576E1,2.5834622E2,3.041867E2,7.041179E2,3.0488925E2,1.0423534E3,5.181513E2,1.8303961E2,5.1131046E2,2.120186E3,1.6739853E2,2.109792E1,2.4874659E1,1.08258484E2,1.5008774E2,2.6121167E2,4.297502E1,6.6429956E2,3.9818325E1,2.1208292E2,9.2806335E1,1.01374335E3,2.8610065E1,4.4882858E2,6.932273E1,1.2107252E2,6.196709E1,4.8460422E2,2.670623E1,3.2391473E2,1.7962712E3,2.6406193E1,1.4099232E2,2.0068607E1,8.818988E1,1.0148534E2,1.5972635E2,2.0006245E1,2.2968777E1],"tree_param":{"num_deleted":"0","num_feature":"16","num_nodes":"53","size_leaf_vector":"1"}},{"base_weights":[1.7766482E-3,1.2156315E0,-1.6361295E-1,6.1243147E-2,4.5158394E-2,-6.9353795E-1,6.3971276E-3,1.0706223E-2,-3.5489537E-2,4.8842806E-1,-1.226833E-1,1.0890172E0,4.3010297E-1,-3.5501283E-1,1.0913672E-2,3.501198E-2,6.2481076E-2,-1.9084943E-2,4.9324316E-1,2.015465E-3,-6.9064087E-1,2.0455937E-1,-2.6555526E-1,-2.1041373E-2,5.1198084E-2,5.2685257E-2,2.2311118E-2,-1.9465787E-2,7.318727E-3,-3.4907147E-2,-2.3349646E-2,2.7546737E-2,4.273023E-3,4.819439E-2,-1.5113637E-2],"categories":[],"categories_nodes":[],"categories_segments":[],"categories_sizes":[],"default_left":[0,0,0,0,0,0,0,0,0,0,0,0,0,0,0,0,0,0,0,0,0,0,0,0,0,0,0,0,0,0,0,0,0,0,0],"id":9,"left_children":[1,3,5,-1,-1,7,9,-1,-1,11,13,15,17,19,21,-1,-1,23,25,27,29,31,33,-1,-1,-1,-1,-1,-1,-1,-1,-1,-1,-1,-1],"loss_changes":[1.4302812E3,2.5170898E-1,5.6489703E2,0E0,0E0,2.2771057E1,2.9561243E2,0E0,0E0,3.4215866E1,1.1632714E2,3.7148056E0,2.6054825E1,1.639612E2,1.275968E2,0E0,0E0,4.9076447E1,2.027237E1,3.768093E1,5.312805E-1,5.7723866E1,4.490133E1,0E0,0E0,0E0,0E0,0E0,0E0,0E0,0E0,0E0,0E0,0E0,0E0],"parents":[2147483647,0,0,1,1,2,2,5,5,6,6,9,9,10,10,11,11,12,12,13,13,14,14,17,17,18,18,19,19,20,20,21,21,22,22],"right_children":[2,4,6,-1,-1,8,10,-1,-1,12,14,16,18,20,22,-1,-1,24,26,28,30,32,34,-1,-1,-1,-1,-1,-1,-1,-1,-1,-1,-1,-1],"split_conditions":[-1.3763994E0,-1.3886943E0,-8.751289E-1,6.1243147E-2,4.5158394E-2,-1.3671653E0,-1.3421775E-1,1.0706223E-2,-3.5489537E-2,-3.4664786E-1,8.6065245E-1,-3.8834038E-1,-3.2674852E-1,3.4665791E-3,1.1548483E0,3.501198E-2,6.2481076E-2,8.71129E-1,-2.8614888E-1,-8.3686545E-2,3.969876E-1,1.018649E0,-1.6614625E0,-2.1041373E-2,5.1198084E-2,5.2685257E-2,2.2311118E-2,-1.9465787E-2,7.318727E-3,-3.4907147E-2,-2.3349646E-2,2.7546737E-2,4.273023E-3,4.819439E-2,-1.5113637E-2],"split_indices":[3,3,3,0,0,3,3,0,0,3,5,3,6,3,5,0,0,7,5,6,5,3,14,0,0,0,0,0,0,0,0,0,0,0,0],"split_type":[0,0,0,0,0,0,0,0,0,0,0,0,0,0,0,0,0,0,0,0,0,0,0,0,0,0,0,0,0,0,0,0,0,0,0],"sum_hessian":[7.120389E3,8.5230566E2,6.2680835E3,8.221753E2,3.0130339E1,1.5209844E3,4.747099E3,2.6327559E1,1.4946569E3,1.0015178E3,3.7455815E3,8.552289E1,9.1599493E2,1.3662731E3,2.3793086E3,2.8135328E1,5.738756E1,1.1306076E2,8.0293414E2,6.6299365E2,7.0327936E2,1.3995494E3,9.7975903E2,8.248407E1,3.0576694E1,5.8835022E1,7.440991E2,1.7775053E2,4.852431E2,6.7634863E2,2.693074E1,3.5624124E2,1.0433082E3,2.6947563E1,9.5281146E2],"tree_param":{"num_deleted":"0","num_feature":"16","num_nodes":"35","size_leaf_vector":"1"}},{"base_weights":[-4.561779E-3,-6.985211E-1,7.53043E-2,-3.544184E-2,-1.986363E-2,8.1351715E-1,2.0477224E-2,1.0121844E0,5.1826525E-1,1.802928E-1,-1.1165354E-1,1.1315756E0,6.613637E-3,7.1434563E-1,7.914786E-2,1.5119344E-1,9.099695E-1,-4.270558E-1,1.9139964E-2,6.0609102E-2,7.606861E-1,5.52406E-1,5.941669E-2,1.742556E-2,-8.564978E-3,-2.4367617E-1,2.2628196E-1,1.0387632E0,3.3384956E-2,-8.361941E-3,-6.815451E-1,1.3575128E-1,-4.85657E-1,2.036552E-2,4.9905267E-2,6.1005305E-2,1.705747E-2,-3.297658E-2,8.6350115E-3,1.2498523E-2,-3.449331E-2,3.7653934E-2,6.542523E-2,-6.5955566E-3,3.194838E-2,-3.543895E-2,4.3893015E-4,8.869867E-3,-3.529375E-2,-1.5403223E-2,-3.461684E-2],"categories":[],"categories_nodes":[],"categories_segments":[],"categories_sizes":[],"default_left":[0,0,0,0,0,0,0,0,0,0,0,0,0,0,0,0,0,0,0,0,0,0,0,0,0,0,0,0,0,0,0,0,0,0,0,0,0,0,0,0,0,0,0,0,0,0,0,0,0,0,0],"id":10,"left_children":[1,3,5,-1,-1,7,9,11,13,15,17,19,-1,21,23,25,27,29,31,-1,33,35,-1,-1,-1,37,39,41,-1,43,45,47,49,-1,-1,-1,-1,-1,-1,-1,-1,-1,-1,-1,-1,-1,-1,-1,-1,-1,-1],"loss_changes":[3.9486096E2,1.7218018E0,2.585631E2,0E0,0E0,2.4857666E1,1.2567372E2,2.7216187E1,1.5535908E1,5.691487E1,1.344209E2,5.042694E0,0E0,8.312122E0,4.0560093E0,7.697951E1,1.8234787E0,1.0176073E2,1.3581335E2,0E0,3.0878963E0,1.28782425E1,0E0,0E0,0E0,7.2119156E1,4.7641525E1,2.9289246E0,0E0,2.9208328E1,1.1180328E1,6.593429E1,1.546579E1,0E0,0E0,0E0,0E0,0E0,0E0,0E0,0E0,0E0,0E0,0E0,0E0,0E0,0E0,0E0,0E0,0E0,0E0],"parents":[2147483647,0,0,1,1,2,2,5,5,6,6,7,7,8,8,9,9,10,10,11,11,13,13,14,14,15,15,16,16,17,17,18,18,20,20,21,21,25,25,26,26,27,27,29,29,30,30,31,31,32,32],"right_children":[2,4,6,-1,-1,8,10,12,14,16,18,20,-1,22,24,26,28,30,32,-1,34,36,-1,-1,-1,38,40,42,-1,44,46,48,50,-1,-1,-1,-1,-1,-1,-1,-1,-1,-1,-1,-1,-1,-1,-1,-1,-1,-1],"split_conditions":[-1.3763994E0,-1.3886943E0,-1.166921E0,-3.544184E-2,-1.986363E-2,-1.2376555E0,-4.577465E-2,5.2236485E-1,-1.134516E0,-1.4023741E-2,9.262604E-1,-1.2663778E0,6.613637E-3,-1.1954782E0,-1.1971337E0,-6.925981E-1,-1.1205835E0,5.318964E-2,1.2614969E0,6.0609102E-2,-1.1729047E0,-1.2609829E0,5.941669E-2,1.742556E-2,-8.564978E-3,-2.5330737E-1,2.2623954E0,-1.6459757E-1,3.3384956E-2,1.1152868E-1,9.4077224E-1,1.3357899E0,1.2895252E0,2.036552E-2,4.9905267E-2,6.1005305E-2,1.705747E-2,-3.297658E-2,8.6350115E-3,1.2498523E-2,-3.449331E-2,3.7653934E-2,6.542523E-2,-6.5955566E-3,3.194838E-2,-3.543895E-2,4.3893015E-4,8.869867E-3,-3.529375E-2,-1.5403223E-2,-3.461684E-2],"split_indices":[3,3,5,0,0,5,3,7,6,6,3,5,0,6,5,7,7,3,6,0,6,3,0,0,0,5,7,5,0,6,6,5,3,0,0,0,0,0,0,0,0,0,0,0,0,0,0,0,0,0,0],"split_type":[0,0,0,0,0,0,0,0,0,0,0,0,0,0,0,0,0,0,0,0,0,0,0,0,0,0,0,0,0,0,0,0,0,0,0,0,0,0,0,0,0,0,0,0,0,0,0,0,0,0,0],"sum_hessian":[7.120495E3,7.333032E2,6.387192E3,7.064078E2,2.6895454E1,4.396672E2,5.9475244E3,2.599185E2,1.797487E2,2.691435E3,3.2560894E3,2.2836118E2,3.1557306E1,1.2339515E2,5.6353554E1,2.5905393E3,1.00895775E2,9.531305E2,2.302959E3,1.8386469E2,4.4496502E1,9.520048E1,2.8194674E1,2.6774117E1,2.9579435E1,4.131912E2,2.1773481E3,6.1582554E1,3.931322E1,3.6110114E2,5.9202936E2,1.8719814E3,4.3097745E2,2.0064123E1,2.4432377E1,2.0585808E1,7.461467E1,2.0614058E2,2.0705061E2,2.1238857E3,5.3462242E1,3.3590446E1,2.7992105E1,3.0456448E2,5.653667E1,5.6950824E2,2.252111E1,1.785222E3,8.6759445E1,2.3447905E2,1.9649838E2],"tree_param":{"num_deleted":"0","num_feature":"16","num_nodes":"51","size_leaf_vector":"1"}},{"base_weights":[-2.3492158E-3,-6.809316E-1,1.056168E-1,-3.547088E-2,-3.9009628E-1,3.288566E-2,6.9039863E-1,-3.315587E-2,2.2830201E-2,-1.9876978E-1,2.2133625E-1,1.5611446E-1,7.636461E-1,4.3997958E-1,-5.686303E-1,1.0028722E0,-1.7229037E-2,-4.4338417E-1,5.716012E-2,1.8341286E-1,8.579919E-1,9.97102E-1,7.004391E-2,-6.974983E-1,-3.1048584E-1,4.2744228E-1,1.215819E0,-3.9736E-1,3.6067146E-1,-7.608992E-4,-3.496217E-2,-4.9140364E-1,5.7165038E-2,1.9298646E-1,9.860614E-1,1.3272765E-3,5.496453E-2,-1.8496886E-3,4.3268304E-2,-1.2301002E-2,-3.5315376E-2,3.8063213E-2,-1.8361002E-2,3.27927E-3,5.2263953E-2,6.190989E-2,3.715415E-2,-3.5793323E-2,-1.3476354E-2,1.0801934E-2,5.822068E-2,-1.2941885E-2,-3.473653E-2,-2.2021536E-2,5.9069283E-2,3.934154E-2,5.6964397E-2],"categories":[],"categories_nodes":[],"categories_segments":[],"categories_sizes":[],"default_left":[0,0,0,0,0,0,0,0,0,0,0,0,0,0,0,0,0,0,0,0,0,0,0,0,0,0,0,0,0,0,0,0,0,0,0,0,0,0,0,0,0,0,0,0,0,0,0,0,0,0,0,0,0,0,0,0,0],"id":11,"left_children":[1,3,5,-1,7,9,11,-1,-1,13,15,17,19,21,23,25,27,29,-1,31,33,35,37,39,41,43,45,47,49,-1,-1,51,-1,53,55,-1,-1,-1,-1,-1,-1,-1,-1,-1,-1,-1,-1,-1,-1,-1,-1,-1,-1,-1,-1,-1,-1],"loss_changes":[5.210858E2,7.5348206E0,2.6093845E2,0E0,2.1765726E1,2.3842747E2,2.6320862E1,0E0,0E0,5.793288E2,5.6151196E2,5.0920795E1,3.2329437E1,1.8526372E2,5.121338E1,8.526337E1,3.3199957E2,5.884677E0,0E0,5.67941E1,4.3256958E1,3.552942E1,4.6269028E1,3.764557E0,3.2211685E1,4.3083775E1,3.586731E0,4.6523712E1,1.3422997E2,0E0,0E0,2.0928879E0,0E0,5.43991E1,1.1308014E1,0E0,0E0,0E0,0E0,0E0,0E0,0E0,0E0,0E0,0E0,0E0,0E0,0E0,0E0,0E0,0E0,0E0,0E0,0E0,0E0,0E0,0E0],"parents":[2147483647,0,0,1,1,2,2,4,4,5,5,6,6,9,9,10,10,11,11,12,12,13,13,14,14,15,15,16,16,17,17,19,19,20,20,21,21,22,22,23,23,24,24,25,25,26,26,27,27,28,28,31,31,33,33,34,34],"right_children":[2,4,6,-1,8,10,12,-1,-1,14,16,18,20,22,24,26,28,30,-1,32,34,36,38,40,42,44,46,48,50,-1,-1,52,-1,54,56,-1,-1,-1,-1,-1,-1,-1,-1,-1,-1,-1,-1,-1,-1,-1,-1,-1,-1,-1,-1,-1,-1],"split_conditions":[-1.2376555E0,-1.2384263E0,1.2571551E0,-3.547088E-2,-3.9169824E-1,3.4665791E-3,-1.991286E0,-3.315587E-2,2.2830201E-2,-8.7961596E-1,9.038319E-1,1.5982755E0,-1.991286E0,-9.94609E-2,-1.1463485E-1,5.318964E-2,1.1198236E0,1.21899E0,5.716012E-2,1.5358231E0,-1.991286E0,-1.1971337E0,-9.833784E-1,-8.324594E-1,-2.3974913E-1,-2.3861708E-1,2.9223463E-1,1.018649E0,1.3127799E0,-7.608992E-4,-3.496217E-2,-1.0320798E0,5.7165038E-2,1.5982755E0,1.5565475E0,1.3272765E-3,5.496453E-2,-1.8496886E-3,4.3268304E-2,-1.2301002E-2,-3.5315376E-2,3.8063213E-2,-1.8361002E-2,3.27927E-3,5.2263953E-2,6.190989E-2,3.715415E-2,-3.5793323E-2,-1.3476354E-2,1.0801934E-2,5.822068E-2,-1.2941885E-2,-3.473653E-2,-2.2021536E-2,5.9069283E-2,3.934154E-2,5.6964397E-2],"split_indices":[5,3,8,0,7,3,15,0,0,5,3,13,14,8,3,3,5,14,0,15,13,5,3,5,0,7,3,3,3,0,0,5,0,14,7,0,0,0,0,0,0,0,0,0,0,0,0,0,0,0,0,0,0,0,0,0,0],"split_type":[0,0,0,0,0,0,0,0,0,0,0,0,0,0,0,0,0,0,0,0,0,0,0,0,0,0,0,0,0,0,0,0,0,0,0,0,0,0,0,0,0,0,0,0,0,0,0,0,0,0,0,0,0,0,0,0,0],"sum_hessian":[7.1084927E3,9.742943E2,6.134198E3,8.8475806E2,8.953626E1,5.4575396E3,6.7665875E2,6.803259E1,2.150367E1,2.4480864E3,3.009453E3,8.233692E1,5.9432184E2,8.975822E2,1.5505043E3,7.023052E2,2.3071477E3,5.191094E1,3.0425987E1,8.3944595E1,5.1037723E2,3.5682053E2,5.407617E2,1.0319443E3,5.1855994E2,1.9132281E2,5.1098236E2,1.1501282E3,1.1570195E3,2.0209845E1,3.1701094E1,4.98649E1,3.4079697E1,8.3227776E1,4.2714944E2,3.4230385E1,3.2259015E2,4.7829745E2,6.246424E1,2.0856966E1,1.01108734E3,2.4821808E1,4.9373813E2,1.2205154E2,6.9271286E1,4.8479437E2,2.6188004E1,3.2676523E2,8.23363E2,9.827178E2,1.7430176E2,2.538056E1,2.4484337E1,5.1398052E1,3.1829721E1,1.9103246E2,2.3611699E2],"tree_param":{"num_deleted":"0","num_feature":"16","num_nodes":"57","size_leaf_vector":"1"}},{"base_weights":[-8.8814885E-4,5.763612E-2,-1.6064335E-1,-6.825597E-1,2.4667422E-3,9.652991E-3,-6.9840366E-1,4.7617576E-1,-1.2785599E-1,-2.3663802E-2,-3.5081547E-2,1.0544866E0,4.192104E-1,-3.415936E-1,-5.695289E-3,2.9334262E-2,6.0550213E-2,-1.2280761E-1,4.7591367E-1,1.602094E-2,-6.678631E-1,5.281927E-1,-9.909017E-2,-3.1758264E-2,5.4689776E-2,6.32843E-2,2.214966E-2,-2.0209974E-2,7.2341203E-3,-2.1240814E-2,-3.437036E-2,-1.6712433E-2,3.149553E-2,1.2570646E-3,-1.623291E-2],"categories":[],"categories_nodes":[],"categories_segments":[],"categories_sizes":[],"default_left":[0,0,0,0,0,0,0,0,0,0,0,0,0,0,0,0,0,0,0,0,0,0,0,0,0,0,0,0,0,0,0,0,0,0,0],"id":12,"left_children":[1,-1,3,5,7,-1,9,11,13,-1,-1,15,17,19,21,-1,-1,23,25,27,29,31,33,-1,-1,-1,-1,-1,-1,-1,-1,-1,-1,-1,-1],"loss_changes":[1.3043044E3,0E0,5.2920276E2,2.0804504E1,2.926351E2,0E0,3.925171E-1,3.280783E1,9.706105E1,0E0,0E0,5.1971207E0,2.8832657E1,1.5776595E2,1.18155655E2,0E0,0E0,5.7537918E1,2.0880844E1,3.5095005E1,2.7743225E0,3.1371895E1,5.65302E1,0E0,0E0,0E0,0E0,0E0,0E0,0E0,0E0,0E0,0E0,0E0,0E0],"parents":[2147483647,0,0,2,2,3,3,4,4,6,6,7,7,8,8,11,11,12,12,13,13,14,14,17,17,18,18,19,19,20,20,21,21,22,22],"right_children":[2,-1,4,6,8,-1,10,12,14,-1,-1,16,18,20,22,-1,-1,24,26,28,30,32,34,-1,-1,-1,-1,-1,-1,-1,-1,-1,-1,-1,-1],"split_conditions":[-1.3763994E0,5.763612E-2,-7.7750045E-1,-1.3671653E0,-1.3421775E-1,9.652991E-3,-1.3540907E0,-3.4664786E-1,8.6065245E-1,-2.3663802E-2,-3.5081547E-2,6.2604606E-1,-3.5015407E-1,-8.573424E-3,1.018649E0,2.9334262E-2,6.0550213E-2,8.580718E-1,-3.0524418E-1,-9.3900286E-2,1.2012713E-2,-1.3056332E0,-2.1626586E-1,-3.1758264E-2,5.4689776E-2,6.32843E-2,2.214966E-2,-2.0209974E-2,7.2341203E-3,-2.1240814E-2,-3.437036E-2,-1.6712433E-2,3.149553E-2,1.2570646E-3,-1.623291E-2],"split_indices":[3,0,6,3,3,0,3,3,5,0,0,9,6,3,3,0,0,9,5,6,3,9,9,0,0,0,0,0,0,0,0,0,0,0,0],"split_type":[0,0,0,0,0,0,0,0,0,0,0,0,0,0,0,0,0,0,0,0,0,0,0,0,0,0,0,0,0,0,0,0,0,0,0],"sum_hessian":[7.0732437E3,8.588632E2,6.2143804E3,1.4781754E3,4.736205E3,2.5873938E1,1.4523015E3,1.0207137E3,3.7154912E3,2.4697973E1,1.4276035E3,8.838717E1,9.3232654E2,1.3499567E3,2.3655347E3,2.453962E1,6.384755E1,8.807733E1,8.442492E2,6.449487E2,7.050079E2,3.508134E2,2.0147213E3,6.264921E1,2.5428118E1,3.0786196E1,8.13463E2,1.5017616E2,4.9477258E2,5.5856705E1,6.491512E2,3.6528122E1,3.1428528E2,1.300338E3,7.143833E2],"tree_param":{"num_deleted":"0","num_feature":"16","num_nodes":"35","size_leaf_vector":"1"}},{"base_weights":[2.5097486E-3,-6.868665E-1,8.095555E-2,-3.4855332E-2,-1.9603036E-2,8.5973775E-1,2.7711665E-2,1.0122647E0,4.9486676E-1,1.7034173E-1,-1.284389E-1,5.76813E-2,7.39366E-1,-1.0944632E-2,6.3990784E-1,1.8574935E-1,-3.3251505E-2,-6.667938E-1,4.3236623E-3,6.027014E-1,4.6802767E-2,5.91945E-2,2.2816122E-1,2.0103288E-1,-3.402371E-2,-6.9612813E-1,-3.357359E-1,7.767083E-2,-6.2555754E-1,2.4414323E-2,3.9314173E-2,4.0630437E-3,1.8545378E-2,1.0819997E-2,-3.3096176E-2,-2.3914812E-2,-3.528675E-2,2.3770493E-3,-3.326061E-2,5.247851E-3,-3.5643917E-2,-1.3346332E-2,-3.3439163E-2],"categories":[],"categories_nodes":[],"categories_segments":[],"categories_sizes":[],"default_left":[0,0,0,0,0,0,0,0,0,0,0,0,0,0,0,0,0,0,0,0,0,0,0,0,0,0,0,0,0,0,0,0,0,0,0,0,0,0,0,0,0,0,0],"id":13,"left_children":[1,3,5,-1,-1,7,9,11,13,15,17,-1,19,-1,21,23,-1,25,27,29,-1,-1,31,33,-1,35,37,39,41,-1,-1,-1,-1,-1,-1,-1,-1,-1,-1,-1,-1,-1,-1],"loss_changes":[3.8514554E2,1.6499939E0,2.650931E2,0E0,0E0,2.1766815E1,1.3338803E2,9.350433E0,1.3171059E1,4.0532257E1,2.0436575E2,0E0,1.6502838E0,0E0,2.2754036E1,4.098046E1,0E0,5.0256805E0,1.0615428E2,6.311836E-1,0E0,0E0,1.2329576E0,4.0374947E1,0E0,4.083557E-1,6.3651E0,4.4541912E1,3.3581085E0,0E0,0E0,0E0,0E0,0E0,0E0,0E0,0E0,0E0,0E0,0E0,0E0,0E0,0E0],"parents":[2147483647,0,0,1,1,2,2,5,5,6,6,7,7,8,8,9,9,10,10,12,12,14,14,15,15,17,17,18,18,19,19,22,22,23,23,25,25,26,26,27,27,28,28],"right_children":[2,4,6,-1,-1,8,10,12,14,16,18,-1,20,-1,22,24,-1,26,28,30,-1,-1,32,34,-1,36,38,40,42,-1,-1,-1,-1,-1,-1,-1,-1,-1,-1,-1,-1,-1,-1],"split_conditions":[-1.3763994E0,-1.3886943E0,-1.1861724E0,-3.4855332E-2,-1.9603036E-2,1.9807348E-1,5.318964E-2,-1.2663778E0,-1.3352054E0,2.33513E0,9.262604E-1,5.76813E-2,-1.2899157E-1,-1.0944632E-2,-1.2609829E0,2.33513E0,-3.3251505E-2,9.140708E-1,1.2895252E0,3.912886E-1,4.6802767E-2,5.91945E-2,-1.2056956E0,2.33513E0,-3.402371E-2,6.903426E-2,-6.8147564E-3,8.065685E-1,1.2974392E0,2.4414323E-2,3.9314173E-2,4.0630437E-3,1.8545378E-2,1.0819997E-2,-3.3096176E-2,-2.3914812E-2,-3.528675E-2,2.3770493E-3,-3.326061E-2,5.247851E-3,-3.5643917E-2,-1.3346332E-2,-3.3439163E-2],"split_indices":[3,3,5,0,0,8,3,5,5,10,3,0,9,0,3,12,0,5,3,13,0,0,5,11,0,3,8,9,3,0,0,0,0,0,0,0,0,0,0,0,0,0,0],"split_type":[0,0,0,0,0,0,0,0,0,0,0,0,0,0,0,0,0,0,0,0,0,0,0,0,0,0,0,0,0,0,0,0,0,0,0,0,0,0,0,0,0,0,0],"sum_hessian":[7.1178926E3,7.256264E2,6.392266E3,6.986301E2,2.6996222E1,4.0712198E2,5.985144E3,2.8460147E2,1.2252052E2,3.127898E3,2.8572463E3,1.8323254E2,1.0136893E2,2.0520254E1,1.02000275E2,3.0727788E3,5.5119118E1,5.63638E2,2.2936084E3,6.460692E1,3.6762E1,4.232789E1,5.9672382E1,3.0210122E3,5.1766506E1,5.1573444E2,4.790354E1,2.055954E3,2.3765431E2,4.4310528E1,2.0296392E1,3.0955051E1,2.871733E1,2.9696292E3,5.1383068E1,2.6074686E1,4.8965976E2,2.293494E1,2.4968601E1,1.9890359E3,6.691806E1,2.7106901E1,2.1054741E2],"tree_param":{"num_deleted":"0","num_feature":"16","num_nodes":"43","size_leaf_vector":"1"}},{"base_weights":[6.703294E-4,-6.90298E-1,1.0312203E-1,-3.4889594E-2,-5.579994E-1,3.4877297E-2,6.1605084E-1,-1.685229E-2,-3.402861E-2,-4.0170606E-2,4.376562E-1,1.1404366E-1,7.040208E-1,4.0933573E-1,-1.5734564E-1,3.7342256E-1,6.007424E-2,5.5223543E-2,-4.368954E-1,9.580615E-1,4.5203474E-1,1.2390621E-1,1.0996387E0,-5.674296E-1,8.200097E-2,3.1022245E-1,9.564334E-1,-9.770344E-4,-3.457291E-2,8.03693E-1,5.9960376E-2,-1.3491239E-1,8.951211E-1,2.7439988E-3,2.3982588E-2,5.965313E-2,3.006114E-2,1.1158104E-2,-2.9382503E-2,3.5681702E-2,-1.5419917E-2,5.021596E-3,2.7241692E-2,4.333449E-3,6.684261E-2,4.8811384E-2,-1.1662827E-2,3.147843E-2,-1.6534219E-2,5.3287536E-2,-1.0219685E-2],"categories":[],"categories_nodes":[],"categories_segments":[],"categories_sizes":[],"default_left":[0,0,0,0,0,0,0,0,0,0,0,0,0,0,0,0,0,0,0,0,0,0,0,0,0,0,0,0,0,0,0,0,0,0,0,0,0,0,0,0,0,0,0,0,0,0,0,0,0,0,0],"id":14,"left_children":[1,3,5,-1,7,9,11,-1,-1,13,15,17,19,21,23,25,-1,-1,27,29,31,33,35,37,39,41,43,-1,-1,45,-1,47,49,-1,-1,-1,-1,-1,-1,-1,-1,-1,-1,-1,-1,-1,-1,-1,-1,-1,-1],"loss_changes":[5.008723E2,1.2701416E-1,2.156471E2,0E0,1.1380329E0,1.6448354E2,3.1787048E1,0E0,0E0,2.4176666E2,4.10338E1,6.1127373E1,3.8513977E1,1.8674529E2,3.5741803E2,2.8560791E1,0E0,0E0,7.6521206E0,9.409454E0,8.1544556E1,1.6492184E1,1.1482483E1,2.1715088E1,5.6773285E2,3.5171562E1,2.5054924E1,0E0,0E0,3.4761223E1,0E0,2.080325E1,3.3906036E1,0E0,0E0,0E0,0E0,0E0,0E0,0E0,0E0,0E0,0E0,0E0,0E0,0E0,0E0,0E0,0E0,0E0,0E0],"parents":[2147483647,0,0,1,1,2,2,4,4,5,5,6,6,9,9,10,10,11,11,12,12,13,13,14,14,15,15,18,18,19,19,20,20,21,21,22,22,23,23,24,24,25,25,26,26,29,29,31,31,32,32],"right_children":[2,4,6,-1,8,10,12,-1,-1,14,16,18,20,22,24,26,-1,-1,28,30,32,34,36,38,40,42,44,-1,-1,46,-1,48,50,-1,-1,-1,-1,-1,-1,-1,-1,-1,-1,-1,-1,-1,-1,-1,-1,-1,-1],"split_conditions":[-1.2663778E0,-1.3163121E0,1.2192395E0,-3.4889594E-2,-1.2136326E0,1.1693434E0,-1.9158432E0,-1.685229E-2,-3.402861E-2,-9.107802E-1,1.3725678E0,-6.084745E-1,1.5143746E-1,-9.8061174E-1,-8.268738E-2,1.1105038E0,6.007424E-2,5.5223543E-2,-1.085243E0,-1.252418E-1,1.7287854E0,9.451011E-1,-6.957671E-2,-1.6933436E0,8.6065245E-1,1.2480423E0,-6.3301295E-1,-9.770344E-4,-3.457291E-2,-1.0384953E0,5.9960376E-2,-2.210025E-1,6.24246E-1,2.7439988E-3,2.3982588E-2,5.965313E-2,3.006114E-2,1.1158104E-2,-2.9382503E-2,3.5681702E-2,-1.5419917E-2,5.021596E-3,2.7241692E-2,4.333449E-3,6.684261E-2,4.8811384E-2,-1.1662827E-2,3.147843E-2,-1.6534219E-2,5.3287536E-2,-1.0219685E-2],"split_indices":[5,5,7,0,6,5,13,0,0,5,6,12,13,6,5,12,0,0,5,5,13,7,9,9,5,6,11,0,0,6,0,10,12,0,0,0,0,0,0,0,0,0,0,0,0,0,0,0,0,0,0],"split_type":[0,0,0,0,0,0,0,0,0,0,0,0,0,0,0,0,0,0,0,0,0,0,0,0,0,0,0,0,0,0,0,0,0,0,0,0,0,0,0,0,0,0,0,0,0,0,0,0,0,0,0],"sum_hessian":[7.0713677E3,9.116205E2,6.159747E3,8.546608E2,5.6959675E1,5.4383193E3,7.2142773E2,2.2999523E1,3.396015E1,4.58569E3,8.526295E2,1.08255E2,6.131727E2,9.4717084E2,3.638519E3,7.8923694E2,6.3392586E1,3.797595E1,7.027905E1,3.0255078E2,3.1062192E2,6.717653E2,2.7540552E2,1.3399601E3,2.2985588E3,7.1481323E2,7.4423676E1,2.744182E1,4.283723E1,1.8974925E2,1.1280154E2,1.3421765E2,1.7640427E2,5.645355E2,1.0722977E2,2.2958443E2,4.582107E1,3.291611E1,1.307044E3,8.7737866E2,1.4211803E3,3.7887643E2,3.3593683E2,2.3393639E1,5.1030037E1,1.6278166E2,2.6967594E1,2.6460178E1,1.0775747E2,1.5275949E2,2.3644768E1],"tree_param":{"num_deleted":"0","num_feature":"16","num_nodes":"51","size_leaf_vector":"1"}},{"base_weights":[-1.3985598E-5,5.472049E-2,-1.533743E-1,-6.708844E-1,5.536624E-3,1.1120951E-2,-6.875226E-1,4.6092144E-1,-1.20942734E-1,-2.1822372E-2,-3.4574527E-2,1.0519403E0,4.0165547E-1,-3.358578E-1,-1.7787513E-3,3.8184594E-2,5.7784207E-2,-8.65836E-2,4.4897634E-1,4.9881632E-3,-6.711612E-1,5.5436254E-1,-9.266607E-2,-1.6206726E-2,1.0687574E-2,2.6598567E-2,1.1501162E-2,-1.6604695E-2,6.4172703E-3,-3.3877447E-2,-2.3329047E-2,3.518691E-2,-1.7397521E-3,1.8522007E-3,-2.207568E-2],"categories":[],"categories_nodes":[],"categories_segments":[],"categories_sizes":[],"default_left":[0,0,0,0,0,0,0,0,0,0,0,0,0,0,0,0,0,0,0,0,0,0,0,0,0,0,0,0,0,0,0,0,0,0,0],"id":15,"left_children":[1,-1,3,5,7,-1,9,11,13,-1,-1,15,17,19,21,-1,-1,23,25,27,29,31,33,-1,-1,-1,-1,-1,-1,-1,-1,-1,-1,-1,-1],"loss_changes":[1.1775038E3,0E0,5.0604456E2,2.179181E1,2.7137582E2,0E0,8.1073E-1,3.5028625E1,9.4437485E1,0E0,0E0,9.891434E-1,2.1658112E1,1.5033E2,1.2011126E2,0E0,0E0,6.146367E0,1.5235092E1,2.7290054E1,2.341919E-1,2.9424622E1,9.245128E1,0E0,0E0,0E0,0E0,0E0,0E0,0E0,0E0,0E0,0E0,0E0,0E0],"parents":[2147483647,0,0,2,2,3,3,4,4,6,6,7,7,8,8,11,11,12,12,13,13,14,14,17,17,18,18,19,19,20,20,21,21,22,22],"right_children":[2,-1,4,6,8,-1,10,12,14,-1,-1,16,18,20,22,-1,-1,24,26,28,30,32,34,-1,-1,-1,-1,-1,-1,-1,-1,-1,-1,-1,-1],"split_conditions":[-1.376399E0,5.472049E-2,-8.751287E-1,-1.3671657E0,-1.3421805E-1,1.1120951E-2,-1.3540907E0,-3.4664786E-1,8.6065245E-1,-2.1822372E-2,-3.4574527E-2,-3.8834038E-1,-3.1271443E-1,3.4665768E-3,9.851188E-1,3.8184594E-2,5.7784207E-2,6.2385225E-1,-1.666126E-1,-8.3686545E-2,3.969876E-1,4.7848624E-1,1.2611058E-1,-1.6206726E-2,1.0687574E-2,2.6598567E-2,1.1501162E-2,-1.6604695E-2,6.4172703E-3,-3.3877447E-2,-2.3329047E-2,3.518691E-2,-1.7397521E-3,1.8522007E-3,-2.207568E-2],"split_indices":[4,0,4,4,4,0,4,4,5,0,0,4,4,4,6,0,0,8,4,6,5,9,8,0,0,0,0,0,0,0,0,0,0,0,0],"split_type":[0,0,0,0,0,0,0,0,0,0,0,0,0,0,0,0,0,0,0,0,0,0,0,0,0,0,0,0,0,0,0,0,0,0,0],"sum_hessian":[7.011583E3,8.602581E2,6.1513247E3,1.443611E3,4.707714E3,2.5944014E1,1.417667E3,1.02216254E3,3.6855515E3,2.550976E1,1.3921572E3,9.0105255E1,9.320573E2,1.3133167E3,2.3722346E3,2.8272833E1,6.1832424E1,8.2207855E1,8.498494E2,6.5225256E2,6.6106415E2,3.3179227E2,2.0404424E3,4.5813248E1,3.639461E1,6.141822E2,2.3566722E2,1.7383965E2,4.7841293E2,6.3656445E2,2.4499697E1,2.6437375E2,6.741853E1,1.4886962E3,5.517462E2],"tree_param":{"num_deleted":"0","num_feature":"16","num_nodes":"35","size_leaf_vector":"1"}},{"base_weights":[2.7084642E-3,-6.7543274E-1,7.729839E-2,-3.436987E-2,-2.3316097E-2,8.344591E-1,2.6301406E-2,9.445679E-1,4.953312E-1,1.681529E-1,-1.1334332E-1,1.0601153E0,7.014637E-1,2.8607598E-1,6.7550665E-1,1.8324597E-1,-3.346822E-2,-5.283671E-1,7.0409914E-3,5.6296527E-2,3.9869126E-2,5.5007976E-1,4.6242982E-2,3.115045E-3,2.424133E-2,4.44567E-2,2.3875311E-2,2.42386E-2,2.7836308E-1,5.8162715E-3,-6.5923095E-1,1.1276541E-1,-4.6029797E-1,3.8451597E-2,1.4434122E-2,-2.4596496E-2,1.09965345E-2,1.4860095E-2,-3.167508E-2,1.2603137E-2,-3.3058953E-2,-1.7515454E-2,-3.369185E-2,7.5842375E-3,-3.51327E-2,-1.7373733E-2,-3.4411572E-2],"categories":[],"categories_nodes":[],"categories_segments":[],"categories_sizes":[],"default_left":[0,0,0,0,0,0,0,0,0,0,0,0,0,0,0,0,0,0,0,0,0,0,0,0,0,0,0,0,0,0,0,0,0,0,0,0,0,0,0,0,0,0,0,0,0,0,0],"id":16,"left_children":[1,3,5,-1,-1,7,9,11,13,15,17,19,21,23,25,27,-1,29,31,-1,-1,33,-1,-1,-1,-1,-1,35,37,39,41,43,45,-1,-1,-1,-1,-1,-1,-1,-1,-1,-1,-1,-1,-1,-1],"loss_changes":[3.5794434E2,1.1133118E0,2.4611958E2,0E0,0E0,1.408371E1,1.1839446E2,6.9800415E0,3.4890137E0,3.7723145E1,1.5049811E2,1.6698303E0,2.4666672E0,2.2090392E0,1.4250069E0,4.405784E1,0E0,4.7353165E1,1.1556315E2,0E0,0E0,3.353197E0,0E0,0E0,0E0,0E0,0E0,1.10606125E2,3.1694275E1,2.2548069E1,1.9826202E0,6.0742172E1,1.0618507E1,0E0,0E0,0E0,0E0,0E0,0E0,0E0,0E0,0E0,0E0,0E0,0E0,0E0,0E0],"parents":[2147483647,0,0,1,1,2,2,5,5,6,6,7,7,8,8,9,9,10,10,11,11,12,12,13,13,14,14,15,15,17,17,18,18,21,21,27,27,28,28,29,29,30,30,31,31,32,32],"right_children":[2,4,6,-1,-1,8,10,12,14,16,18,20,22,24,26,28,-1,30,32,-1,-1,34,-1,-1,-1,-1,-1,36,38,40,42,44,46,-1,-1,-1,-1,-1,-1,-1,-1,-1,-1,-1,-1,-1,-1],"split_conditions":[-1.4042605E0,1.042685E0,-1.1861724E0,-3.436987E-2,-2.3316097E-2,2.1575351E-1,-5.0337627E-3,-1.2663778E0,5.9483147E-1,2.2623954E0,8.6438644E-1,-3.6098164E-1,3.912886E-1,1.5995777E-1,-1.3196644E0,-1.5889391E-1,-3.346822E-2,4.9774766E-2,1.2614969E0,5.6296527E-2,3.9869126E-2,-1.1912239E0,4.6242982E-2,3.115045E-3,2.424133E-2,4.44567E-2,2.3875311E-2,-2.710036E-1,2.33513E0,1.3571225E-1,6.1867602E-2,1.1918045E0,1.3024168E0,3.8451597E-2,1.4434122E-2,-2.4596496E-2,1.09965345E-2,1.4860095E-2,-3.167508E-2,1.2603137E-2,-3.3058953E-2,-1.7515454E-2,-3.369185E-2,7.5842375E-3,-3.51327E-2,-1.7373733E-2,-3.4411572E-2],"split_indices":[6,7,5,0,0,7,5,5,7,7,6,7,14,14,6,7,0,5,6,0,0,1,0,0,0,0,0,5,12,6,5,7,5,0,0,0,0,0,0,0,0,0,0,0,0,0,0],"split_type":[0,0,0,0,0,0,0,0,0,0,0,0,0,0,0,0,0,0,0,0,0,0,0,0,0,0,0,0,0,0,0,0,0,0,0,0,0,0,0,0,0,0,0,0,0,0,0],"sum_hessian":[7.072382E3,6.992228E2,6.373159E3,6.570537E2,4.2169086E1,4.0022507E2,5.972934E3,2.9943372E2,1.0079135E2,2.9628523E3,3.0100815E3,1.984086E2,1.0102511E2,4.9027027E1,5.1764324E1,2.9119382E3,5.0914238E1,6.752805E2,2.3348013E3,1.5340846E2,4.5000145E1,6.434591E1,3.66792E1,2.429735E1,2.472968E1,2.1541527E1,3.0222795E1,1.0908585E3,1.8210796E3,1.3325356E2,5.420269E2,1.9052914E3,4.295098E2,3.290225E1,3.1443659E1,2.9904718E2,7.9181134E2,1.7855391E3,3.5540543E1,9.823177E1,3.502178E1,2.67262E1,5.153007E2,1.8200497E3,8.524163E1,2.9067792E2,1.3883188E2],"tree_param":{"num_deleted":"0","num_feature":"16","num_nodes":"47","size_leaf_vector":"1"}},{"base_weights":[-1.9149538E-3,-6.800336E-1,9.421886E-2,-3.4335617E-2,-5.2116954E-1,2.5754249E-2,5.83107E-1,-3.2459356E-2,-1.7049327E-2,-1.9634283E-1,2.0496914E-1,-1.5525135E-1,6.296423E-1,3.8329503E-1,-5.5834335E-1,9.1177696E-1,-1.962279E-2,-2.9998738E-2,1.905938E-2,2.007334E-1,6.9537276E-1,1.0357165E-1,1.0486027E0,-6.791953E-1,-3.1760678E-1,3.6219308E-1,1.1041077E0,-3.920326E-1,3.525594E-1,-4.7417992E-1,5.2616846E-2,9.719961E-1,5.358066E-1,2.8105103E-3,4.6582773E-2,5.7276513E-2,2.6524419E-2,-1.7066484E-2,-3.429034E-2,3.8242288E-2,-2.4041854E-2,4.7823306E-2,-7.4354815E-3,4.3433454E-2,5.675873E-2,-2.6249578E-2,-8.962122E-4,1.09683955E-2,5.369225E-2,-5.7764775E-3,-3.5089467E-2,4.3126546E-2,5.6993097E-2,-2.4646688E-2,3.4399282E-2],"categories":[],"categories_nodes":[],"categories_segments":[],"categories_sizes":[],"default_left":[0,0,0,0,0,0,0,0,0,0,0,0,0,0,0,0,0,0,0,0,0,0,0,0,0,0,0,0,0,0,0,0,0,0,0,0,0,0,0,0,0,0,0,0,0,0,0,0,0,0,0,0,0,0,0],"id":17,"left_children":[1,3,5,-1,7,9,11,-1,-1,13,15,17,19,21,23,25,27,-1,-1,29,31,33,35,37,39,41,43,45,47,49,-1,51,53,-1,-1,-1,-1,-1,-1,-1,-1,-1,-1,-1,-1,-1,-1,-1,-1,-1,-1,-1,-1,-1,-1],"loss_changes":[4.589845E2,2.1182251E-1,2.063736E2,0E0,5.621767E-1,2.1546078E2,2.6219543E1,0E0,0E0,5.0768787E2,4.7557584E2,1.155305E1,1.9818909E1,1.729616E2,4.288672E1,7.555878E1,3.1563702E2,0E0,0E0,5.7062485E1,2.6207825E1,2.5675552E1,1.260611E1,1.7422485E0,8.932651E1,5.804646E1,1.9347534E0,5.659787E1,1.0895445E2,4.3926134E0,0E0,2.138382E0,6.2667747E1,0E0,0E0,0E0,0E0,0E0,0E0,0E0,0E0,0E0,0E0,0E0,0E0,0E0,0E0,0E0,0E0,0E0,0E0,0E0,0E0,0E0,0E0],"parents":[2147483647,0,0,1,1,2,2,4,4,5,5,6,6,9,9,10,10,11,11,12,12,13,13,14,14,15,15,16,16,19,19,20,20,21,21,22,22,23,23,24,24,25,25,26,26,27,27,28,28,29,29,31,31,32,32],"right_children":[2,4,6,-1,8,10,12,-1,-1,14,16,18,20,22,24,26,28,-1,-1,30,32,34,36,38,40,42,44,46,48,50,-1,52,54,-1,-1,-1,-1,-1,-1,-1,-1,-1,-1,-1,-1,-1,-1,-1,-1,-1,-1,-1,-1,-1,-1],"split_conditions":[-1.2663778E0,-1.2306193E0,1.1918045E0,-3.4335617E-2,-1.3471152E0,3.4665791E-3,-1.1325874E0,-3.2459356E-2,-1.7049327E-2,-8.963269E-1,8.6065245E-1,-1.3196644E0,-1.9158432E0,-9.8061174E-1,-1.1463485E-1,5.318964E-2,1.1198236E0,-2.9998738E-2,1.905938E-2,1.4556187E0,-4.7062242E-1,-9.833784E-1,-6.957671E-2,-7.352157E-1,-1.0060096E-1,6.650286E-2,-1.2579423E0,1.1628202E0,1.3127799E0,-1.0320798E0,5.2616846E-2,-4.1258463E-1,-1.9158432E0,2.8105103E-3,4.6582773E-2,5.7276513E-2,2.6524419E-2,-1.7066484E-2,-3.429034E-2,3.8242288E-2,-2.4041854E-2,4.7823306E-2,-7.4354815E-3,4.3433454E-2,5.675873E-2,-2.6249578E-2,-8.962122E-4,1.09683955E-2,5.369225E-2,-5.7764775E-3,-3.5089467E-2,4.3126546E-2,5.6993097E-2,-2.4646688E-2,3.4399282E-2],"split_indices":[5,3,7,0,7,3,5,0,0,5,5,6,14,6,3,3,5,0,0,15,11,3,9,2,6,6,9,6,3,5,0,1,15,0,0,0,0,0,0,0,0,0,0,0,0,0,0,0,0,0,0,0,0,0,0],"split_type":[0,0,0,0,0,0,0,0,0,0,0,0,0,0,0,0,0,0,0,0,0,0,0,0,0,0,0,0,0,0,0,0,0,0,0,0,0,0,0,0,0,0,0,0,0,0,0,0,0,0,0,0,0,0,0],"sum_hessian":[7.0367393E3,8.721971E2,6.164542E3,8.306317E2,4.1565365E1,5.409143E3,7.553989E2,2.125682E1,2.0308542E1,2.4154893E3,2.9936538E3,4.450956E1,7.1088934E2,9.28558E2,1.4869313E3,7.2039545E2,2.2732585E3,2.4205566E1,2.0303993E1,9.554442E1,6.153449E2,6.553377E2,2.7322025E2,9.875365E2,4.9939478E2,1.8824702E2,5.3214844E2,1.1362284E3,1.13703E3,5.3796204E1,4.1748215E1,2.2137943E2,3.939655E2,6.219043E2,3.343345E1,2.2812187E2,4.5098366E1,2.097355E1,9.665629E2,6.4473175E1,4.349216E2,8.6216866E1,1.0203017E2,6.878542E1,4.6336298E2,8.377009E2,2.985275E2,9.619974E2,1.7503265E2,2.2056437E1,3.1739769E1,1.4142963E2,7.99498E1,5.0191227E1,3.437743E2],"tree_param":{"num_deleted":"0","num_feature":"16","num_nodes":"55","size_leaf_vector":"1"}},{"base_weights":[1.4187788E-3,5.220283E-2,-1.4993142E-1,-6.6356456E-1,4.510667E-3,-1.5638115E-1,-3.4140334E-2,4.3561932E-1,-1.1493261E-1,2.7826661E-2,-3.264075E-2,1.0169249E0,3.7868014E-1,-3.2421714E-1,2.9779873E-3,2.8139189E-2,5.6566533E-2,-1.3438062E-1,4.2950282E-1,4.883585E-3,-6.584738E-1,1.8363926E-1,-2.5686312E-1,-1.935937E-2,3.151976E-2,4.778266E-2,1.9814178E-2,-1.8944172E-2,5.962115E-3,-3.3313245E-2,-2.1591647E-2,2.6336713E-2,4.0049306E-3,5.0220456E-2,-1.4751245E-2],"categories":[],"categories_nodes":[],"categories_segments":[],"categories_sizes":[],"default_left":[0,0,0,0,0,0,0,0,0,0,0,0,0,0,0,0,0,0,0,0,0,0,0,0,0,0,0,0,0,0,0,0,0,0,0],"id":18,"left_children":[1,-1,3,5,7,9,-1,11,13,-1,-1,15,17,19,21,-1,-1,23,25,27,29,31,33,-1,-1,-1,-1,-1,-1,-1,-1,-1,-1,-1,-1],"loss_changes":[1.1091764E3,0E0,4.869035E2,1.3634277E1,2.4319612E2,2.0000751E1,0E0,3.3144333E1,9.126467E1,0E0,0E0,3.4142914E0,2.4532516E1,1.4661668E2,1.1123436E2,0E0,0E0,1.7100376E1,1.4142685E1,2.9650532E1,5.9213257E-1,4.956856E1,4.7368828E1,0E0,0E0,0E0,0E0,0E0,0E0,0E0,0E0,0E0,0E0,0E0,0E0],"parents":[2147483647,0,0,2,2,3,3,4,4,5,5,7,7,8,8,11,11,12,12,13,13,14,14,17,17,18,18,19,19,20,20,21,21,22,22],"right_children":[2,-1,4,6,8,10,-1,12,14,-1,-1,16,18,20,22,-1,-1,24,26,28,30,32,34,-1,-1,-1,-1,-1,-1,-1,-1,-1,-1,-1,-1],"split_conditions":[-1.4042605E0,5.220283E-2,-7.7750045E-1,-1.3373233E0,-1.3421775E-1,-1.3163121E0,-3.4140334E-2,-3.4664786E-1,8.6065245E-1,2.7826661E-2,-3.264075E-2,6.334307E-1,-3.1271473E-1,3.4665791E-3,1.1548483E0,2.8139189E-2,5.6566533E-2,-2.7927843E-1,-1.2308003E0,-9.3900286E-2,3.969876E-1,9.792107E-1,-1.6614625E0,-1.935937E-2,3.151976E-2,4.778266E-2,1.9814178E-2,-1.8944172E-2,5.962115E-3,-3.3313245E-2,-2.1591647E-2,2.6336713E-2,4.0049306E-3,5.0220456E-2,-1.4751245E-2],"split_indices":[6,0,6,6,3,5,0,3,5,0,0,8,3,3,5,0,0,5,8,6,5,5,13,0,0,0,0,0,0,0,0,0,0,0,0],"split_type":[0,0,0,0,0,0,0,0,0,0,0,0,0,0,0,0,0,0,0,0,0,0,0,0,0,0,0,0,0,0,0,0,0,0,0],"sum_hessian":[7.0248647E3,8.8897815E2,6.135886E3,1.4169375E3,4.7189487E3,5.245979E1,1.3644777E3,1.0226363E3,3.6963127E3,2.1435196E1,3.1024591E1,8.82234E1,9.344129E2,1.3307712E3,2.3655415E3,2.0134926E1,6.808847E1,8.392204E1,8.5049084E2,6.7155035E2,6.592209E2,1.3957185E3,9.6982294E2,6.3814693E1,2.0107346E1,4.7209934E1,8.0328094E2,1.531111E2,5.184392E2,6.3356177E2,2.56591E1,3.2166534E2,1.0740531E3,2.6994589E1,9.4282837E2],"tree_param":{"num_deleted":"0","num_feature":"16","num_nodes":"35","size_leaf_vector":"1"}},{"base_weights":[-4.7954824E-4,-6.6481656E-1,6.96164E-2,-3.3858106E-2,-2.199892E-2,4.2313552E-1,-2.5693329E-2,6.5280074E-1,9.674054E-2,1.3921623E-2,-4.5071173E-1,6.917688E-1,-2.5781298E-2,1.741029E-1,-3.305202E-2,-4.6028674E-1,5.1669255E-2,-2.7887225E-1,-3.30839E-2,9.382257E-1,6.080642E-1,2.34869E-1,-3.2369044E-2,-3.4649048E-2,-1.2710316E-1,8.535965E-2,-6.153181E-1,-4.936404E-1,7.934148E-2,5.4810983E-3,5.3501666E-2,3.6797274E-3,3.338767E-2,1.5092385E-2,-3.136572E-2,3.710515E-2,-3.4595173E-2,1.3550149E-2,-8.471274E-4,2.3671787E-3,-3.4748875E-2,-1.629291E-2,-2.837391E-2,1.4137167E-2,-1.862335E-2],"categories":[],"categories_nodes":[],"categories_segments":[],"categories_sizes":[],"default_left":[0,0,0,0,0,0,0,0,0,0,0,0,0,0,0,0,0,0,0,0,0,0,0,0,0,0,0,0,0,0,0,0,0,0,0,0,0,0,0,0,0,0,0,0,0],"id":19,"left_children":[1,3,5,-1,-1,7,9,11,13,15,17,19,-1,21,-1,23,25,27,-1,29,31,33,-1,-1,35,37,39,41,43,-1,-1,-1,-1,-1,-1,-1,-1,-1,-1,-1,-1,-1,-1,-1,-1],"loss_changes":[3.2752307E2,1.267395E0,2.1438376E2,0E0,0E0,1.0115506E2,8.4415985E1,3.680722E1,3.3082134E1,8.216459E1,1.5127647E1,1.4702362E1,0E0,2.5765408E1,0E0,2.6063591E1,9.563032E1,1.8468098E1,0E0,2.0628235E1,1.837204E1,2.7889565E1,0E0,0E0,7.055298E1,7.689506E1,1.0868416E1,1.484951E0,8.602812E0,0E0,0E0,0E0,0E0,0E0,0E0,0E0,0E0,0E0,0E0,0E0,0E0,0E0,0E0,0E0,0E0],"parents":[2147483647,0,0,1,1,2,2,5,5,6,6,7,7,8,8,9,9,10,10,11,11,13,13,15,15,16,16,17,17,19,19,20,20,21,21,24,24,25,25,26,26,27,27,28,28],"right_children":[2,4,6,-1,-1,8,10,12,14,16,18,20,-1,22,-1,24,26,28,-1,30,32,34,-1,-1,36,38,40,42,44,-1,-1,-1,-1,-1,-1,-1,-1,-1,-1,-1,-1,-1,-1,-1,-1],"split_conditions":[-1.4042605E0,1.042685E0,-9.8061174E-1,-3.3858106E-2,-2.199892E-2,9.451011E-1,1.2614969E0,-9.833784E-1,2.2623954E0,-3.4664786E-1,1.2895252E0,-1.2306193E0,-2.5781298E-2,2.33513E0,-3.305202E-2,-6.957671E-2,1.2192395E0,-1.1359551E0,-3.30839E-2,-1.3373233E0,-1.2136326E0,2.33513E0,-3.2369044E-2,-3.4649048E-2,-9.055089E-1,-3.921753E-2,-1.901159E-1,-1.7102274E0,-5.431369E-1,5.4810983E-3,5.3501666E-2,3.6797274E-3,3.338767E-2,1.5092385E-2,-3.136572E-2,3.710515E-2,-3.4595173E-2,1.3550149E-2,-8.471274E-4,2.3671787E-3,-3.4748875E-2,-1.629291E-2,-2.837391E-2,1.4137167E-2,-1.862335E-2],"split_indices":[6,7,6,0,0,7,6,3,7,3,3,3,0,12,0,9,7,7,0,6,6,10,0,0,3,3,6,7,9,0,0,0,0,0,0,0,0,0,0,0,0,0,0,0,0],"split_type":[0,0,0,0,0,0,0,0,0,0,0,0,0,0,0,0,0,0,0,0,0,0,0,0,0,0,0,0,0,0,0,0,0,0,0,0,0,0,0,0,0,0,0,0,0],"sum_hessian":[7.029335E3,6.692762E2,6.360059E3,6.3062573E2,3.865045E1,1.3491107E3,5.010948E3,7.907241E2,5.5838666E2,4.585481E3,4.2546725E2,7.659934E2,2.4730675E1,5.0805905E2,5.0327606E1,3.3644684E2,4.249034E3,2.3703647E2,1.884308E2,1.8902312E2,5.7697034E2,4.7439563E2,3.3663403E1,1.9682512E2,1.3962172E2,4.04639E3,2.0264432E2,1.4771648E2,8.931999E1,2.6444448E1,1.6257867E2,5.841105E1,5.1855927E2,4.414049E2,3.2990726E1,5.4744366E1,8.487736E1,1.4364425E3,2.6099473E3,2.1833073E1,1.8081125E2,4.8449825E1,9.926665E1,6.210778E1,2.721221E1],"tree_param":{"num_deleted":"0","num_feature":"16","num_nodes":"45","size_leaf_vector":"1"}},{"base_weights":[-4.152672E-3,-3.3534043E-2,8.741385E-2,2.3562623E-2,5.944048E-1,-1.1049042E-2,1.0364681E0,8.851729E-2,6.632301E-1,3.7313673E-1,-9.5570326E-2,3.3487547E-2,5.4521095E-2,-4.7654393E-1,4.8356425E-2,1.0480299E-1,7.50442E-1,1.06042586E-1,1.0250006E0,-5.396892E-1,1.3555908E-1,-1.0137553E-2,-3.481021E-2,-4.451333E-1,5.1416397E-2,1.1122067E-1,8.668191E-1,2.7795115E-3,4.7633026E-2,5.4480266E-2,2.2195023E-2,-3.2909017E-2,-1.4378555E-2,4.240313E-2,-5.8919163E-3,-3.8777348E-3,-3.3335976E-2,-2.3943996E-2,4.981503E-2,3.447796E-2,5.0163805E-2],"categories":[],"categories_nodes":[],"categories_segments":[],"categories_sizes":[],"default_left":[0,0,0,0,0,0,0,0,0,0,0,0,0,0,0,0,0,0,0,0,0,0,0,0,0,0,0,0,0,0,0,0,0,0,0,0,0,0,0,0,0],"id":20,"left_children":[1,-1,3,5,7,9,11,13,15,17,19,-1,-1,21,-1,23,25,27,29,31,33,-1,-1,35,-1,37,39,-1,-1,-1,-1,-1,-1,-1,-1,-1,-1,-1,-1,-1,-1],"loss_changes":[4.2793884E2,0E0,1.9954262E2,1.920524E2,2.3889175E1,1.72121E2,2.120697E0,4.3061428E1,2.938559E1,1.6620729E2,4.4611038E2,0E0,0E0,2.904975E0,0E0,4.3711884E1,3.881372E1,2.895124E1,9.453918E0,4.405847E1,5.163943E2,0E0,0E0,4.3120623E0,0E0,4.4332268E1,9.338928E0,0E0,0E0,0E0,0E0,0E0,0E0,0E0,0E0,0E0,0E0,0E0,0E0,0E0,0E0],"parents":[2147483647,0,0,2,2,3,3,4,4,5,5,6,6,7,7,8,8,9,9,10,10,13,13,15,15,16,16,17,17,18,18,19,19,20,20,23,23,25,25,26,26],"right_children":[2,-1,4,6,8,10,12,14,16,18,20,-1,-1,22,-1,24,26,28,30,32,34,-1,-1,36,-1,38,40,-1,-1,-1,-1,-1,-1,-1,-1,-1,-1,-1,-1,-1,-1],"split_conditions":[-1.2663778E0,-3.3534043E-2,1.2571551E0,1.3127799E0,-1.991286E0,-9.107802E-1,1.3195955E0,1.5362623E0,-1.991286E0,-9.8061174E-1,-8.573424E-3,3.3487547E-2,5.4521095E-2,-1.2457199E0,4.8356425E-2,1.5983765E0,-1.991286E0,-9.896446E-1,-8.268785E-2,-1.1463485E-1,9.038319E-1,-1.0137553E-2,-3.481021E-2,1.21899E0,5.1416397E-2,1.5362623E0,1.5565475E0,2.7795115E-3,4.7633026E-2,5.4480266E-2,2.2195023E-2,-3.2909017E-2,-1.4378555E-2,4.240313E-2,-5.8919163E-3,-3.8777348E-3,-3.3335976E-2,-2.3943996E-2,4.981503E-2,3.447796E-2,5.0163805E-2],"split_indices":[5,0,8,3,13,5,3,14,14,6,3,0,0,6,0,15,15,3,8,3,3,0,0,13,0,13,7,0,0,0,0,0,0,0,0,0,0,0,0,0,0],"split_type":[0,0,0,0,0,0,0,0,0,0,0,0,0,0,0,0,0,0,0,0,0,0,0,0,0,0,0,0,0,0,0,0,0,0,0,0,0,0,0,0,0],"sum_hessian":[7.0078296E3,8.449134E2,6.162916E3,5.475426E3,6.874906E2,5.2964214E3,1.7900412E2,8.2878716E1,6.0461194E2,9.538647E2,4.3425566E3,2.639918E1,1.5260495E2,5.0996544E1,3.1882174E1,8.22648E1,5.223471E2,6.782744E2,2.7559024E2,1.4854913E3,2.8570654E3,2.4413132E1,2.6583412E1,5.221066E1,3.0054144E1,8.1054184E1,4.4129294E2,6.4213885E2,3.613555E1,2.4644154E2,2.9148706E1,1.00835876E3,4.771325E2,7.482999E2,2.1087656E3,2.0652021E1,3.155864E1,4.918166E1,3.187252E1,1.9721461E2,2.4407831E2],"tree_param":{"num_deleted":"0","num_feature":"16","num_nodes":"41","size_leaf_vector":"1"}},{"base_weights":[2.3333447E-3,4.9927454E-2,-1.4361475E-1,-6.510886E-1,4.348066E-3,1.0967594E-2,-6.693544E-1,4.286407E-1,-1.1589296E-1,-2.1465784E-2,-3.367095E-2,9.617898E-1,3.7441304E-1,-3.2430148E-1,-1.7820812E-4,5.3901173E-2,3.188261E-2,6.5116626E-1,2.7838504E-1,-7.109005E-3,-6.4659774E-1,4.2536932E-1,-9.975312E-2,2.778825E-2,5.304159E-2,1.1212304E-2,4.7729444E-2,-1.791644E-2,5.850074E-3,-2.3526436E-2,-3.2968223E-2,3.6910802E-2,7.3383483E-3,-2.9039967E-3,-3.422266E-2],"categories":[],"categories_nodes":[],"categories_segments":[],"categories_sizes":[],"default_left":[0,0,0,0,0,0,0,0,0,0,0,0,0,0,0,0,0,0,0,0,0,0,0,0,0,0,0,0,0,0,0,0,0,0,0],"id":21,"left_children":[1,-1,3,5,7,-1,9,11,13,-1,-1,15,17,19,21,-1,-1,23,25,27,29,31,33,-1,-1,-1,-1,-1,-1,-1,-1,-1,-1,-1,-1],"loss_changes":[1.01292523E3,0E0,4.562724E2,2.2103699E1,2.4022412E2,0E0,7.331543E-1,2.9340134E1,8.848091E1,0E0,0E0,2.1936722E0,2.4805603E1,1.338975E2,1.0013493E2,0E0,0E0,8.296776E0,2.5438503E1,2.8948229E1,8.399048E-1,3.8839813E1,4.6582596E1,0E0,0E0,0E0,0E0,0E0,0E0,0E0,0E0,0E0,0E0,0E0,0E0],"parents":[2147483647,0,0,2,2,3,3,4,4,6,6,7,7,8,8,11,11,12,12,13,13,14,14,17,17,18,18,19,19,20,20,21,21,22,22],"right_children":[2,-1,4,6,8,-1,10,12,14,-1,-1,16,18,20,22,-1,-1,24,26,28,30,32,34,-1,-1,-1,-1,-1,-1,-1,-1,-1,-1,-1,-1],"split_conditions":[-1.3763994E0,4.9927454E-2,-6.7163795E-1,-1.3671653E0,-1.3421775E-1,1.0967594E-2,-1.3540907E0,-3.4664786E-1,8.6065245E-1,-2.1465784E-2,-3.367095E-2,1.1477917E0,-2.3861708E-1,3.4665791E-3,1.0010022E0,5.3901173E-2,3.188261E-2,-3.661455E-1,9.451011E-1,-8.3686545E-2,1.8141534E-2,1.0025347E0,1.3195955E0,2.778825E-2,5.304159E-2,1.1212304E-2,4.7729444E-2,-1.791644E-2,5.850074E-3,-2.3526436E-2,-3.2968223E-2,3.6910802E-2,7.3383483E-3,-2.9039967E-3,-3.422266E-2],"split_indices":[3,0,1,3,3,0,3,3,5,0,0,14,7,3,5,0,0,8,7,6,3,6,3,0,0,0,0,0,0,0,0,0,0,0,0],"split_type":[0,0,0,0,0,0,0,0,0,0,0,0,0,0,0,0,0,0,0,0,0,0,0,0,0,0,0,0,0,0,0,0,0,0,0],"sum_hessian":[6.962702E3,8.882158E2,6.0744863E3,1.3697616E3,4.7047246E3,2.7700546E1,1.342061E3,1.0377396E3,3.666985E3,2.5897776E1,1.3161632E3,9.271569E1,9.45024E2,1.3078578E3,2.3591274E3,6.482001E1,2.7895681E1,2.4045868E2,7.045653E2,6.601781E2,6.476796E2,4.4610226E2,1.9130251E3,1.9886179E2,4.1596893E1,6.54803E2,4.9762302E1,1.7138945E2,4.8878867E2,4.8906773E1,5.987728E2,2.0858249E2,2.3751978E2,1.7878022E3,1.25222946E2],"tree_param":{"num_deleted":"0","num_feature":"16","num_nodes":"35","size_leaf_vector":"1"}},{"base_weights":[1.8095395E-3,-6.5430665E-1,7.094224E-2,-3.3323642E-2,-1.5142041E-2,7.7924645E-1,2.634826E-2,9.1798055E-1,4.8913455E-1,1.670576E-1,-9.826995E-2,9.7520024E-1,2.0695088E-2,7.289446E-1,3.0325849E-2,1.265773E-1,5.409854E-1,-3.8807946E-1,1.4001405E-2,5.0217044E-2,3.4955185E-2,-3.6537054E-4,5.1305708E-2,-3.83123E-3,7.401556E-3,-4.1541213E-1,2.0473239E-1,8.1310356E-1,3.10562E-1,1.6530132E-2,-6.4024144E-1,1.24191165E-1,-4.1250008E-1,-3.153339E-2,-3.8866617E-3,1.1262985E-2,-3.2461017E-2,4.6341784E-2,2.8701076E-2,-1.5035547E-2,2.5971005E-2,-7.1404316E-3,3.5031103E-2,-3.3706646E-2,6.8024644E-3,8.205771E-3,-3.390884E-2,-1.2525128E-2,-3.2974467E-2],"categories":[],"categories_nodes":[],"categories_segments":[],"categories_sizes":[],"default_left":[0,0,0,0,0,0,0,0,0,0,0,0,0,0,0,0,0,0,0,0,0,0,0,0,0,0,0,0,0,0,0,0,0,0,0,0,0,0,0,0,0,0,0,0,0,0,0,0,0],"id":22,"left_children":[1,3,5,-1,-1,7,9,11,13,15,17,19,-1,21,23,25,27,29,31,-1,-1,-1,-1,-1,-1,33,35,37,39,41,43,45,47,-1,-1,-1,-1,-1,-1,-1,-1,-1,-1,-1,-1,-1,-1,-1,-1],"loss_changes":[3.2047406E2,2.4761353E0,2.0184908E2,0E0,0E0,1.4336441E1,1.0550953E2,6.5125427E0,1.3899693E1,4.2638687E1,1.0384634E2,4.1752625E-1,0E0,1.820588E1,5.9659034E-1,1.0829285E2,1.676538E1,9.094325E1,1.0829303E2,0E0,0E0,0E0,0E0,0E0,0E0,2.3332493E1,3.9421005E1,2.3363647E0,1.9766548E1,3.7707977E1,1.4628876E1,5.887677E1,1.8599823E1,0E0,0E0,0E0,0E0,0E0,0E0,0E0,0E0,0E0,0E0,0E0,0E0,0E0,0E0,0E0,0E0],"parents":[2147483647,0,0,1,1,2,2,5,5,6,6,7,7,8,8,9,9,10,10,11,11,13,13,14,14,15,15,16,16,17,17,18,18,25,25,26,26,27,27,28,28,29,29,30,30,31,31,32,32],"right_children":[2,4,6,-1,-1,8,10,12,14,16,18,20,-1,22,24,26,28,30,32,-1,-1,-1,-1,-1,-1,34,36,38,40,42,44,46,48,-1,-1,-1,-1,-1,-1,-1,-1,-1,-1,-1,-1,-1,-1,-1,-1],"split_conditions":[-1.376399E0,-1.3886945E0,-1.1971337E0,-3.3323642E-2,-1.5142041E-2,-3.306151E-2,-3.9217535E-2,-1.2212467E0,-1.2384263E0,-4.1996032E-2,9.2626035E-1,-2.5587144E-1,2.0695088E-2,-1.3352054E0,3.5286173E-1,-6.925981E-1,-1.1697321E0,5.318964E-2,1.2537589E0,5.0217044E-2,3.4955185E-2,-3.6537054E-4,5.1305708E-2,-3.83123E-3,7.401556E-3,-2.710036E-1,2.33513E0,-6.755423E-2,-1.4182693E-1,1.1152868E-1,9.4077224E-1,1.1715006E0,1.2895249E0,-3.153339E-2,-3.8866617E-3,1.1262985E-2,-3.2461017E-2,4.6341784E-2,2.8701076E-2,-1.5035547E-2,2.5971005E-2,-7.1404316E-3,3.5031103E-2,-3.3706646E-2,6.8024644E-3,8.205771E-3,-3.390884E-2,-1.2525128E-2,-3.2974467E-2],"split_indices":[4,4,5,0,0,8,4,5,4,6,4,8,0,5,13,7,8,4,6,0,0,0,0,0,0,5,11,0,5,6,6,7,4,0,0,0,0,0,0,0,0,0,0,0,0,0,0,0,0],"split_type":[0,0,0,0,0,0,0,0,0,0,0,0,0,0,0,0,0,0,0,0,0,0,0,0,0,0,0,0,0,0,0,0,0,0,0,0,0,0,0,0,0,0,0,0,0,0,0,0,0],"sum_hessian":[7.06122E3,6.71481E2,6.3897393E3,6.4728253E2,2.4198513E1,3.765112E2,6.013228E3,2.5177951E2,1.24731674E2,2.8239539E3,3.1892742E3,2.2443402E2,2.73455E1,8.114255E1,4.3589127E1,2.5505195E3,2.7343454E2,8.8915564E2,2.3001184E3,1.9823587E2,2.6198153E1,2.389423E1,5.7248318E1,2.3203642E1,2.0385483E1,3.2034717E2,2.2301724E3,1.2305521E2,1.5037933E2,3.4210144E2,5.470542E2,1.8290005E3,4.7111792E2,1.9457727E2,1.25769905E2,2.1792598E3,5.0912582E1,7.948883E1,4.3566376E1,3.8072247E1,1.1230709E2,2.7875604E2,6.3345406E1,5.2442206E2,2.2632172E1,1.7438223E3,8.5178276E1,2.8694336E2,1.8417456E2],"tree_param":{"num_deleted":"0","num_feature":"16","num_nodes":"49","size_leaf_vector":"1"}},{"base_weights":[-1.5134211E-3,-6.599244E-1,8.755852E-2,-3.3337142E-2,-5.1474047E-1,5.8468554E-2,9.8997855E-1,-3.1604297E-2,-1.7994132E-2,3.783465E-1,-3.997452E-2,3.2216292E-2,5.243187E-2,2.5018552E-1,9.880484E-1,-4.802667E-1,1.7693198E-1,2.1032321E-1,5.112427E-2,5.184288E-2,2.7483886E-2,-5.3237385E-1,8.9032876E-1,8.4367174E-1,-9.092311E-2,8.408877E-3,5.04462E-2,-3.321465E-2,-1.3614413E-2,3.2773E-2,5.2030977E-2,1.8425008E-2,5.1139243E-2,-1.9987905E-2,8.7644765E-3],"categories":[],"categories_nodes":[],"categories_segments":[],"categories_sizes":[],"default_left":[0,0,0,0,0,0,0,0,0,0,0,0,0,0,0,0,0,0,0,0,0,0,0,0,0,0,0,0,0,0,0,0,0,0,0],"id":23,"left_children":[1,3,5,-1,7,9,11,-1,-1,13,15,-1,-1,17,19,21,23,25,-1,-1,-1,27,29,31,33,-1,-1,-1,-1,-1,-1,-1,-1,-1,-1],"loss_changes":[4.0955817E2,1.3742065E-1,1.613675E2,0E0,3.8280678E-1,1.8775479E2,2.5411072E0,0E0,0E0,1.09143234E2,4.3569385E2,0E0,0E0,3.534481E1,4.060074E0,1.08479614E2,5.460455E2,3.693796E1,0E0,0E0,0E0,4.9449036E1,6.0882187E-1,7.382257E1,1.7957138E2,0E0,0E0,0E0,0E0,0E0,0E0,0E0,0E0,0E0,0E0],"parents":[2147483647,0,0,1,1,2,2,4,4,5,5,6,6,9,9,10,10,13,13,14,14,15,15,16,16,17,17,21,21,22,22,23,23,24,24],"right_children":[2,4,6,-1,8,10,12,-1,-1,14,16,-1,-1,18,20,22,24,26,-1,-1,-1,28,30,32,34,-1,-1,-1,-1,-1,-1,-1,-1,-1,-1],"split_conditions":[-1.2663778E0,-1.2306193E0,1.3127799E0,-3.3337142E-2,-1.3471152E0,-8.538531E-1,1.3195955E0,-3.1604297E-2,-1.7994132E-2,-9.524402E-1,-8.573424E-3,3.2216292E-2,5.243187E-2,2.33513E0,-6.957671E-2,1.5063393E0,8.3195215E-1,2.33513E0,5.112427E-2,5.184288E-2,2.7483886E-2,-1.1463485E-1,-8.0043924E-1,5.318964E-2,1.1043984E0,8.408877E-3,5.04462E-2,-3.321465E-2,-1.3614413E-2,3.2773E-2,5.2030977E-2,1.8425008E-2,5.1139243E-2,-1.9987905E-2,8.7644765E-3],"split_indices":[5,3,3,0,7,5,3,0,0,6,3,0,0,11,9,7,6,10,0,0,0,3,5,3,5,0,0,0,0,0,0,0,0,0,0],"split_type":[0,0,0,0,0,0,0,0,0,0,0,0,0,0,0,0,0,0,0,0,0,0,0,0,0,0,0,0,0,0,0,0,0,0,0],"sum_hessian":[6.979601E3,8.3017944E2,6.149422E3,7.8607733E2,4.4102104E1,5.959446E3,1.8997618E2,2.1583498E1,2.2518606E1,1.4010923E3,4.5583535E3,3.1039812E1,1.5893637E2,1.1600643E3,2.4102795E2,1.5036697E3,3.0546836E3,1.1055461E3,5.451816E1,2.1442307E2,2.6604887E1,1.4497754E3,5.389424E1,8.742407E2,2.1804429E3,1.0524261E3,5.3119995E1,9.598283E2,4.899471E2,2.5213726E1,2.8680515E1,2.4100087E2,6.3323987E2,1.00895013E3,1.1714928E3],"tree_param":{"num_deleted":"0","num_feature":"16","num_nodes":"35","size_leaf_vector":"1"}},{"base_weights":[-2.0726484E-3,4.7963466E-2,-1.4228146E-1,-6.437369E-1,6.7416567E-4,-8.0289625E-2,-3.32991E-2,4.5730302E-1,-9.716769E-2,2.9027272E-2,-3.1616997E-2,9.2815346E-1,3.971552E-1,2.8694354E-3,-2.5055867E-1,2.6726022E-2,5.1968664E-2,-4.189164E-2,4.784064E-1,2.6663847E-2,-3.346329E-2,-4.169705E-1,-1.3178827E-1,-2.1763166E-2,4.513395E-2,4.4860497E-2,2.1576878E-2,-6.6726245E-3,6.1853575E-3,-5.9271413E-3,-3.3204395E-2,2.2511324E-2,-1.7806984E-2],"categories":[],"categories_nodes":[],"categories_segments":[],"categories_sizes":[],"default_left":[0,0,0,0,0,0,0,0,0,0,0,0,0,0,0,0,0,0,0,0,0,0,0,0,0,0,0,0,0,0,0,0,0],"id":24,"left_children":[1,-1,3,5,7,9,-1,11,13,-1,-1,15,17,19,21,-1,-1,23,25,27,-1,29,31,-1,-1,-1,-1,-1,-1,-1,-1,-1,-1],"loss_changes":[9.2850824E2,0E0,4.309616E2,1.6609009E1,2.0918546E2,2.0042902E1,0E0,2.2661469E1,5.916993E1,0E0,0E0,2.9206085E0,2.6299622E1,3.739286E1,2.9974037E1,0E0,0E0,4.418226E1,1.1421494E1,3.511668E1,0E0,4.65232E1,1.1667818E2,0E0,0E0,0E0,0E0,0E0,0E0,0E0,0E0,0E0,0E0],"parents":[2147483647,0,0,2,2,3,3,4,4,5,5,7,7,8,8,11,11,12,12,13,13,14,14,17,17,18,18,19,19,21,21,22,22],"right_children":[2,-1,4,6,8,10,-1,12,14,-1,-1,16,18,20,22,-1,-1,24,26,28,-1,30,32,-1,-1,-1,-1,-1,-1,-1,-1,-1,-1],"split_conditions":[-1.4042605E0,4.7963466E-2,-7.7750045E-1,-1.3373233E0,-1.6318564E-1,-1.3163121E0,-3.32991E-2,-3.4664786E-1,-2.3030029E-1,2.9027272E-2,-3.1616997E-2,6.1479855E-1,-3.2674852E-1,1.3195958E0,8.6065245E-1,2.6726022E-2,5.1968664E-2,8.71129E-1,-2.8614888E-1,4.7289446E-1,-3.346329E-2,1.7091846E-2,9.776221E-1,-2.1763166E-2,4.513395E-2,4.4860497E-2,2.1576878E-2,-6.6726245E-3,6.1853575E-3,-5.9271413E-3,-3.3204395E-2,2.2511324E-2,-1.7806984E-2],"split_indices":[6,0,6,6,4,5,0,4,9,0,0,7,6,4,5,0,0,7,5,0,0,5,6,0,0,0,0,0,0,0,0,0,0],"split_type":[0,0,0,0,0,0,0,0,0,0,0,0,0,0,0,0,0,0,0,0,0,0,0,0,0,0,0,0,0,0,0,0,0],"sum_hessian":[6.8846E3,8.748062E2,6.009794E3,1.3316534E3,4.6781406E3,5.0927483E1,1.280726E3,8.242077E2,3.8539329E3,2.3132889E1,2.7794594E1,9.009125E1,7.3411646E2,2.3338357E3,1.520097E3,2.2405369E1,6.7685875E1,1.1479298E2,6.193234E2,2.255895E3,7.794079E1,6.309865E2,8.8911053E2,8.180374E1,3.2989235E1,5.868138E1,5.606421E2,8.5101483E2,1.4048801E3,2.8716064E2,3.4382587E2,2.4681277E2,6.422978E2],"tree_param":{"num_deleted":"0","num_feature":"16","num_nodes":"33","size_leaf_vector":"1"}},{"base_weights":[3.7334636E-3,-6.461883E-1,7.0383646E-2,-3.2862104E-2,-1.7077258E-2,3.9880654E-1,-2.1038545E-2,6.1216176E-1,1.1671312E-1,2.8295664E-3,-3.3751257E-2,6.4723665E-1,-1.5671618E-2,1.9184309E-1,-3.281291E-2,-5.588318E-1,3.1120101E-2,5.620446E-1,1.0910691E0,2.6981676E-1,-3.155921E-2,-3.3351168E-2,5.922466E-3,2.1242675E-1,-6.2207524E-2,3.8426E-2,1.2333813E-2,6.1378773E-2,3.9807968E-2,1.8104035E-2,-1.8165901E-2,8.235387E-3,4.260743E-2,-1.896385E-2,3.565656E-3],"categories":[],"categories_nodes":[],"categories_segments":[],"categories_sizes":[],"default_left":[0,0,0,0,0,0,0,0,0,0,0,0,0,0,0,0,0,0,0,0,0,0,0,0,0,0,0,0,0,0,0,0,0,0,0],"id":25,"left_children":[1,3,5,-1,-1,7,9,11,13,15,-1,17,-1,19,-1,21,23,25,27,29,-1,-1,-1,31,33,-1,-1,-1,-1,-1,-1,-1,-1,-1,-1],"loss_changes":[3.0229996E2,1.7368774E0,1.900612E2,0E0,0E0,8.281554E1,7.7319565E1,2.5868988E1,3.4865623E1,7.5999146E1,0E0,2.7371674E1,0E0,3.530182E1,0E0,1.6964645E1,7.707363E1,4.120836E1,2.8630219E0,2.9414707E1,0E0,0E0,0E0,4.6968903E1,1.273804E2,0E0,0E0,0E0,0E0,0E0,0E0,0E0,0E0,0E0,0E0],"parents":[2147483647,0,0,1,1,2,2,5,5,6,6,7,7,8,8,9,9,11,11,13,13,15,15,16,16,17,17,18,18,19,19,23,23,24,24],"right_children":[2,4,6,-1,-1,8,10,12,14,16,-1,18,-1,20,-1,22,24,26,28,30,-1,-1,-1,32,34,-1,-1,-1,-1,-1,-1,-1,-1,-1,-1],"split_conditions":[-1.3763994E0,-1.3886943E0,-9.8061174E-1,-3.2862104E-2,-1.7077258E-2,1.0999849E0,1.3357899E0,-9.896446E-1,2.33513E0,-9.107802E-1,-3.3751257E-2,-1.0495112E0,-1.5671618E-2,2.33513E0,-3.281291E-2,-8.268785E-2,-4.577465E-2,-1.1471399E0,-1.0168273E0,2.1606932E0,-3.155921E-2,-3.3351168E-2,5.922466E-3,-1.4023741E-2,9.262604E-1,3.8426E-2,1.2333813E-2,6.1378773E-2,3.9807968E-2,1.8104035E-2,-1.8165901E-2,8.235387E-3,4.260743E-2,-1.896385E-2,3.565656E-3],"split_indices":[3,3,6,0,0,9,5,3,11,5,0,5,0,10,0,8,3,3,3,15,0,0,0,6,3,0,0,0,0,0,0,0,0,0,0],"split_type":[0,0,0,0,0,0,0,0,0,0,0,0,0,0,0,0,0,0,0,0,0,0,0,0,0,0,0,0,0,0,0,0,0,0,0],"sum_hessian":[6.974619E3,6.4710956E2,6.3275093E3,6.2221796E2,2.4891571E1,1.3763649E3,4.9511445E3,7.8232794E2,5.9403687E2,4.77873E3,1.7241476E2,7.54344E2,2.798396E1,5.4278394E2,5.1252975E1,2.2736044E2,4.551369E3,6.3667017E2,1.1767379E2,4.9703876E2,4.5745163E1,1.960698E2,3.1290655E1,1.5458022E3,3.0055671E3,3.8302527E2,2.5364491E2,7.6116356E1,4.1557438E1,4.3456738E2,6.2471367E1,1.4408401E3,1.04962234E2,8.8953076E2,2.1160364E3],"tree_param":{"num_deleted":"0","num_feature":"16","num_nodes":"35","size_leaf_vector":"1"}},{"base_weights":[-2.9985388E-3,-3.299751E-2,8.141165E-2,1.9210624E-2,5.8892715E-1,-1.7869054E-1,1.8023698E-1,1.5987018E-1,6.466686E-1,2.84005E-1,-5.2119404E-1,7.9904604E-1,-1.823832E-2,-4.6678033E-1,4.7881473E-2,1.5774062E-1,7.202268E-1,5.1505256E-2,8.307109E-1,-6.571855E-1,-2.6647648E-1,3.252643E-1,9.741872E-1,-2.7713698E-1,2.9931906E-1,-1.1230691E-2,-3.4145836E-2,4.224775E-2,-3.234074E-2,1.990254E-1,8.117466E-1,2.7771628E-2,-1.8915659E-3,4.980437E-2,6.057253E-3,-3.31466E-2,-2.1927629E-2,4.098101E-2,-2.18257E-2,4.8460785E-2,-4.4246796E-3,4.9762376E-2,2.8279534E-2,-1.6757885E-2,3.882509E-2,8.1678955E-3,4.694116E-2,4.3756064E-2,-2.9788395E-2,3.2852303E-2,4.667365E-2],"categories":[],"categories_nodes":[],"categories_segments":[],"categories_sizes":[],"default_left":[0,0,0,0,0,0,0,0,0,0,0,0,0,0,0,0,0,0,0,0,0,0,0,0,0,0,0,0,0,0,0,0,0,0,0,0,0,0,0,0,0,0,0,0,0,0,0,0,0,0,0],"id":26,"left_children":[1,-1,3,5,7,9,11,13,15,17,19,21,23,25,-1,27,29,31,33,35,37,39,41,43,45,-1,-1,-1,-1,47,49,-1,-1,-1,-1,-1,-1,-1,-1,-1,-1,-1,-1,-1,-1,-1,-1,-1,-1,-1,-1],"loss_changes":[3.839335E2,0E0,1.9365623E2,1.7429942E2,1.638655E1,3.891786E2,3.7040125E2,4.193828E1,2.098024E1,1.3275613E2,4.8519226E1,6.013797E1,1.880467E2,2.1703606E0,0E0,4.5145306E1,2.4099457E1,3.3148888E1,3.6335907E1,5.723877E-1,9.202248E1,5.3637398E1,3.466919E0,7.75433E1,8.901536E1,0E0,0E0,0E0,0E0,4.356114E1,6.9625244E0,0E0,0E0,0E0,0E0,0E0,0E0,0E0,0E0,0E0,0E0,0E0,0E0,0E0,0E0,0E0,0E0,0E0,0E0,0E0,0E0],"parents":[2147483647,0,0,2,2,3,3,4,4,5,5,6,6,7,7,8,8,9,9,10,10,11,11,12,12,13,13,15,15,16,16,17,17,18,18,19,19,20,20,21,21,22,22,23,23,24,24,29,29,30,30],"right_children":[2,-1,4,6,8,10,12,14,16,18,20,22,24,26,-1,28,30,32,34,36,38,40,42,44,46,-1,-1,-1,-1,48,50,-1,-1,-1,-1,-1,-1,-1,-1,-1,-1,-1,-1,-1,-1,-1,-1,-1,-1,-1,-1],"split_conditions":[-1.2609829E0,-3.299751E-2,1.2571551E0,3.4665791E-3,-1.991286E0,-7.352157E-1,8.3195215E-1,1.5362623E0,-1.991286E0,-9.8061174E-1,-1.1463485E-1,5.318964E-2,1.1737922E0,1.6640968E0,4.7881473E-2,9.509075E-1,-1.991286E0,-1.2136326E0,-8.268785E-2,-1.195975E-1,-1.0538838E-1,4.433559E-2,3.1368503E-1,1.1855971E0,1.3127799E0,-1.1230691E-2,-3.4145836E-2,4.224775E-2,-3.234074E-2,9.509075E-1,1.5565475E0,2.7771628E-2,-1.8915659E-3,4.980437E-2,6.057253E-3,-3.31466E-2,-2.1927629E-2,4.098101E-2,-2.18257E-2,4.8460785E-2,-4.4246796E-3,4.9762376E-2,2.8279534E-2,-1.6757885E-2,3.882509E-2,8.1678955E-3,4.694116E-2,4.3756064E-2,-2.9788395E-2,3.2852303E-2,4.667365E-2],"split_indices":[3,0,8,3,13,1,6,14,15,6,3,3,6,8,0,14,14,6,8,3,6,6,6,11,3,0,0,0,0,13,7,0,0,0,0,0,0,0,0,0,0,0,0,0,0,0,0,0,0,0,0],"split_type":[0,0,0,0,0,0,0,0,0,0,0,0,0,0,0,0,0,0,0,0,0,0,0,0,0,0,0,0,0,0,0,0,0,0,0,0,0,0,0,0,0,0,0,0,0,0,0,0,0,0,0],"sum_hessian":[6.919594E3,7.863005E2,6.133294E3,5.4655166E3,6.677773E2,2.451907E3,3.0136096E3,8.01023E1,5.876749E2,1.0431008E3,1.4088063E3,7.3037726E2,2.2832324E3,4.532706E1,3.477524E1,7.767461E1,5.1000034E2,7.333954E2,3.0970547E2,9.163924E2,4.9241382E2,1.9866753E2,5.317097E2,1.2579244E3,1.0253079E3,2.3299715E1,2.2027346E1,4.1838043E1,3.5836567E1,7.712513E1,4.328752E2,1.0886697E2,6.245284E2,2.505118E2,5.9193684E1,8.889626E2,2.7429773E1,6.562168E1,4.2679214E2,7.6665054E1,1.2200248E2,5.0291635E2,2.8793362E1,1.1935624E3,6.4362076E1,8.4761285E2,1.7769504E2,4.1565254E1,3.555988E1,1.9625401E2,2.366212E2],"tree_param":{"num_deleted":"0","num_feature":"16","num_nodes":"51","size_leaf_vector":"1"}},{"base_weights":[-1.6516482E-3,9.220881E-1,-1.3792726E-1,4.6599366E-2,3.56277E-2,-6.343882E-1,1.008752E-3,2.9670462E-2,-3.2730523E-2,3.8950005E-1,-1.11851305E-1,9.0537375E-1,3.397093E-1,-3.046793E-1,-7.6708193E-3,5.0937235E-2,2.9636879E-2,-1.1986026E-1,3.8514236E-1,1.9484382E-2,-6.216382E-1,4.5473248E-1,-9.173895E-2,-1.6435066E-2,2.5382077E-2,2.8389264E-2,1.5584006E-2,-1.919329E-2,7.02642E-3,-2.1184212E-2,-3.228265E-2,-1.8690357E-2,2.6547391E-2,6.57811E-4,-1.5451381E-2],"categories":[],"categories_nodes":[],"categories_segments":[],"categories_sizes":[],"default_left":[0,0,0,0,0,0,0,0,0,0,0,0,0,0,0,0,0,0,0,0,0,0,0,0,0,0,0,0,0,0,0,0,0,0,0],"id":27,"left_children":[1,3,5,-1,-1,7,9,-1,-1,11,13,15,17,19,21,-1,-1,23,25,27,29,31,33,-1,-1,-1,-1,-1,-1,-1,-1,-1,-1,-1,-1],"loss_changes":[8.699143E2,5.1452637E-1,4.1538028E2,0E0,0E0,3.347119E1,2.0647797E2,0E0,0E0,2.6614502E1,7.330302E1,2.0570831E0,2.0345497E1,1.3153465E2,9.226041E1,0E0,0E0,1.1969739E1,1.1496323E1,3.1097006E1,2.5297241E0,2.3453217E1,4.577764E1,0E0,0E0,0E0,0E0,0E0,0E0,0E0,0E0,0E0,0E0,0E0,0E0],"parents":[2147483647,0,0,1,1,2,2,5,5,6,6,9,9,10,10,11,11,12,12,13,13,14,14,17,17,18,18,19,19,20,20,21,21,22,22],"right_children":[2,4,6,-1,-1,8,10,-1,-1,12,14,16,18,20,22,-1,-1,24,26,28,30,32,34,-1,-1,-1,-1,-1,-1,-1,-1,-1,-1,-1,-1],"split_conditions":[-1.4042605E0,1.0517064E0,-6.7163795E-1,4.6599366E-2,3.56277E-2,-1.3763994E0,-1.3421775E-1,2.9670462E-2,-3.2730523E-2,-3.4664786E-1,8.6065245E-1,1.1275172E0,-3.1271473E-1,-8.573424E-3,1.018649E0,5.0937235E-2,2.9636879E-2,-2.7927843E-1,-2.3861708E-1,-9.3900286E-2,1.8141534E-2,-1.3914998E0,7.990947E-2,-1.6435066E-2,2.5382077E-2,2.8389264E-2,1.5584006E-2,-1.919329E-2,7.02642E-3,-2.1184212E-2,-3.228265E-2,-1.8690357E-2,2.6547391E-2,6.57811E-4,-1.5451381E-2],"split_indices":[6,8,2,0,0,3,3,0,0,3,5,12,3,3,3,0,0,5,7,6,3,7,8,0,0,0,0,0,0,0,0,0,0,0,0],"split_type":[0,0,0,0,0,0,0,0,0,0,0,0,0,0,0,0,0,0,0,0,0,0,0,0,0,0,0,0,0,0,0,0,0,0,0],"sum_hessian":[6.9064673E3,8.86413E2,6.020054E3,8.3984E2,4.6572987E1,1.3147866E3,4.7052676E3,2.0385576E1,1.2944011E3,1.0581072E3,3.6471604E3,9.011136E1,9.679958E2,1.2779497E3,2.3692107E3,6.28155E1,2.7295855E1,8.679191E1,8.812039E2,6.327221E2,6.452276E2,3.631183E2,2.0060924E3,6.583387E1,2.0958046E1,2.489078E2,6.322961E2,1.4504657E2,4.8767557E2,7.384131E1,5.713863E2,2.9930746E1,3.3318756E2,1.354225E3,6.518674E2],"tree_param":{"num_deleted":"0","num_feature":"16","num_nodes":"35","size_leaf_vector":"1"}},{"base_weights":[2.692559E-3,-6.3725346E-1,6.5376386E-2,-3.243189E-2,-1.6280077E-2,6.47578E-1,2.0173574E-2,7.9656196E-1,4.1508794E-1,5.480642E-2,-4.4413245E-1,8.7574357E-1,8.170488E-3,5.384858E-1,1.2901758E-1,1.555248E-1,-4.3646336E-2,-2.914821E-1,-3.198262E-2,4.7444537E-2,6.23474E-1,3.7898797E-1,4.941288E-2,2.0516818E-2,-7.9641845E-3,1.2680703E-1,8.4241045E-1,-3.7543115E-1,1.1188591E-1,-4.9128643E-1,8.8618495E-2,4.6218574E-2,2.0013524E-2,1.1360562E-2,3.994434E-2,-1.1111574E-2,9.335578E-3,4.6566643E-2,3.155273E-2,5.375042E-5,-3.127085E-2,7.3296563E-3,-3.359176E-2,-1.4567994E-2,-2.9092684E-2,1.6558724E-2,-2.6738767E-2],"categories":[],"categories_nodes":[],"categories_segments":[],"categories_sizes":[],"default_left":[0,0,0,0,0,0,0,0,0,0,0,0,0,0,0,0,0,0,0,0,0,0,0,0,0,0,0,0,0,0,0,0,0,0,0,0,0,0,0,0,0,0,0,0,0,0,0],"id":28,"left_children":[1,3,5,-1,-1,7,9,11,13,15,17,19,-1,21,23,25,27,29,-1,-1,31,33,-1,-1,-1,35,37,39,41,43,45,-1,-1,-1,-1,-1,-1,-1,-1,-1,-1,-1,-1,-1,-1,-1,-1],"loss_changes":[2.7890912E2,1.7783508E0,1.6662723E2,0E0,0E0,1.5139374E1,9.4573555E1,1.3542816E1,6.297554E0,5.4274666E1,1.1811867E1,3.3325653E0,0E0,8.3440895E0,4.800622E0,5.315165E1,1.42959E2,1.7777418E1,0E0,0E0,3.346098E0,5.807209E0,0E0,0E0,0E0,5.4428333E1,8.5835266E-1,8.321628E1,5.1513855E1,2.430973E0,1.2745847E1,0E0,0E0,0E0,0E0,0E0,0E0,0E0,0E0,0E0,0E0,0E0,0E0,0E0,0E0,0E0,0E0],"parents":[2147483647,0,0,1,1,2,2,5,5,6,6,7,7,8,8,9,9,10,10,11,11,13,13,14,14,15,15,16,16,17,17,20,20,21,21,25,25,26,26,27,27,28,28,29,29,30,30],"right_children":[2,4,6,-1,-1,8,10,12,14,16,18,20,-1,22,24,26,28,30,-1,-1,32,34,-1,-1,-1,36,38,40,42,44,46,-1,-1,-1,-1,-1,-1,-1,-1,-1,-1,-1,-1,-1,-1,-1,-1],"split_conditions":[-1.3763994E0,-1.3886943E0,-1.166921E0,-3.243189E-2,-1.6280077E-2,-1.2376555E0,1.2614969E0,7.4068195E-1,-1.134516E0,-4.577465E-2,1.2895252E0,-2.5587144E-1,8.170488E-3,-1.1954782E0,-1.1971337E0,-1.4023741E-2,9.262604E-1,-1.1153692E0,-3.198262E-2,4.7444537E-2,-1.3163121E0,1.0517064E0,4.941288E-2,2.0516818E-2,-7.9641845E-3,-7.3015344E-1,-1.0342319E0,5.318964E-2,1.3357899E0,1.127138E0,-2.1608725E-1,4.6218574E-2,2.0013524E-2,1.1360562E-2,3.994434E-2,-1.1111574E-2,9.335578E-3,4.6566643E-2,3.155273E-2,5.375042E-5,-3.127085E-2,7.3296563E-3,-3.359176E-2,-1.4567994E-2,-2.9092684E-2,1.6558724E-2,-2.6738767E-2],"split_indices":[3,3,5,0,0,5,6,9,6,3,3,8,0,6,5,6,3,8,0,0,5,8,0,0,0,8,9,3,5,5,8,0,0,0,0,0,0,0,0,0,0,0,0,0,0,0,0],"split_type":[0,0,0,0,0,0,0,0,0,0,0,0,0,0,0,0,0,0,0,0,0,0,0,0,0,0,0,0,0,0,0,0,0,0,0,0,0,0,0,0,0,0,0,0,0,0,0],"sum_hessian":[6.9487886E3,6.1828784E2,6.3305005E3,5.944121E2,2.3875765E1,4.541754E2,5.876325E3,2.7384076E2,1.8033466E2,5.470073E3,4.0625192E2,2.4272003E2,3.1120726E1,1.2475588E2,5.5578777E1,2.7033518E3,2.7667217E3,2.3093398E2,1.7531793E2,1.8388005E2,5.883998E1,9.481712E1,2.993876E1,2.7701555E1,2.7877222E1,2.5971382E3,1.0621366E2,8.821251E2,1.8845964E3,1.5098297E2,7.9951004E1,2.2383E1,3.645698E1,7.19076E1,2.2909521E1,3.7965112E2,2.217487E3,6.996486E1,3.6248802E1,3.5278442E2,5.293407E2,1.806233E3,7.836341E1,4.9701466E1,1.0128151E2,5.8231323E1,2.1719683E1],"tree_param":{"num_deleted":"0","num_feature":"16","num_nodes":"47","size_leaf_vector":"1"}},{"base_weights":[9.433514E-4,-6.2015665E-1,8.835865E-2,-3.251014E-2,-3.4461352E-1,3.0384343E-2,5.29772E-1,-3.0162951E-2,2.2444112E-2,-1.6986708E-1,1.8474863E-1,-1.2064243E-1,5.7139426E-1,3.610867E-1,-5.104222E-1,7.8043175E-1,-2.8553465E-3,-1.5224317E-2,4.2671417E-3,1.2305403E-1,6.2432826E-1,7.8734076E-1,5.763069E-2,-6.3701427E-1,-2.690487E-1,2.881337E-1,4.808397E-2,-3.371212E-1,3.1743616E-1,-3.0064512E-2,4.4296246E-2,8.157637E-1,4.4563684E-1,5.411586E-3,4.3780323E-2,-1.6385876E-3,4.6829354E-2,-6.82856E-3,-3.2805663E-2,3.9263066E-2,-1.6203998E-2,-1.420398E-3,4.2370275E-2,-3.0879384E-2,-1.138709E-2,1.0195757E-2,4.6382707E-2,3.334158E-2,4.637212E-2,2.9632905E-2,-3.1466037E-2],"categories":[],"categories_nodes":[],"categories_segments":[],"categories_sizes":[],"default_left":[0,0,0,0,0,0,0,0,0,0,0,0,0,0,0,0,0,0,0,0,0,0,0,0,0,0,0,0,0,0,0,0,0,0,0,0,0,0,0,0,0,0,0,0,0,0,0,0,0,0,0],"id":29,"left_children":[1,3,5,-1,7,9,11,-1,-1,13,15,17,19,21,23,25,27,-1,-1,29,31,33,35,37,39,41,-1,43,45,-1,-1,47,49,-1,-1,-1,-1,-1,-1,-1,-1,-1,-1,-1,-1,-1,-1,-1,-1,-1,-1],"loss_changes":[3.7355127E2,6.57959E0,1.5431303E2,0E0,1.8544254E1,1.649227E2,1.908966E1,0E0,0E0,4.2034085E2,3.3667554E2,1.7089773E0,1.5469452E1,1.1745758E2,4.291971E1,6.3829224E1,2.457176E2,0E0,0E0,4.0855076E1,1.9397278E1,2.2454193E1,4.2413956E1,8.683716E0,2.8971176E1,3.4927895E1,0E0,3.4170326E1,8.0812645E1,0E0,0E0,3.4470215E0,4.953084E1,0E0,0E0,0E0,0E0,0E0,0E0,0E0,0E0,0E0,0E0,0E0,0E0,0E0,0E0,0E0,0E0,0E0,0E0],"parents":[2147483647,0,0,1,1,2,2,4,4,5,5,6,6,9,9,10,10,11,11,12,12,13,13,14,14,15,15,16,16,19,19,20,20,21,21,22,22,23,23,24,24,25,25,27,27,28,28,31,31,32,32],"right_children":[2,4,6,-1,8,10,12,-1,-1,14,16,18,20,22,24,26,28,-1,-1,30,32,34,36,38,40,42,-1,44,46,-1,-1,48,50,-1,-1,-1,-1,-1,-1,-1,-1,-1,-1,-1,-1,-1,-1,-1,-1,-1,-1],"split_conditions":[-1.2376555E0,-1.2384263E0,1.2571551E0,-3.251014E-2,-4.3793088E-1,3.4665791E-3,-1.1185311E0,-3.0162951E-2,2.2444112E-2,-9.107802E-1,3.969876E-1,8.024009E-1,-1.991286E0,-7.011985E-2,-1.1463485E-1,5.318964E-2,1.1198236E0,-1.5224317E-2,4.2671417E-3,1.5362623E0,-9.769913E-2,-1.1861724E0,-9.833784E-1,-8.324594E-1,-2.3974913E-1,-2.3861708E-1,4.808397E-2,1.018649E0,1.3127799E0,-3.0064512E-2,4.4296246E-2,1.5612342E0,9.3206584E-1,5.411586E-3,4.3780323E-2,-1.6385876E-3,4.6829354E-2,-6.82856E-3,-3.2805663E-2,3.9263066E-2,-1.6203998E-2,-1.420398E-3,4.2370275E-2,-3.0879384E-2,-1.138709E-2,1.0195757E-2,4.6382707E-2,3.334158E-2,4.637212E-2,2.9632905E-2,-3.1466037E-2],"split_indices":[5,3,8,0,8,3,5,0,0,5,5,14,13,8,3,3,5,0,0,14,10,5,3,5,1,7,0,3,3,0,0,8,12,0,0,0,0,0,0,0,0,0,0,0,0,0,0,0,0,0,0],"split_type":[0,0,0,0,0,0,0,0,0,0,0,0,0,0,0,0,0,0,0,0,0,0,0,0,0,0,0,0,0,0,0,0,0,0,0,0,0,0,0,0,0,0,0,0,0,0,0,0,0,0,0],"sum_hessian":[6.876185E3,8.4686707E2,6.029318E3,7.611494E2,8.5717705E1,5.331259E3,6.980588E2,6.500753E1,2.0710173E1,2.3206106E3,3.0106484E3,4.1756104E1,6.563027E2,9.0676624E2,1.4138444E3,7.195624E2,2.291086E3,2.155852E1,2.0197584E1,7.000694E1,5.862957E2,3.7576004E2,5.310062E2,9.2528595E2,4.885584E2,1.950242E2,5.245382E2,1.121035E3,1.1700509E3,3.6127537E1,3.3879402E1,2.7961182E2,3.066839E2,4.373315E1,3.320269E2,4.832304E2,4.7775795E1,3.4613884E1,8.9067206E2,2.2919483E1,4.6563895E2,1.2574968E2,6.927453E1,3.1192252E2,8.0911255E2,9.887741E2,1.8127684E2,1.2579559E2,1.5381622E2,2.705749E2,3.6109016E1],"tree_param":{"num_deleted":"0","num_feature":"16","num_nodes":"51","size_leaf_vector":"1"}},{"base_weights":[-4.8665847E-3,8.878583E-1,-1.3410158E-1,4.4778008E-2,3.1932168E-2,-6.2807274E-1,8.0434134E-4,1.2573466E-2,-6.477353E-1,3.7949404E-1,-1.1021314E-1,-2.32806E-2,-3.252659E-2,8.7553716E-1,3.3046708E-1,-3.1260124E-1,-3.7537855E-3,4.9388625E-2,2.7891023E-2,-1.21422976E-1,3.7445554E-1,-3.0321274E-2,-6.241024E-1,1.4261766E-1,-2.1911012E-1,-1.5195374E-2,2.1352038E-2,2.220466E-2,7.959129E-3,1.2721821E-3,-3.1939834E-2,-2.1635951E-2,-3.1883795E-2,3.707581E-2,4.781452E-3,5.372667E-2,-1.282817E-2],"categories":[],"categories_nodes":[],"categories_segments":[],"categories_sizes":[],"default_left":[0,0,0,0,0,0,0,0,0,0,0,0,0,0,0,0,0,0,0,0,0,0,0,0,0,0,0,0,0,0,0,0,0,0,0,0,0],"id":30,"left_children":[1,3,5,-1,-1,7,9,-1,11,13,15,-1,-1,17,19,21,23,-1,-1,25,27,29,31,33,35,-1,-1,-1,-1,-1,-1,-1,-1,-1,-1,-1,-1],"loss_changes":[7.853184E2,5.083008E-1,3.962422E2,0E0,0E0,2.238504E1,1.9652069E2,0E0,2.9907227E-2,2.5192993E1,7.7882065E1,0E0,0E0,2.253685E0,1.932499E1,1.09522354E2,7.4794685E1,0E0,0E0,9.001582E0,1.3084724E1,2.2283272E1,9.866028E-1,3.961283E1,4.7070293E1,0E0,0E0,0E0,0E0,0E0,0E0,0E0,0E0,0E0,0E0,0E0,0E0],"parents":[2147483647,0,0,1,1,2,2,5,5,6,6,8,8,9,9,10,10,13,13,14,14,15,15,16,16,19,19,20,20,21,21,22,22,23,23,24,24],"right_children":[2,4,6,-1,-1,8,10,-1,12,14,16,-1,-1,18,20,22,24,-1,-1,26,28,30,32,34,36,-1,-1,-1,-1,-1,-1,-1,-1,-1,-1,-1,-1],"split_conditions":[-1.376399E0,-1.3886945E0,-6.7163795E-1,4.4778008E-2,3.1932168E-2,-1.3671657E0,-1.3421805E-1,1.2573466E-2,-1.3540907E0,-3.4664786E-1,8.6065245E-1,-2.32806E-2,-3.252659E-2,1.1275172E0,-3.1271443E-1,3.4665768E-3,1.1548483E0,4.9388625E-2,2.7891023E-2,-2.7927843E-1,-1.6318564E-1,8.71129E-1,1.8141532E-2,9.35011E-1,-1.6614625E0,-1.5195374E-2,2.1352038E-2,2.220466E-2,7.959129E-3,1.2721821E-3,-3.1939834E-2,-2.1635951E-2,-3.1883795E-2,3.707581E-2,4.781452E-3,5.372667E-2,-1.282817E-2],"split_indices":[4,4,2,0,0,4,4,0,4,4,5,0,0,12,4,4,5,0,0,5,4,7,4,4,15,0,0,0,0,0,0,0,0,0,0,0,0],"split_type":[0,0,0,0,0,0,0,0,0,0,0,0,0,0,0,0,0,0,0,0,0,0,0,0,0,0,0,0,0,0,0,0,0,0,0,0,0],"sum_hessian":[6.8028145E3,8.587857E2,5.944029E3,8.280094E2,3.0776253E1,1.2735372E3,4.6704917E3,2.733242E1,1.2462048E3,1.0577122E3,3.6127793E3,2.39119E1,1.222293E3,9.2104454E1,9.656077E2,1.2439858E3,2.3687935E3,6.494448E1,2.7159971E1,8.534496E1,8.8026276E2,6.5375385E2,5.90232E2,1.4106746E3,9.58119E2,6.470736E1,2.0637606E1,6.635033E2,2.1675945E2,6.0062476E2,5.312906E1,4.3443665E1,5.467883E2,1.0047667E2,1.3101979E3,2.5400522E1,9.327185E2],"tree_param":{"num_deleted":"0","num_feature":"16","num_nodes":"37","size_leaf_vector":"1"}},{"base_weights":[8.301389E-3,-6.2742084E-1,6.92889E-2,-3.2020494E-2,-1.5708575E-2,2.2127044E-1,-8.426836E-2,7.3079133E-1,1.6557771E-1,-3.5768482E-1,2.021464E-2,8.537444E-1,3.956048E-1,1.4108223E-1,8.0282694E-1,3.2722848E-3,-6.0983753E-1,1.1664362E-1,-4.4046757E-1,4.7055785E-2,7.159064E-1,-1.0014447E-2,5.777265E-1,-2.0681852E-1,2.0515092E-1,2.6312048E-2,4.3260004E-2,-1.1100349E-1,6.057624E-1,-6.454132E-1,8.304809E-3,1.5161827E-1,-3.324602E-2,-2.83218E-1,-3.183235E-2,4.059971E-2,2.0221604E-2,4.7489394E-2,-6.724417E-3,-2.718382E-2,5.22296E-3,1.1224086E-2,-3.2291044E-2,-2.3981607E-4,-3.1293157E-2,1.831427E-2,3.640538E-2,-1.7082622E-2,-3.2873448E-2,6.0045472E-3,5.733071E-2,-2.3433974E-2,2.1785365E-3],"categories":[],"categories_nodes":[],"categories_segments":[],"categories_sizes":[],"default_left":[0,0,0,0,0,0,0,0,0,0,0,0,0,0,0,0,0,0,0,0,0,0,0,0,0,0,0,0,0,0,0,0,0,0,0,0,0,0,0,0,0,0,0,0,0,0,0,0,0,0,0,0,0],"id":31,"left_children":[1,3,5,-1,-1,7,9,11,13,15,17,19,21,23,25,27,29,31,33,-1,35,-1,37,39,41,-1,-1,43,45,47,-1,49,-1,51,-1,-1,-1,-1,-1,-1,-1,-1,-1,-1,-1,-1,-1,-1,-1,-1,-1,-1,-1],"loss_changes":[2.6981552E2,2.0762787E0,1.482272E2,0E0,0E0,9.033063E1,9.028609E1,1.2261673E1,4.472779E1,7.9532486E1,1.0175053E2,1.3976288E0,9.7788105E0,6.195423E1,9.211197E-1,2.5013344E1,1.4415039E1,5.196578E1,1.1870224E1,0E0,2.2399979E0,0E0,1.824692E1,4.548172E1,3.8865875E1,0E0,0E0,1.6695353E1,1.1636124E0,1.3535614E0,0E0,5.663576E1,0E0,1.3597027E1,0E0,0E0,0E0,0E0,0E0,0E0,0E0,0E0,0E0,0E0,0E0,0E0,0E0,0E0,0E0,0E0,0E0,0E0,0E0],"parents":[2147483647,0,0,1,1,2,2,5,5,6,6,7,7,8,8,9,9,10,10,11,11,12,12,13,13,14,14,15,15,16,16,17,17,18,18,20,20,22,22,23,23,24,24,27,27,28,28,29,29,31,31,33,33],"right_children":[2,4,6,-1,-1,8,10,12,14,16,18,20,22,24,26,28,30,32,34,-1,36,-1,38,40,42,-1,-1,44,46,48,-1,50,-1,52,-1,-1,-1,-1,-1,-1,-1,-1,-1,-1,-1,-1,-1,-1,-1,-1,-1,-1,-1],"split_conditions":[-1.3763994E0,-1.3886943E0,-4.577465E-2,-3.2020494E-2,-1.5708575E-2,-1.2212467E0,9.262604E-1,-9.721642E-3,-1.4023741E-2,5.318964E-2,1.2614969E0,-7.7028763E-1,-1.3352054E0,-6.925981E-1,-2.851502E-1,1.1152868E-1,9.4077224E-1,1.3357899E0,1.2895252E0,4.7055785E-2,-1.1643846E0,-1.0014447E-2,-1.2384263E0,-2.641624E-1,2.33513E0,2.6312048E-2,4.3260004E-2,7.088496E-2,-1.7569032E0,6.903426E-2,8.304809E-3,1.2616113E0,-3.324602E-2,-1.1359551E0,-3.183235E-2,4.059971E-2,2.0221604E-2,4.7489394E-2,-6.724417E-3,-2.718382E-2,5.22296E-3,1.1224086E-2,-3.2291044E-2,-2.3981607E-4,-3.1293157E-2,1.831427E-2,3.640538E-2,-1.7082622E-2,-3.2873448E-2,6.0045472E-3,5.733071E-2,-2.3433974E-2,2.1785365E-3],"split_indices":[3,3,3,0,0,5,3,7,6,3,6,7,5,7,15,6,6,5,3,0,1,0,3,5,12,0,0,5,7,3,0,3,0,7,0,0,0,0,0,0,0,0,0,0,0,0,0,0,0,0,0,0,0],"split_type":[0,0,0,0,0,0,0,0,0,0,0,0,0,0,0,0,0,0,0,0,0,0,0,0,0,0,0,0,0,0,0,0,0,0,0,0,0,0,0,0,0,0,0,0,0,0,0,0,0,0,0,0,0],"sum_hessian":[6.954947E3,6.071855E2,6.347761E3,5.8100494E2,2.6180529E1,3.1898057E3,3.1579556E3,3.1191534E2,2.8778904E3,8.7178284E2,2.2861729E3,2.259414E2,8.597392E1,2.7737131E3,1.0417711E2,3.593486E2,5.124342E2,1.8917E3,3.9447284E2,1.311525E2,9.478891E1,2.00785E1,6.5895424E1,4.3066946E2,2.3430437E3,2.2643072E1,8.1534035E1,3.0342816E2,5.592044E1,4.9029135E2,2.2142885E1,1.8122161E3,7.948386E1,2.2167462E2,1.7279822E2,6.998508E1,2.4803833E1,4.284568E1,2.304974E1,2.0611893E2,2.2455052E2,2.2924407E3,5.0603073E1,2.5321306E2,5.0215107E1,2.1609669E1,3.4310772E1,2.0955965E1,4.693354E2,1.7587305E3,5.348555E1,1.4086278E2,8.081185E1],"tree_param":{"num_deleted":"0","num_feature":"16","num_nodes":"53","size_leaf_vector":"1"}},{"base_weights":[1.4037859E-4,-6.339324E-1,8.0091715E-2,-3.2056455E-2,-2.4229456E-2,2.5515195E-2,5.448239E-1,-1.6958545E-1,1.7974806E-1,1.246951E-1,6.03743E-1,3.0268946E-1,-5.0334275E-1,7.432191E-1,-3.4943118E-3,3.705127E-2,-2.8534764E-2,8.0692923E-1,4.1228798E-1,1.15121126E-1,8.356621E-1,-6.4016706E-1,-2.6809594E-1,2.9303637E-1,9.0659106E-1,-3.4846854E-1,2.993143E-1,1.7500287E-2,8.4560657E-1,5.570891E-1,-2.7174188E-2,1.3621188E-2,-1.5227546E-2,4.5514397E-2,2.5088176E-2,-1.0974667E-2,-3.250944E-2,-1.8841E-2,1.57112E-2,-4.8562392E-4,4.1685138E-2,2.7831314E-2,4.6133038E-2,-3.3569556E-2,-1.1324522E-2,9.492249E-3,4.452023E-2,4.7137972E-2,3.7090637E-2,4.120649E-2,6.0742926E-3],"categories":[],"categories_nodes":[],"categories_segments":[],"categories_sizes":[],"default_left":[0,0,0,0,0,0,0,0,0,0,0,0,0,0,0,0,0,0,0,0,0,0,0,0,0,0,0,0,0,0,0,0,0,0,0,0,0,0,0,0,0,0,0,0,0,0,0,0,0,0,0],"id":32,"left_children":[1,3,5,-1,-1,7,9,11,13,15,17,19,21,23,25,-1,-1,27,29,31,33,35,37,39,41,43,45,-1,47,49,-1,-1,-1,-1,-1,-1,-1,-1,-1,-1,-1,-1,-1,-1,-1,-1,-1,-1,-1,-1,-1],"loss_changes":[3.4478763E2,1.9714355E-1,1.5315903E2,0E0,0E0,1.6276344E2,1.5559006E1,3.767554E2,3.119043E2,3.5379894E1,2.0966019E1,9.87935E1,4.472229E1,5.3989258E1,2.3853284E2,0E0,0E0,4.138611E0,4.0793907E1,4.866958E1,5.50119E0,3.4404907E0,3.305204E1,3.280943E1,2.0263367E0,4.1740326E1,7.8348595E1,0E0,1.0756073E0,2.9249123E1,0E0,0E0,0E0,0E0,0E0,0E0,0E0,0E0,0E0,0E0,0E0,0E0,0E0,0E0,0E0,0E0,0E0,0E0,0E0,0E0,0E0],"parents":[2147483647,0,0,1,1,2,2,5,5,6,6,7,7,8,8,9,9,10,10,11,11,12,12,13,13,14,14,17,17,18,18,19,19,20,20,21,21,22,22,23,23,24,24,25,25,26,26,28,28,29,29],"right_children":[2,4,6,-1,-1,8,10,12,14,16,18,20,22,24,26,-1,-1,28,30,32,34,36,38,40,42,44,46,-1,48,50,-1,-1,-1,-1,-1,-1,-1,-1,-1,-1,-1,-1,-1,-1,-1,-1,-1,-1,-1,-1,-1],"split_conditions":[-1.2663778E0,-1.2306193E0,1.3073671E0,-3.2056455E-2,-2.4229456E-2,3.4665791E-3,-1.991286E0,-8.7961596E-1,7.2347313E-1,9.509075E-1,-1.1336043E-1,-9.896446E-1,-1.195975E-1,5.318964E-2,1.1162971E0,3.705127E-2,-2.8534764E-2,-1.5488484E0,9.509075E-1,-1.0557827E0,4.4167623E-1,-8.324594E-1,3.3246896E-1,-2.5137255E-1,-1.2989671E0,1.018649E0,1.3127799E0,1.7500287E-2,-9.833784E-1,-6.137415E-1,-2.7174188E-2,1.3621188E-2,-1.5227546E-2,4.5514397E-2,2.5088176E-2,-1.0974667E-2,-3.250944E-2,-1.8841E-2,1.57112E-2,-4.8562392E-4,4.1685138E-2,2.7831314E-2,4.6133038E-2,-3.3569556E-2,-1.1324522E-2,9.492249E-3,4.452023E-2,4.7137972E-2,3.7090637E-2,4.120649E-2,6.0742926E-3],"split_indices":[5,3,8,0,0,3,15,5,1,14,15,3,3,3,5,0,0,14,13,5,9,5,8,9,11,3,3,0,3,14,0,0,0,0,0,0,0,0,0,0,0,0,0,0,0,0,0,0,0,0,0],"split_type":[0,0,0,0,0,0,0,0,0,0,0,0,0,0,0,0,0,0,0,0,0,0,0,0,0,0,0,0,0,0,0,0,0,0,0,0,0,0,0,0,0,0,0,0,0,0,0,0,0,0,0],"sum_hessian":[6.7972173E3,7.5955225E2,6.037665E3,7.1835E2,4.1202286E1,5.4050273E3,6.326377E2,2.3862644E3,3.018763E3,7.8576035E1,5.5406165E2,9.881681E2,1.3980963E3,7.393002E2,2.2794626E3,4.1586407E1,3.6989628E1,2.6567654E2,2.883851E2,7.327311E2,2.5543706E2,8.81788E2,5.1630835E2,1.9834218E2,5.4095795E2,1.0654027E3,1.21406E3,2.2302261E1,2.433743E2,