{"learner":{"attributes":{"scikit_learn":"{\"_estimator_type\": \"classifier\"}"},"feature_names":[],"feature_types":[],"gradient_booster":{"model":{"gbtree_model_param":{"num_parallel_tree":"1","num_trees":"200"},"iteration_indptr":[0,1,2,3,4,5,6,7,8,9,10,11,12,13,14,15,16,17,18,19,20,21,22,23,24,25,26,27,28,29,30,31,32,33,34,35,36,37,38,39,40,41,42,43,44,45,46,47,48,49,50,51,52,53,54,55,56,57,58,59,60,61,62,63,64,65,66,67,68,69,70,71,72,73,74,75,76,77,78,79,80,81,82,83,84,85,86,87,88,89,90,91,92,93,94,95,96,97,98,99,100,101,102,103,104,105,106,107,108,109,110,111,112,113,114,115,116,117,118,119,120,121,122,123,124,125,126,127,128,129,130,131,132,133,134,135,136,137,138,139,140,141,142,143,144,145,146,147,148,149,150,151,152,153,154,155,156,157,158,159,160,161,162,163,164,165,166,167,168,169,170,171,172,173,174,175,176,177,178,179,180,181,182,183,184,185,186,187,188,189,190,191,192,193,194,195,196,197,198,199,200],"tree_info":[0,0,0,0,0,0,0,0,0,0,0,0,0,0,0,0,0,0,0,0,0,0,0,0,0,0,0,0,0,0,0,0,0,0,0,0,0,0,0,0,0,0,0,0,0,0,0,0,0,0,0,0,0,0,0,0,0,0,0,0,0,0,0,0,0,0,0,0,0,0,0,0,0,0,0,0,0,0,0,0,0,0,0,0,0,0,0,0,0,0,0,0,0,0,0,0,0,0,0,0,0,0,0,0,0,0,0,0,0,0,0,0,0,0,0,0,0,0,0,0,0,0,0,0,0,0,0,0,0,0,0,0,0,0,0,0,0,0,0,0,0,0,0,0,0,0,0,0,0,0,0,0,0,0,0,0,0,0,0,0,0,0,0,0,0,0,0,0,0,0,0,0,0,0,0,0,0,0,0,0,0,0,0,0,0,0,0,0,0,0,0,0,0,0,0,0,0,0,0,0],"trees":[{"base_weights":[4.7898605E-1,6.2636006E-1,-5.4156935E-1,1.19819336E-1,5.3218096E-1,2.7098912E-1,9.361691E-1,4.2091858E-1,-1.0562234E0,1.1400105E0,-5.3595424E-2,-2.3210773E-2,7.3641187E-1,-1.6735749E-1,-2.3599744E-2,1.1885748E-1,6.78433E-2,4.5317188E-1,-6.4519966E-1,9.851793E-1,8.256866E-2,-1.345211E-2,6.453394E-1,4.59709E-3,-9.3698776E-1,1.17514424E-1,7.1017325E-1,2.2357723E-1,-2.1795215E-2,9.656637E-2,3.6233626E-2,-5.82455E-2,-1.3639216E-1,5.1561363E-2,1.00913815E-1,4.4912007E-2,-5.852834E-3],"categories":[],"categories_nodes":[],"categories_segments":[],"categories_sizes":[],"default_left":[0,0,0,0,0,0,0,0,0,0,0,0,0,0,0,0,0,0,0,0,0,0,0,0,0,0,0,0,0,0,0,0,0,0,0,0,0],"id":0,"left_children":[1,3,-1,-1,5,7,9,11,13,15,-1,17,19,-1,-1,-1,-1,21,23,25,27,-1,29,-1,31,-1,33,35,-1,-1,-1,-1,-1,-1,-1,-1,-1],"loss_changes":[2.0513345E3,1.23272156E2,0E0,0E0,2.083836E2,2.3968219E2,2.3346985E2,1.5148035E2,6.1541412E1,1.4479858E1,0E0,1.3360622E2,1.02722015E2,0E0,0E0,0E0,0E0,2.8927158E1,3.9480934E1,2.3078918E1,7.4766273E0,0E0,1.7111298E1,0E0,2.00253E1,0E0,1.0504631E1,7.64874E0,0E0,0E0,0E0,0E0,0E0,0E0,0E0,0E0,0E0],"parents":[2147483647,0,0,1,1,4,4,5,5,6,6,7,7,8,8,9,9,11,11,12,12,17,17,18,18,19,19,20,20,22,22,24,24,26,26,27,27],"right_children":[2,4,-1,-1,6,8,10,12,14,16,-1,18,20,-1,-1,-1,-1,22,24,26,28,-1,30,-1,32,-1,34,36,-1,-1,-1,-1,-1,-1,-1,-1,-1],"split_conditions":[1.4305464E0,-1.1877651E0,-5.4156935E-1,1.19819336E-1,3.2410598E-1,1.7239636E-1,1.3636966E0,-6.619175E-1,1.315123E-1,1.2996877E0,-5.3595424E-2,-1.0086989E0,-5.7579153E-3,-1.6735749E-1,-2.3599744E-2,1.1885748E-1,6.78433E-2,-1.2066193E0,-9.8788506E-1,-1.1343455E-1,-1.750184E-2,-1.345211E-2,-1.0806711E0,4.59709E-3,7.9536635E-1,1.17514424E-1,-2.4871452E-2,7.332385E-2,-2.1795215E-2,9.656637E-2,3.6233626E-2,-5.82455E-2,-1.3639216E-1,5.1561363E-2,1.00913815E-1,4.4912007E-2,-5.852834E-3],"split_indices":[3,3,0,0,1,2,2,1,1,2,0,3,3,0,0,0,0,1,2,3,6,0,5,0,6,0,1,3,0,0,0,0,0,0,0,0,0],"split_type":[0,0,0,0,0,0,0,0,0,0,0,0,0,0,0,0,0,0,0,0,0,0,0,0,0,0,0,0,0,0,0,0,0,0,0,0,0],"sum_hessian":[2.3564177E3,2.2998135E3,5.660434E1,3.235532E2,1.9762601E3,1.2012699E3,7.749903E2,1.079955E3,1.2131498E2,6.8092926E2,9.4061035E1,4.4892133E2,6.3103357E2,6.862402E1,5.2690952E1,6.146812E2,6.624804E1,2.5437012E2,1.9455121E2,4.567481E2,1.7428546E2,6.275395E1,1.9161618E2,5.800198E1,1.3654924E2,2.6820673E2,1.8854137E2,1.1879923E2,5.548623E1,8.8750015E1,1.0286616E2,7.589175E1,6.065749E1,1.1586419E2,7.267718E1,6.568899E1,5.3110245E1],"tree_param":{"num_deleted":"0","num_feature":"8","num_nodes":"37","size_leaf_vector":"1"}},{"base_weights":[4.5296896E-1,6.158971E-1,-2.9202422E-1,4.4421828E-1,9.73257E-1,6.656697E-1,-7.293691E-1,1.1146924E0,-3.197346E-2,1.1751648E-1,5.0354165E-1,-1.9429456E-1,-1.5933555E-1,1.1704793E-1,7.114504E-2,-2.769849E-2,9.821812E-1,-1.0309323E-1,4.2288348E-2,3.224502E-1,-1.6967201E-1,1.0670705E0,5.0267726E-2,7.1918947E-1,-1.7007772E-2,8.6722545E-2,1.1368569E-1,4.6861198E-2,9.078993E-2,2.8969124E-2,-3.932523E-2],"categories":[],"categories_nodes":[],"categories_segments":[],"categories_sizes":[],"default_left":[0,0,0,0,0,0,0,0,0,0,0,0,0,0,0,0,0,0,0,0,0,0,0,0,0,0,0,0,0,0,0],"id":1,"left_children":[1,3,-1,5,7,9,11,13,-1,-1,15,17,-1,-1,-1,19,21,-1,-1,23,-1,25,-1,27,29,-1,-1,-1,-1,-1,-1],"loss_changes":[1.2612672E3,1.3373553E2,0E0,3.8488132E2,1.2998328E2,1.022323E2,1.08453094E2,1.3545471E1,0E0,0E0,2.4058209E2,7.6044E1,0E0,0E0,0E0,2.631558E2,1.9722015E1,0E0,0E0,5.0148983E1,0E0,4.898712E0,0E0,7.6925964E0,2.3377054E1,0E0,0E0,0E0,0E0,0E0,0E0],"parents":[2147483647,0,0,1,1,3,3,4,4,5,5,6,6,7,7,10,10,11,11,15,15,16,16,19,19,21,21,23,23,24,24],"right_children":[2,4,-1,6,8,10,12,14,-1,-1,16,18,-1,-1,-1,20,22,-1,-1,24,-1,26,-1,28,30,-1,-1,-1,-1,-1,-1],"split_conditions":[1.4477587E0,3.2410598E-1,-2.9202422E-1,6.0246095E-2,1.3636966E0,-1.1877651E0,1.7239636E-1,1.2841331E0,-3.197346E-2,1.1751648E-1,-6.619175E-1,-7.2992505E-3,-1.5933555E-1,1.1704793E-1,7.114504E-2,-8.1458515E-1,4.985637E-3,-1.0309323E-1,4.2288348E-2,-1.06322E0,-1.6967201E-1,-5.9500426E-1,5.0267726E-2,-1.0279573E0,-9.794367E-1,8.6722545E-2,1.1368569E-1,4.6861198E-2,9.078993E-2,2.8969124E-2,-3.932523E-2],"split_indices":[2,1,0,0,2,3,2,2,0,0,1,1,0,0,0,0,0,0,0,0,0,6,0,1,2,0,0,0,0,0,0],"split_type":[0,0,0,0,0,0,0,0,0,0,0,0,0,0,0,0,0,0,0,0,0,0,0,0,0,0,0,0,0,0,0],"sum_hessian":[2.2906467E3,2.1858845E3,1.04762146E2,1.4780565E3,7.078281E2,1.2437908E3,2.3426573E2,6.381601E2,6.966799E1,2.987394E2,9.4505133E2,1.454266E2,8.883913E1,5.589316E2,7.922857E1,4.483602E2,4.9669113E2,6.1452324E1,8.397429E1,3.7127597E2,7.708421E1,4.209437E2,7.574744E1,1.7067824E2,2.0059773E2,1.1242443E2,3.0851926E2,7.481658E1,9.586166E1,1.1063924E2,8.99585E1],"tree_param":{"num_deleted":"0","num_feature":"8","num_nodes":"31","size_leaf_vector":"1"}},{"base_weights":[4.4842932E-1,5.822762E-1,-2.747119E-1,1.155005E-1,4.9664637E-1,2.7124506E-1,9.026682E-1,3.8879627E-1,-7.158569E-1,1.0977296E0,-2.9261706E-2,5.529572E-2,6.5151095E-1,-1.03214756E-1,-3.7389275E-2,1.1473193E-1,6.463354E-2,3.128823E-1,-1.0427506E-1,1.0317619E0,1.7346184E-1,4.907199E-1,-4.633292E-2,1.1557239E-1,8.139829E-1,-4.0745296E-2,7.7125E-2,7.249915E-2,3.6625184E-2,1.9308047E-2,-2.3179652E-2,7.0015095E-2,9.142055E-2,6.1601903E-2,-4.2116683E-2],"categories":[],"categories_nodes":[],"categories_segments":[],"categories_sizes":[],"default_left":[0,0,0,0,0,0,0,0,0,0,0,0,0,0,0,0,0,0,0,0,0,0,0,0,0,0,0,0,0,0,0,0,0,0,0],"id":2,"left_children":[1,3,-1,-1,5,7,9,11,13,15,-1,17,19,-1,-1,-1,-1,21,-1,23,25,27,29,-1,31,33,-1,-1,-1,-1,-1,-1,-1,-1,-1],"loss_changes":[9.414326E2,1.0289789E2,0E0,0E0,1.6788858E2,1.3752173E2,1.5312799E2,9.262254E1,1.3265678E1,1.1875488E1,0E0,1.3243971E2,1.0733702E2,0E0,0E0,0E0,0E0,2.424096E1,0E0,7.9472046E0,3.3739216E1,7.1309853E0,5.659463E0,0E0,7.6094055E-1,4.8915947E1,0E0,0E0,0E0,0E0,0E0,0E0,0E0,0E0,0E0],"parents":[2147483647,0,0,1,1,4,4,5,5,6,6,7,7,8,8,9,9,11,11,12,12,17,17,19,19,20,20,21,21,22,22,24,24,25,25],"right_children":[2,4,-1,-1,6,8,10,12,14,16,-1,18,20,-1,-1,-1,-1,22,-1,24,26,28,30,-1,32,34,-1,-1,-1,-1,-1,-1,-1,-1,-1],"split_conditions":[1.4211475E0,-1.1877651E0,-2.747119E-1,1.155005E-1,4.117787E-1,1.823609E-1,1.3747811E0,-3.516088E-1,2.0009714E-1,1.3060116E0,-2.9261706E-2,-8.5064757E-1,-7.492551E-2,-1.03214756E-1,-3.7389275E-2,1.1473193E-1,6.463354E-2,-9.394302E-1,-1.0427506E-1,-1.1343455E-1,1.2720576E-1,-1.1139067E0,-9.8753995E-1,1.1557239E-1,-5.1234616E-3,-3.302466E-2,7.7125E-2,7.249915E-2,3.6625184E-2,1.9308047E-2,-2.3179652E-2,7.0015095E-2,9.142055E-2,6.1601903E-2,-4.2116683E-2],"split_indices":[4,3,0,0,4,2,2,3,4,2,0,4,4,0,0,0,0,2,0,3,3,5,4,0,5,2,0,0,0,0,0,0,0,0,0],"split_type":[0,0,0,0,0,0,0,0,0,0,0,0,0,0,0,0,0,0,0,0,0,0,0,0,0,0,0,0,0,0,0,0,0,0,0],"sum_hessian":[2.1963386E3,2.1088274E3,8.751136E1,2.7266174E2,1.8361656E3,1.1817758E3,6.5438983E2,1.0565592E3,1.2521655E2,5.626511E2,9.173873E1,4.6609277E2,5.9046643E2,6.400165E1,6.12149E1,5.0556818E2,5.7082943E1,3.781087E2,8.798405E1,3.2822812E2,2.622383E2,2.5265837E2,1.2545033E2,2.0642314E2,1.21805E2,1.9374496E2,6.8493355E1,8.598821E1,1.6667017E2,5.4742558E1,7.070777E1,6.0769497E1,6.1035503E1,7.08351E1,1.2290987E2],"tree_param":{"num_deleted":"0","num_feature":"8","num_nodes":"35","size_leaf_vector":"1"}},{"base_weights":[4.0696585E-1,5.432034E-1,-2.4309142E-1,1.1372321E-1,4.6050882E-1,2.4023424E-1,8.4781396E-1,4.0146503E-1,-4.622766E-1,1.0806863E0,-2.0505363E-1,-6.230709E-3,7.842519E-1,-1.2140232E-1,1.4941616E-1,1.1304758E-1,6.437541E-2,-8.731898E-2,4.1131433E-2,1.7192246E-1,-1.2366362E-1,1.0265586E0,3.4384236E-1,-8.446398E-3,4.223134E-2,3.5623935E-1,-2.3760575E-1,1.10981904E-1,8.177939E-2,-1.4381631E-2,8.618407E-2,1.9519813E-2,5.9668947E-2,2.5603881E-2,-6.382679E-2],"categories":[],"categories_nodes":[],"categories_segments":[],"categories_sizes":[],"default_left":[0,0,0,0,0,0,0,0,0,0,0,0,0,0,0,0,0,0,0,0,0,0,0,0,0,0,0,0,0,0,0,0,0,0,0],"id":3,"left_children":[1,3,-1,-1,5,7,9,11,13,15,17,19,21,-1,23,-1,-1,-1,-1,25,-1,27,29,-1,-1,31,33,-1,-1,-1,-1,-1,-1,-1,-1],"loss_changes":[8.1941064E2,9.869794E1,0E0,0E0,1.5120377E2,1.284824E2,1.578793E2,1.4386142E2,9.7621445E1,1.0730835E1,4.866687E1,9.8276054E1,5.0382233E1,0E0,7.5494432E0,0E0,0E0,0E0,0E0,2.9648575E1,0E0,4.4145203E0,4.3128033E1,0E0,0E0,1.0357918E1,2.4325577E1,0E0,0E0,0E0,0E0,0E0,0E0,0E0,0E0],"parents":[2147483647,0,0,1,1,4,4,5,5,6,6,7,7,8,8,9,9,10,10,11,11,12,12,14,14,19,19,21,21,22,22,25,25,26,26],"right_children":[2,4,-1,-1,6,8,10,12,14,16,18,20,22,-1,24,-1,-1,-1,-1,26,-1,28,30,-1,-1,32,34,-1,-1,-1,-1,-1,-1,-1,-1],"split_conditions":[1.4305464E0,-1.1877651E0,-2.4309142E-1,1.1372321E-1,3.2410598E-1,7.332385E-2,1.3508385E0,-6.619175E-1,1.05271906E-1,1.2916485E0,1.232936E0,-7.568843E-1,-8.400495E-2,-1.2140232E-1,-3.7995648E-1,1.1304758E-1,6.437541E-2,-8.731898E-2,4.1131433E-2,-9.394302E-1,-1.2366362E-1,-1.04638904E-1,-1.8649913E-2,-8.446398E-3,4.223134E-2,-9.7090834E-1,-9.8753995E-1,1.10981904E-1,8.177939E-2,-1.4381631E-2,8.618407E-2,1.9519813E-2,5.9668947E-2,2.5603881E-2,-6.382679E-2],"split_indices":[3,3,0,0,1,3,2,1,1,2,1,2,4,0,7,0,0,0,0,2,0,3,1,0,0,1,4,0,0,0,0,0,0,0,0],"split_type":[0,0,0,0,0,0,0,0,0,0,0,0,0,0,0,0,0,0,0,0,0,0,0,0,0,0,0,0,0,0,0,0,0,0,0],"sum_hessian":[2.1149734E3,2.0188628E3,9.611058E1,2.451438E2,1.773719E3,1.1317001E3,6.4201886E2,9.2079926E2,2.1090083E2,5.257153E2,1.16303635E2,4.4636838E2,4.7443088E2,9.4176674E1,1.1672416E2,4.7051193E2,5.520332E1,5.5608242E1,6.0695396E1,3.9066357E2,5.5704784E1,3.0518936E2,1.692415E2,6.3227238E1,5.3496925E1,2.6949966E2,1.2116393E2,2.1509012E2,9.009925E1,8.7545746E1,8.169575E1,1.6248637E2,1.0701328E2,5.4444885E1,6.671905E1],"tree_param":{"num_deleted":"0","num_feature":"8","num_nodes":"35","size_leaf_vector":"1"}},{"base_weights":[3.700232E-1,5.031648E-1,-1.9833013E0,1.114943E-1,4.177011E-1,-2.3156719E-1,-1.5767422E-1,2.0115134E-1,8.339184E-1,4.1134626E-1,-5.62635E-1,1.0533544E0,-2.9137019E-2,-1.8505035E-2,8.634833E-1,-2.211745E-1,-1.5521678E-1,1.11881815E-1,6.5749966E-2,3.474041E-1,-9.2474645E-1,1.12415545E-1,6.649987E-1,-8.091606E-2,4.6920832E-2,6.596345E-1,9.6428834E-2,-5.6856507E-3,-1.608439E-1,5.126287E-1,1.0659035E-1,3.5868336E-2,9.64602E-2,3.4871425E-2,-1.4060132E-2,7.047497E-2,1.8754555E-2],"categories":[],"categories_nodes":[],"categories_segments":[],"categories_sizes":[],"default_left":[0,0,0,0,0,0,0,0,0,0,0,0,0,0,0,0,0,0,0,0,0,0,0,0,0,0,0,0,0,0,0,0,0,0,0,0,0],"id":4,"left_children":[1,3,5,-1,7,-1,-1,9,11,13,15,17,-1,19,21,23,-1,-1,-1,25,27,-1,29,-1,-1,31,33,-1,-1,35,-1,-1,-1,-1,-1,-1,-1],"loss_changes":[6.4254626E2,1.0089917E2,1.1191467E1,0E0,1.5329681E2,0E0,0E0,1.8024753E2,1.4411346E2,1.7102226E2,8.156292E1,1.189917E1,0E0,1.5021715E2,2.1440613E1,7.401033E1,0E0,0E0,0E0,2.522723E1,7.722004E1,0E0,1.4475334E1,0E0,0E0,1.2838203E1,1.081851E1,0E0,0E0,1.1116966E1,0E0,0E0,0E0,0E0,0E0,0E0,0E0],"parents":[2147483647,0,0,1,1,2,2,4,4,7,7,8,8,9,9,10,10,11,11,13,13,14,14,15,15,19,19,20,20,22,22,25,25,26,26,29,29],"right_children":[2,4,6,-1,8,-1,-1,10,12,14,16,18,-1,20,22,24,-1,-1,-1,26,28,-1,30,-1,-1,32,34,-1,-1,36,-1,-1,-1,-1,-1,-1,-1],"split_conditions":[1.4211475E0,-1.1801857E0,3.1297314E-1,1.114943E-1,4.117787E-1,-2.3156719E-1,-1.5767422E-1,7.44474E-2,1.3747811E0,-4.322224E-1,2.5916725E-1,1.2916485E0,-2.9137019E-2,-8.6662114E-1,-1.1343455E-1,1.2720576E-1,-1.5521678E-1,1.11881815E-1,6.5749966E-2,-1.0799711E0,-1.0057197E0,1.12415545E-1,1.9556984E-1,-8.091606E-2,4.6920832E-2,7.6710457E-1,-9.974509E-1,-5.6856507E-3,-1.608439E-1,-6.7727074E-2,1.0659035E-1,3.5868336E-2,9.64602E-2,3.4871425E-2,-1.4060132E-2,7.047497E-2,1.8754555E-2],"split_indices":[4,3,7,0,4,0,0,0,2,5,2,2,0,0,3,3,0,0,0,0,2,0,7,0,0,7,2,0,0,4,0,0,0,0,0,0,0],"split_type":[0,0,0,0,0,0,0,0,0,0,0,0,0,0,0,0,0,0,0,0,0,0,0,0,0,0,0,0,0,0,0,0,0,0,0,0,0],"sum_hessian":[2.0465459E3,1.9377046E3,1.0884134E2,2.3603575E2,1.7016688E3,5.7300873E1,5.154047E1,1.1202881E3,5.8138074E2,8.7888055E2,2.4140755E2,4.865629E2,9.481787E1,4.5103555E2,4.27845E2,1.8038512E2,6.1022423E1,4.1594962E2,7.0613266E1,3.2174332E2,1.2929224E2,1.8293314E2,2.4491187E2,9.732403E1,8.30611E1,1.4264941E2,1.7909392E2,5.744888E1,7.184335E1,1.791151E2,6.5796776E1,7.289277E1,6.975664E1,8.652693E1,9.256698E1,1.118468E2,6.726829E1],"tree_param":{"num_deleted":"0","num_feature":"8","num_nodes":"37","size_leaf_vector":"1"}},{"base_weights":[3.6350814E-1,4.95164E-1,-1.6769876E0,3.5004565E-1,8.409766E-1,-1.9514395E-1,-1.3420156E-1,5.18399E-1,-4.2527938E-1,1.0396998E0,-2.0224474E-2,1.10793985E-1,3.755976E-1,-1.0349505E0,2.1382058E-1,1.0933608E-1,6.070007E-2,2.7473396E-2,7.3765296E-1,-1.408015E-1,-5.7924468E-2,1.5002741E-4,4.2666346E-2,1.7577517E-1,-8.970537E-2,1.0872608E-1,4.6847835E-1,6.1257786E-1,1.0017217E-3,2.8177378E-1,8.63178E-2,3.9921388E-2,7.865226E-2,2.6752252E-2,-3.357262E-2,6.561302E-2,-1.2588111E-3],"categories":[],"categories_nodes":[],"categories_segments":[],"categories_sizes":[],"default_left":[0,0,0,0,0,0,0,0,0,0,0,0,0,0,0,0,0,0,0,0,0,0,0,0,0,0,0,0,0,0,0,0,0,0,0,0,0],"id":5,"left_children":[1,3,5,7,9,-1,-1,11,13,15,-1,-1,17,19,21,-1,-1,23,25,-1,-1,-1,-1,27,-1,-1,29,31,33,35,-1,-1,-1,-1,-1,-1,-1],"loss_changes":[5.310884E2,9.2795105E1,8.400665E0,1.7099872E2,1.13737305E2,0E0,0E0,9.011856E1,9.1382484E1,1.0020691E1,0E0,0E0,1.0928375E2,1.956987E1,5.198706E0,0E0,0E0,6.091782E1,3.9491425E1,0E0,0E0,0E0,0E0,2.9217527E1,0E0,0E0,1.7584023E1,3.7452278E0,2.4711924E1,1.826933E1,0E0,0E0,0E0,0E0,0E0,0E0,0E0],"parents":[2147483647,0,0,1,1,2,2,3,3,4,4,7,7,8,8,9,9,12,12,13,13,14,14,17,17,18,18,23,23,26,26,27,27,28,28,29,29],"right_children":[2,4,6,8,10,-1,-1,12,14,16,-1,-1,18,20,22,-1,-1,24,26,-1,-1,-1,-1,28,-1,-1,30,32,34,36,-1,-1,-1,-1,-1,-1,-1],"split_conditions":[1.4052775E0,3.2410598E-1,3.504273E-1,6.712795E-2,1.3747811E0,-1.9514395E-1,-1.3420156E-1,-1.1877651E0,1.13477126E-1,1.3060116E0,-2.0224474E-2,1.10793985E-1,-6.619175E-1,3.579264E-1,-4.933878E-1,1.0933608E-1,6.070007E-2,-7.568843E-1,-1.1343455E-1,-1.408015E-1,-5.7924468E-2,1.5002741E-4,4.2666346E-2,-1.1142707E0,-8.970537E-2,1.0872608E-1,2.4526307E-2,6.9258255E-1,-9.8753995E-1,-8.400495E-2,8.63178E-2,3.9921388E-2,7.865226E-2,2.6752252E-2,-3.357262E-2,6.561302E-2,-1.2588111E-3],"split_indices":[4,1,7,3,2,0,0,3,1,2,0,0,1,7,7,0,0,2,3,0,0,0,0,2,0,0,1,7,4,4,0,0,0,0,0,0,0],"split_type":[0,0,0,0,0,0,0,0,0,0,0,0,0,0,0,0,0,0,0,0,0,0,0,0,0,0,0,0,0,0,0,0,0,0,0,0,0],"sum_hessian":[1.9728367E3,1.8539729E3,1.18863815E2,1.307359E3,5.4661383E2,6.2681484E1,5.618233E1,1.0743969E3,2.3296216E2,4.5915317E2,8.746068E1,2.081817E2,8.6621515E2,1.1890911E2,1.14053055E2,4.0713556E2,5.2017586E1,4.4215207E2,4.2406308E2,6.423405E1,5.4675064E1,5.7600765E1,5.645229E1,3.817294E2,6.0422672E1,1.8314827E2,2.4091481E2,1.0837303E2,2.7335638E2,1.6471407E2,7.620074E1,5.0151417E1,5.822162E1,1.5269975E2,1.20656624E2,7.19642E1,9.274987E1],"tree_param":{"num_deleted":"0","num_feature":"8","num_nodes":"37","size_leaf_vector":"1"}},{"base_weights":[3.300488E-1,4.5226574E-1,-1.5813923E0,1.0934202E-1,3.746345E-1,-1.8739803E-1,-1.2786928E-1,1.7527404E-1,7.8188735E-1,4.0219787E-1,-4.8536232E-1,1.0390388E0,-1.7239165E-1,-1.2329062E-3,9.1964823E-1,-8.0867374E-1,1.7702637E-2,1.09655775E-1,8.459005E-2,4.6272915E-2,-9.265888E-2,2.7268943E-1,-1.0052265E-1,6.877457E-1,1.0885872E-1,-2.8513813E-2,-1.0162348E0,5.9865046E-1,-3.3264873E-3,9.877445E-2,4.6977554E-2,-1.1770661E-1,-8.033665E-2,4.281364E-2,8.172592E-2,4.0722866E-2,-1.8400805E-2],"categories":[],"categories_nodes":[],"categories_segments":[],"categories_sizes":[],"default_left":[0,0,0,0,0,0,0,0,0,0,0,0,0,0,0,0,0,0,0,0,0,0,0,0,0,0,0,0,0,0,0,0,0,0,0,0,0],"id":6,"left_children":[1,3,5,-1,7,-1,-1,9,11,13,15,17,19,21,23,25,-1,-1,-1,-1,-1,27,-1,29,-1,-1,31,33,35,-1,-1,-1,-1,-1,-1,-1,-1],"loss_changes":[4.4479034E2,8.8558655E1,7.7412415E0,0E0,1.294366E2,0E0,0E0,1.6101161E2,1.2881598E2,1.6679785E2,5.8976173E1,3.661316E0,5.4140285E1,1.2402214E2,1.2964935E1,1.9790497E1,0E0,0E0,0E0,0E0,0E0,3.187871E1,0E0,9.360535E0,0E0,0E0,3.5713654E0,5.7058907E0,1.4380013E1,0E0,0E0,0E0,0E0,0E0,0E0,0E0,0E0],"parents":[2147483647,0,0,1,1,2,2,4,4,7,7,8,8,9,9,10,10,11,11,12,12,13,13,14,14,15,15,21,21,23,23,26,26,27,27,28,28],"right_children":[2,4,6,-1,8,-1,-1,10,12,14,16,18,20,22,24,26,-1,-1,-1,-1,-1,28,-1,30,-1,-1,32,34,36,-1,-1,-1,-1,-1,-1,-1,-1],"split_conditions":[1.4211475E0,-1.2635934E0,2.5917727E-1,1.0934202E-1,3.2410598E-1,-1.8739803E-1,-1.2786928E-1,4.6289563E-2,1.3508385E0,-6.0127836E-1,1.21554025E-1,1.2372661E0,1.2735285E0,-8.1458515E-1,-2.4301256E-1,-4.0366822E-1,1.7702637E-2,1.09655775E-1,8.459005E-2,4.6272915E-2,-9.265888E-2,-1.0459162E0,-1.0052265E-1,-8.777391E-2,1.0885872E-1,-2.8513813E-2,5.7816917E-1,5.6069815E-1,-1.1142707E0,9.877445E-2,4.6977554E-2,-1.1770661E-1,-8.033665E-2,4.281364E-2,8.172592E-2,4.0722866E-2,-1.8400805E-2],"split_indices":[4,0,6,0,1,0,0,0,2,1,1,2,0,0,7,6,0,0,0,0,0,0,0,0,0,0,6,6,2,0,0,0,0,0,0,0,0],"split_type":[0,0,0,0,0,0,0,0,0,0,0,0,0,0,0,0,0,0,0,0,0,0,0,0,0,0,0,0,0,0,0,0,0,0,0,0,0],"sum_hessian":[1.8999211E3,1.7864589E3,1.1346224E2,1.915303E2,1.5949286E3,5.5055233E1,5.8407005E1,1.0717235E3,5.232051E2,7.980056E2,2.7371796E2,4.120739E2,1.1113116E2,4.489662E2,3.490394E2,1.8378955E2,8.992839E1,3.1391E2,9.8163925E1,6.053781E1,5.0593346E1,3.533022E2,9.566402E1,1.4924365E2,1.9979575E2,5.2852448E1,1.3093712E2,1.6145866E2,1.9184352E2,6.131814E1,8.792551E1,7.200478E1,5.893233E1,9.236934E1,6.9089325E1,5.8244087E1,1.3359944E2],"tree_param":{"num_deleted":"0","num_feature":"8","num_nodes":"37","size_leaf_vector":"1"}},{"base_weights":[3.239172E-1,4.2406857E-1,-1.7747003E-1,1.08571246E-1,3.4906423E-1,1.7091973E-1,7.103019E-1,3.2379165E-1,-3.719634E-1,1.0063475E0,-1.9292195E-1,9.749585E-3,6.8157464E-1,-8.636035E-1,1.24830365E-1,1.0821058E-1,5.752173E-2,-6.540527E-2,3.113319E-2,1.426674E-1,-9.5681824E-2,1.0496309E-1,4.1119227E-1,-1.1533841E-1,-5.2959334E-2,-1.3734077E-2,4.4463903E-2,-3.6282863E-2,2.5362822E-1,1.9580531E-1,7.718904E-2,4.8939634E-2,1.3027664E-3,5.4625887E-2,-1.1539786E-2],"categories":[],"categories_nodes":[],"categories_segments":[],"categories_sizes":[],"default_left":[0,0,0,0,0,0,0,0,0,0,0,0,0,0,0,0,0,0,0,0,0,0,0,0,0,0,0,0,0,0,0,0,0,0,0],"id":7,"left_children":[1,3,-1,-1,5,7,9,11,13,15,17,19,21,23,25,-1,-1,-1,-1,27,-1,-1,29,-1,-1,-1,-1,-1,31,33,-1,-1,-1,-1,-1],"loss_changes":[3.8762238E2,8.684552E1,0E0,0E0,1.0156497E2,8.80567E1,1.396586E2,9.2948235E1,5.708432E1,1.2212799E1,3.0336868E1,5.687038E1,3.8051727E1,1.0749687E1,9.862852E0,0E0,0E0,0E0,0E0,2.1915787E1,0E0,0E0,1.7296204E1,0E0,0E0,0E0,0E0,0E0,1.8125357E1,1.5544663E1,0E0,0E0,0E0,0E0,0E0],"parents":[2147483647,0,0,1,1,4,4,5,5,6,6,7,7,8,8,9,9,10,10,11,11,12,12,13,13,14,14,19,19,22,22,28,28,29,29],"right_children":[2,4,-1,-1,6,8,10,12,14,16,18,20,22,24,26,-1,-1,-1,-1,28,-1,-1,30,-1,-1,-1,-1,-1,32,34,-1,-1,-1,-1,-1],"split_conditions":[1.4561822E0,-1.1877651E0,-1.7747003E-1,1.08571246E-1,3.2410598E-1,6.712795E-2,1.3636966E0,-6.619175E-1,1.05271906E-1,1.2841331E0,1.2664539E0,-7.311458E-1,-1.0943262E-1,3.504273E-1,-3.7995648E-1,1.0821058E-1,5.752173E-2,-6.540527E-2,3.113319E-2,-1.2066193E0,-9.5681824E-2,1.0496309E-1,2.6321476E-3,-1.1533841E-1,-5.2959334E-2,-1.3734077E-2,4.4463903E-2,-3.6282863E-2,-1.0005964E0,-6.29635E-2,7.718904E-2,4.8939634E-2,1.3027664E-3,5.4625887E-2,-1.1539786E-2],"split_indices":[3,3,0,0,1,3,2,1,1,2,1,2,3,7,7,0,0,0,0,1,0,0,1,0,0,0,0,0,4,4,0,0,0,0,0],"split_type":[0,0,0,0,0,0,0,0,0,0,0,0,0,0,0,0,0,0,0,0,0,0,0,0,0,0,0,0,0,0,0,0,0,0,0],"sum_hessian":[1.8396648E3,1.7566317E3,8.303298E1,1.774854E2,1.5791464E3,1.0585803E3,5.205661E2,8.26303E2,2.3227731E2,3.9197577E2,1.2859033E2,4.4059784E2,3.857051E2,1.1637311E2,1.15904205E2,3.3210785E2,5.9867928E1,6.7012024E1,6.1578312E1,3.8808292E2,5.2514923E1,1.6212775E2,2.2357736E2,6.0998695E1,5.5374413E1,6.4005035E1,5.1899174E1,6.9445465E1,3.1863745E2,1.4095218E2,8.262518E1,1.6041264E2,1.5822482E2,6.5940094E1,7.501208E1],"tree_param":{"num_deleted":"0","num_feature":"8","num_nodes":"35","size_leaf_vector":"1"}},{"base_weights":[3.0065688E-1,4.264765E-1,-1.1203827E0,2.8182325E-1,8.518081E-1,-4.7100972E-2,-1.6498311E-1,4.7971714E-1,-3.0627024E-1,1.0418402E0,4.1980514E-1,1.0758269E-1,3.4648287E-1,6.6823624E-2,-5.776641E-1,1.0804319E-1,9.3304925E-2,6.469852E-2,2.2102088E-2,-4.8616463E-3,8.815446E-1,-1.6103907E-2,3.4775734E-2,-9.850224E-2,-8.088645E-3,1.8285605E-1,-1.4267652E-1,6.265721E-1,1.07254796E-1,3.7571216E-1,-3.526282E-2,8.480438E-2,3.7462495E-2,2.3009555E-2,7.973383E-2],"categories":[],"categories_nodes":[],"categories_segments":[],"categories_sizes":[],"default_left":[0,0,0,0,0,0,0,0,0,0,0,0,0,0,0,0,0,0,0,0,0,0,0,0,0,0,0,0,0,0,0,0,0,0,0],"id":8,"left_children":[1,3,5,7,9,-1,-1,11,13,15,17,-1,19,21,23,-1,-1,-1,-1,25,27,-1,-1,-1,-1,29,-1,31,-1,33,-1,-1,-1,-1,-1],"loss_changes":[3.150473E2,9.9247314E1,4.8519104E1,1.4074928E2,3.3211243E1,0E0,0E0,7.1451965E1,3.0900272E1,1.842041E-1,5.587446E0,0E0,1.3923291E2,8.329442E0,3.564748E1,0E0,0E0,0E0,0E0,1.1985313E2,1.3624619E1,0E0,0E0,0E0,0E0,4.1098694E1,0E0,6.831974E0,0E0,1.775217E1,0E0,0E0,0E0,0E0,0E0],"parents":[2147483647,0,0,1,1,2,2,3,3,4,4,7,7,8,8,9,9,10,10,12,12,13,13,14,14,19,19,20,20,25,25,27,27,29,29],"right_children":[2,4,6,8,10,-1,-1,12,14,16,18,-1,20,22,24,-1,-1,-1,-1,26,28,-1,-1,-1,-1,30,-1,32,-1,34,-1,-1,-1,-1,-1],"split_conditions":[1.3560688E0,4.117787E-1,1.4561822E0,3.9837174E-2,1.2565522E0,-4.7100972E-2,-1.6498311E-1,-1.1877651E0,-2.4928617E-1,1.1982238E0,3.579264E-1,1.0758269E-1,-3.449581E-1,1.3836496E-1,1.895375E-1,1.0804319E-1,9.3304925E-2,6.469852E-2,2.2102088E-2,-8.5610723E-1,-2.5929886E-1,-1.6103907E-2,3.4775734E-2,-9.850224E-2,-8.088645E-3,-8.5631466E-1,-1.4267652E-1,9.877525E-3,1.07254796E-1,-9.3346584E-1,-3.526282E-2,8.480438E-2,3.7462495E-2,2.3009555E-2,7.973383E-2],"split_indices":[3,4,3,0,4,0,0,3,6,3,7,0,4,0,4,0,0,0,0,5,7,0,0,0,0,0,0,5,0,4,0,0,0,0,0],"split_type":[0,0,0,0,0,0,0,0,0,0,0,0,0,0,0,0,0,0,0,0,0,0,0,0,0,0,0,0,0,0,0,0,0,0,0],"sum_hessian":[1.7583898E3,1.6160076E3,1.4238231E2,1.2071307E3,4.0887683E2,6.479738E1,7.758493E1,9.0334033E2,3.0379037E2,2.829843E2,1.258925E2,1.6372697E2,7.3961334E2,1.2824359E2,1.7554678E2,2.0229301E2,8.06913E1,5.7697906E1,6.819459E1,4.470512E2,2.9256213E2,7.1045784E1,5.71978E1,9.591421E1,7.963258E1,3.9568484E2,5.136636E1,1.2713225E2,1.6542989E2,2.9113144E2,1.0455341E2,6.639893E1,6.073332E1,2.1754414E2,7.358729E1],"tree_param":{"num_deleted":"0","num_feature":"8","num_nodes":"35","size_leaf_vector":"1"}},{"base_weights":[2.7371588E-1,3.6861834E-1,-1.3860525E-1,1.056666E-1,2.9499093E-1,1.2196245E-1,6.865449E-1,3.1641662E-1,-4.1970316E-1,1.0375494E-1,1.559669E-1,-1.0610632E-2,7.7343225E-1,-9.096947E-2,-2.09331E-1,-3.542344E-2,6.881248E-2,2.786648E-1,-5.4399747E-1,9.2480963E-1,2.0678263E-2,-3.5968572E-1,1.7002046E-2,6.418707E-2,6.0231294E-2,-6.6708596E-3,-1.357913E-1,6.387343E-2,1.0357264E0,-7.6263556E-3,-8.2192004E-2,2.7446374E-2,-7.584645E-3,1.0836388E-1,9.1474414E-2],"categories":[],"categories_nodes":[],"categories_segments":[],"categories_sizes":[],"default_left":[0,0,0,0,0,0,0,0,0,0,0,0,0,0,0,0,0,0,0,0,0,0,0,0,0,0,0,0,0,0,0,0,0,0,0],"id":9,"left_children":[1,3,-1,-1,5,7,9,11,13,-1,15,17,19,-1,21,-1,-1,23,25,27,-1,29,-1,31,-1,-1,-1,-1,33,-1,-1,-1,-1,-1,-1],"loss_changes":[2.6935245E2,8.1514755E1,0E0,0E0,9.886412E1,1.0694753E2,8.315637E1,1.11620514E2,2.7467815E1,0E0,4.892589E1,6.7468666E1,2.6528732E1,0E0,1.084233E1,0E0,0E0,1.9642986E1,5.963768E1,7.129608E0,0E0,1.7713501E1,0E0,5.075102E0,0E0,0E0,0E0,0E0,2.507019E-2,0E0,0E0,0E0,0E0,0E0,0E0],"parents":[2147483647,0,0,1,1,4,4,5,5,6,6,7,7,8,8,10,10,11,11,12,12,14,14,17,17,18,18,19,19,21,21,23,23,28,28],"right_children":[2,4,-1,-1,6,8,10,12,14,-1,16,18,20,-1,22,-1,-1,24,26,28,-1,30,-1,32,-1,-1,-1,-1,34,-1,-1,-1,-1,-1,-1],"split_conditions":[1.4305464E0,-1.1801857E0,-1.3860525E-1,1.056666E-1,3.2410598E-1,6.756687E-2,1.2524389E0,-6.0127836E-1,-3.4463856E-2,1.0375494E-1,1.2664539E0,-8.796834E-1,4.985637E-3,-9.096947E-2,2.625445E-1,-3.542344E-2,6.881248E-2,7.4249053E-1,-8.3596134E-1,-6.317982E-1,2.0678263E-2,-4.977501E-1,1.7002046E-2,-6.56022E-1,6.0231294E-2,-6.6708596E-3,-1.357913E-1,6.387343E-2,-3.4810156E-3,-7.6263556E-3,-8.2192004E-2,2.7446374E-2,-7.584645E-3,1.0836388E-1,9.1474414E-2],"split_indices":[3,3,0,0,1,0,4,1,1,0,1,0,0,0,7,0,0,6,4,7,0,6,0,6,0,0,0,0,1,0,0,0,0,0,0],"split_type":[0,0,0,0,0,0,0,0,0,0,0,0,0,0,0,0,0,0,0,0,0,0,0,0,0,0,0,0,0,0,0,0,0,0,0],"sum_hessian":[1.7057562E3,1.6142352E3,9.1521034E1,1.5474963E2,1.4594856E3,1.01310425E3,4.463813E2,7.457876E2,2.673167E2,2.6807825E2,1.7830302E2,4.352861E2,3.1050146E2,7.929689E1,1.880198E2,9.120012E1,8.7102905E1,2.8253467E2,1.5275145E2,2.4454146E2,6.596001E1,1.3468835E2,5.3331448E1,1.7064716E2,1.11887505E2,9.696947E1,5.5781982E1,7.021144E1,1.7433002E2,8.421583E1,5.0472527E1,6.7831E1,1.0281615E2,1.1917593E2,5.5154095E1],"tree_param":{"num_deleted":"0","num_feature":"8","num_nodes":"35","size_leaf_vector":"1"}},{"base_weights":[2.770436E-1,3.903794E-1,-8.9573985E-1,2.5765502E-1,7.9932E-1,-2.7303366E-2,-1.3103303E-1,4.4716027E-1,-2.9435417E-1,1.052738E-1,1.1947787E-2,1.062307E-1,3.2810202E-1,4.524312E-2,-4.7157043E-1,3.267806E-2,7.9233545E-1,-1.0474644E-1,-2.2408377E-1,3.8630348E-1,-2.9070726E-1,1.0413768E-1,5.486655E-1,1.6815912E-2,-7.457401E-2,7.294761E-2,2.0065102E-1,3.7133746E-2,-1.3386966E-1,6.573565E-2,3.603028E-2,-3.3728431E-3,4.4645216E-2,2.0212302E-2,-2.0305762E-2],"categories":[],"categories_nodes":[],"categories_segments":[],"categories_sizes":[],"default_left":[0,0,0,0,0,0,0,0,0,0,0,0,0,0,0,0,0,0,0,0,0,0,0,0,0,0,0,0,0,0,0,0,0,0,0],"id":10,"left_children":[1,3,5,7,9,-1,-1,11,13,-1,-1,-1,15,-1,17,19,21,-1,23,25,27,-1,29,-1,-1,-1,31,33,-1,-1,-1,-1,-1,-1,-1],"loss_changes":[2.1926178E2,8.134587E1,3.7189674E1,1.1895022E2,6.3221344E1,0E0,0E0,6.1607773E1,3.8709656E1,0E0,0E0,0E0,9.737807E1,0E0,3.3342182E1,4.9865307E1,1.618686E1,0E0,3.410106E1,1.31211605E1,7.8322845E1,0E0,2.6641579E0,0E0,0E0,0E0,7.879924E0,6.95658E0,0E0,0E0,0E0,0E0,0E0,0E0,0E0],"parents":[2147483647,0,0,1,1,2,2,3,3,4,4,7,7,8,8,12,12,14,14,15,15,16,16,18,18,19,19,20,20,22,22,26,26,27,27],"right_children":[2,4,6,8,10,-1,-1,12,14,-1,-1,-1,16,-1,18,20,22,-1,24,26,28,-1,30,-1,-1,-1,32,34,-1,-1,-1,-1,-1,-1,-1],"split_conditions":[1.4180833E0,3.2410598E-1,1.3555474E0,4.6289563E-2,1.2916485E0,-2.7303366E-2,-1.3103303E-1,-1.2635934E0,-2.5959656E-2,1.052738E-1,1.1947787E-2,1.062307E-1,-6.619175E-1,4.524312E-2,1.1561848E-1,-1.0057197E0,-6.387883E-2,-1.0474644E-1,2.3858666E-1,-1.06322E0,-7.8925395E-1,1.0413768E-1,5.21489E-2,1.6815912E-2,-7.457401E-2,7.294761E-2,8.166747E-1,-8.2502484E-1,-1.3386966E-1,6.573565E-2,3.603028E-2,-3.3728431E-3,4.4645216E-2,2.0212302E-2,-2.0305762E-2],"split_indices":[2,1,5,0,2,0,0,0,2,0,0,0,1,0,5,2,5,0,2,0,0,0,2,0,0,0,7,2,0,0,0,0,0,0,0],"split_type":[0,0,0,0,0,0,0,0,0,0,0,0,0,0,0,0,0,0,0,0,0,0,0,0,0,0,0,0,0,0,0,0,0,0,0],"sum_hessian":[1.6459668E3,1.5015287E3,1.4443803E2,1.1348392E3,3.666895E2,5.8392403E1,8.604562E1,8.449553E2,2.898839E2,2.6671884E2,9.997066E1,1.3573274E2,7.0922253E2,5.5299603E1,2.345843E2,4.3406638E2,2.7515616E2,6.953833E1,1.6504597E2,2.0724602E2,2.2682037E2,1.3445923E2,1.4069693E2,9.459553E1,7.0450455E1,7.172866E1,1.3551736E2,1.7350699E2,5.3313377E1,8.7637566E1,5.3059376E1,6.981206E1,6.570531E1,1.0294901E2,7.055797E1],"tree_param":{"num_deleted":"0","num_feature":"8","num_nodes":"35","size_leaf_vector":"1"}},{"base_weights":[2.393442E-1,3.302559E-1,-1.1469674E-1,1.045831E-1,2.650966E-1,1.1369072E-1,6.4882E-1,2.7885514E-1,-2.8312403E-1,1.0160326E-1,1.3938606E-1,-1.5441874E-2,7.522971E-1,-4.499752E-1,1.1248949E-2,-1.989189E-2,4.709832E-2,1.2884621E-1,-1.0200781E-1,4.8274013E-1,1.0008987E-1,-1.7910625E-1,-7.421061E-2,4.334744E-1,-2.1410659E-2,7.237705E-2,2.5433635E-2,-2.417367E-3,-3.4580905E-2,3.0525167E-2,6.016919E-2,-4.175672E-2,8.335329E-3],"categories":[],"categories_nodes":[],"categories_segments":[],"categories_sizes":[],"default_left":[0,0,0,0,0,0,0,0,0,0,0,0,0,0,0,0,0,0,0,0,0,0,0,0,0,0,0,0,0,0,0,0,0],"id":11,"left_children":[1,3,-1,-1,5,7,9,11,13,-1,15,17,19,21,-1,-1,-1,23,-1,25,-1,27,-1,29,31,-1,-1,-1,-1,-1,-1,-1,-1],"loss_changes":[2.0161243E2,6.9624954E1,0E0,0E0,7.983526E1,6.4798004E1,7.261743E1,9.723299E1,1.924024E1,0E0,1.8500238E1,6.2647198E1,1.744223E1,1.6062908E1,0E0,0E0,0E0,1.7311163E1,0E0,6.9875565E0,0E0,2.768657E0,0E0,2.5104809E0,1.0580319E1,0E0,0E0,0E0,0E0,0E0,0E0,0E0,0E0],"parents":[2147483647,0,0,1,1,4,4,5,5,6,6,7,7,8,8,10,10,11,11,12,12,13,13,17,17,19,19,21,21,23,23,24,24],"right_children":[2,4,-1,-1,6,8,10,12,14,-1,16,18,20,22,-1,-1,-1,24,-1,26,-1,28,-1,30,32,-1,-1,-1,-1,-1,-1,-1,-1],"split_conditions":[1.4211475E0,-1.2635934E0,-1.1469674E-1,1.045831E-1,3.2410598E-1,5.2851796E-2,1.2524389E0,-6.619175E-1,1.21554025E-1,1.0160326E-1,1.2664539E0,-8.5610723E-1,-1.6473453E-1,1.8214518E-1,1.1248949E-2,-1.989189E-2,4.709832E-2,-1.06322E0,-1.0200781E-1,-3.9134342E-2,1.0008987E-1,-1.6473453E-1,-7.421061E-2,6.200835E-1,-1.2187425E0,7.237705E-2,2.5433635E-2,-2.417367E-3,-3.4580905E-2,3.0525167E-2,6.016919E-2,-4.175672E-2,8.335329E-3],"split_indices":[4,0,0,0,1,0,4,1,1,0,1,5,6,0,0,0,0,0,0,1,0,6,0,7,1,0,0,0,0,0,0,0,0],"split_type":[0,0,0,0,0,0,0,0,0,0,0,0,0,0,0,0,0,0,0,0,0,0,0,0,0,0,0,0,0,0,0,0,0],"sum_hessian":[1.5956876E3,1.4982003E3,9.7487366E1,1.23782135E2,1.3744182E3,9.86479E2,3.8793918E2,6.967649E2,2.8971408E2,2.2486006E2,1.6307912E2,4.302709E2,2.6649402E2,2.036758E2,8.6038284E1,8.092114E1,8.215797E1,3.7699744E2,5.3273464E1,1.2926965E2,1.3722435E2,1.0652086E2,9.715494E1,1.23906555E2,2.5309088E2,6.1841084E1,6.742857E1,5.5802948E1,5.0717907E1,7.190899E1,5.1997566E1,5.2307693E1,2.007832E2],"tree_param":{"num_deleted":"0","num_feature":"8","num_nodes":"33","size_leaf_vector":"1"}},{"base_weights":[2.2393312E-1,2.9599413E-1,-1.383075E-1,1.0462948E-1,2.3274824E-1,9.334737E-2,5.706418E-1,1.9549935E-1,-4.822868E-1,1.007923E0,-8.179229E-2,-2.2627776E-2,4.3423668E-1,-6.269191E-2,-2.6556809E-2,1.04535416E-1,8.826964E-2,-3.7733834E-2,3.429691E-2,2.3920414E-1,-3.601621E-1,1.0434494E-1,2.1439971E-1,1.3642722E-1,5.3877264E-2,-1.4396012E-2,-4.6706727E-1,8.477126E-2,6.378623E-2,2.5317987E-2,-2.6336927E-3,-3.6182504E-3,-8.645598E-2,3.7234925E-2,-1.971809E-2],"categories":[],"categories_nodes":[],"categories_segments":[],"categories_sizes":[],"default_left":[0,0,0,0,0,0,0,0,0,0,0,0,0,0,0,0,0,0,0,0,0,0,0,0,0,0,0,0,0,0,0,0,0,0,0],"id":12,"left_children":[1,3,-1,-1,5,7,9,11,13,15,17,19,21,-1,-1,-1,-1,-1,-1,23,25,-1,27,29,-1,-1,31,33,-1,-1,-1,-1,-1,-1,-1],"loss_changes":[1.796517E2,7.009296E1,0E0,0E0,6.439627E1,5.7123447E1,1.1403871E2,4.2939995E1,4.424179E0,1.986084E-1,2.0366959E1,3.8242188E1,5.2496742E1,0E0,0E0,0E0,0E0,0E0,0E0,7.430829E0,4.3012295E0,0E0,1.5893652E1,3.4807158E0,0E0,0E0,2.155319E1,1.8202623E1,0E0,0E0,0E0,0E0,0E0,0E0,0E0],"parents":[2147483647,0,0,1,1,4,4,5,5,6,6,7,7,8,8,9,9,10,10,11,11,12,12,19,19,20,20,22,22,23,23,26,26,27,27],"right_children":[2,4,-1,-1,6,8,10,12,14,16,18,20,22,-1,-1,-1,-1,-1,-1,24,26,-1,28,30,-1,-1,32,34,-1,-1,-1,-1,-1,-1,-1],"split_conditions":[1.4561822E0,-1.1877651E0,-1.383075E-1,1.0462948E-1,3.2410598E-1,1.7239636E-1,1.3138859E0,-6.0127836E-1,3.4745786E-1,1.2402965E0,1.2811859E0,-9.394302E-1,-1.0943262E-1,-6.269191E-2,-2.6556809E-2,1.04535416E-1,8.826964E-2,-3.7733834E-2,3.429691E-2,-8.962274E-1,-1.0264821E0,1.0434494E-1,1.05271906E-1,6.200835E-1,5.3877264E-2,-1.4396012E-2,-9.880505E-1,-5.7579153E-3,6.378623E-2,2.5317987E-2,-2.6336927E-3,-3.6182504E-3,-8.645598E-2,3.7234925E-2,-1.971809E-2],"split_indices":[3,3,0,0,1,2,2,1,6,3,1,2,3,0,0,0,0,0,0,1,5,0,1,7,0,0,1,3,0,0,0,0,0,0,0],"split_type":[0,0,0,0,0,0,0,0,0,0,0,0,0,0,0,0,0,0,0,0,0,0,0,0,0,0,0,0,0,0,0,0,0,0,0],"sum_hessian":[1.5468259E3,1.4812213E3,6.5604706E1,1.139432E2,1.3672781E3,9.688479E2,3.9843018E2,8.2338965E2,1.4545825E2,2.3822183E2,1.6020836E2,4.3074036E2,3.9264926E2,8.6102776E1,5.935548E1,1.7774481E2,6.0477013E1,9.453984E1,6.5668526E1,2.4273637E2,1.8800398E2,1.0312435E2,2.895249E2,1.8181435E2,6.0922035E1,6.2980545E1,1.25023445E2,2.2258759E2,6.6937325E1,1.05548004E2,7.6266335E1,6.0515366E1,6.450808E1,1.1003571E2,1.1255187E2],"tree_param":{"num_deleted":"0","num_feature":"8","num_nodes":"35","size_leaf_vector":"1"}},{"base_weights":[2.2442137E-1,3.296325E-1,-8.921696E-1,2.2320232E-1,8.29686E-1,-4.552499E-2,-1.3364874E-1,1.0404755E-1,1.3884097E-1,9.940585E-2,6.5698975E-1,2.6126364E-1,-9.501631E-2,8.071441E-2,4.547396E-2,9.220919E-3,7.1371174E-1,-3.6853594E-1,2.570734E-1,2.3359539E-1,-4.0546376E-1,4.586584E-1,9.842091E-2,3.751801E-3,-5.551668E-1,-3.5538094E-3,5.0513506E-2,4.2740333E-1,5.5421486E-2,-3.1787634E-3,-1.0121622E-1,3.955579E-2,5.400608E-2,-6.454632E-2,-4.5204833E-2,2.2670062E-2,6.774598E-2,-1.6225163E-2,1.7155476E-2],"categories":[],"categories_nodes":[],"categories_segments":[],"categories_sizes":[],"default_left":[0,0,0,0,0,0,0,0,0,0,0,0,0,0,0,0,0,0,0,0,0,0,0,0,0,0,0,0,0,0,0,0,0,0,0,0,0,0,0],"id":13,"left_children":[1,3,5,7,9,-1,-1,-1,11,-1,13,15,17,-1,-1,19,21,23,25,27,29,31,-1,-1,33,-1,-1,35,37,-1,-1,-1,-1,-1,-1,-1,-1,-1,-1],"loss_changes":[1.7644278E2,7.278232E1,2.4509636E1,7.7889145E1,6.1662292E0,0E0,0E0,0E0,2.9428976E1,0E0,3.2801971E0,7.690117E1,3.4151997E1,0E0,0E0,4.048962E1,1.6194077E1,1.5134876E1,1.1283586E1,9.726315E0,3.460768E1,4.3384933E-1,0E0,0E0,9.810829E-1,0E0,0E0,6.626335E0,3.7756598E0,0E0,0E0,0E0,0E0,0E0,0E0,0E0,0E0,0E0,0E0],"parents":[2147483647,0,0,1,1,2,2,3,3,4,4,8,8,10,10,11,11,12,12,15,15,16,16,17,17,18,18,19,19,20,20,21,21,24,24,27,27,28,28],"right_children":[2,4,6,8,10,-1,-1,-1,12,-1,14,16,18,-1,-1,20,22,24,26,28,30,32,-1,-1,34,-1,-1,36,38,-1,-1,-1,-1,-1,-1,-1,-1,-1,-1],"split_conditions":[1.3560688E0,1.0525383E0,1.4561822E0,-1.2635934E0,1.2301234E0,-4.552499E-2,-1.3364874E-1,1.0404755E-1,6.0246095E-2,9.940585E-2,1.2613909E0,-6.0127836E-1,1.21554025E-1,8.071441E-2,4.547396E-2,-8.6662114E-1,-1.4509724E-1,-2.0446515E-1,2.5863105E-1,-1.0459162E0,-8.3596134E-1,-7.5053316E-1,9.842091E-2,3.751801E-3,5.700942E-1,-3.5538094E-3,5.0513506E-2,5.6069815E-1,-1.0607846E0,-3.1787634E-3,-1.0121622E-1,3.955579E-2,5.400608E-2,-6.454632E-2,-4.5204833E-2,2.2670062E-2,6.774598E-2,-1.6225163E-2,1.7155476E-2],"split_indices":[3,1,3,0,4,0,0,0,0,0,5,1,1,0,0,0,6,6,0,0,4,6,0,0,6,0,0,6,5,0,0,0,0,0,0,0,0,0,0],"split_type":[0,0,0,0,0,0,0,0,0,0,0,0,0,0,0,0,0,0,0,0,0,0,0,0,0,0,0,0,0,0,0,0,0,0,0,0,0,0,0],"sum_hessian":[1.4984214E3,1.3700343E3,1.2838708E2,1.1308032E3,2.3923103E2,6.575326E1,6.2633835E1,1.0474309E2,1.0260602E3,1.2013259E2,1.1909844E2,6.734149E2,3.5264526E2,6.663588E1,5.2462563E1,4.3314542E2,2.402695E2,1.9844066E2,1.542046E2,2.813509E2,1.5179454E2,1.25052475E2,1.1521702E2,6.273868E1,1.3570198E2,7.114238E1,8.306223E1,1.3409299E2,1.4725789E2,9.458833E1,5.7206203E1,7.374614E1,5.1306335E1,6.954498E1,6.615699E1,7.5445114E1,5.8647873E1,5.1093758E1,9.616413E1],"tree_param":{"num_deleted":"0","num_feature":"8","num_nodes":"39","size_leaf_vector":"1"}},{"base_weights":[1.9821115E-1,2.940454E-1,-7.928199E-1,1.7859368E-1,7.2111136E-1,-3.8401086E-2,-1.2867723E-1,1.0193779E-1,8.6718656E-2,1.0193709E-1,1.647993E-2,1.9236459E-1,-4.74148E-1,-4.8425663E-3,4.1918913E-1,-6.6364706E-2,-2.662504E-2,2.4873166E-1,-2.4994598E-1,1.0384269E-1,2.5015983E-1,1.0223517E-1,5.0653905E-2,2.7094372E-2,-8.983107E-2,1.4344661E-1,7.4411474E-2,2.9265756E-2,-3.913454E-3,-4.3554795E-3,8.498526E-3,3.7362184E-2,-2.447978E-2],"categories":[],"categories_nodes":[],"categories_segments":[],"categories_sizes":[],"default_left":[0,0,0,0,0,0,0,0,0,0,0,0,0,0,0,0,0,0,0,0,0,0,0,0,0,0,0,0,0,0,0,0,0],"id":14,"left_children":[1,3,5,7,9,-1,-1,-1,11,-1,-1,13,15,17,19,-1,-1,21,23,-1,25,27,-1,29,-1,31,-1,-1,-1,-1,-1,-1,-1],"loss_changes":[1.3822348E2,6.5227425E1,2.5430214E1,8.061789E1,4.658223E1,0E0,0E0,0E0,5.5964333E1,0E0,0E0,3.552782E1,5.722992E0,2.6528069E1,3.8402565E1,0E0,0E0,7.8718224E0,3.900768E1,0E0,1.5258013E1,3.6465044E0,0E0,6.295728E-1,0E0,2.1623009E1,0E0,0E0,0E0,0E0,0E0,0E0,0E0],"parents":[2147483647,0,0,1,1,2,2,3,3,4,4,8,8,11,11,12,12,13,13,14,14,17,17,18,18,20,20,21,21,23,23,25,25],"right_children":[2,4,6,8,10,-1,-1,-1,12,-1,-1,14,16,18,20,-1,-1,22,24,-1,26,28,-1,30,-1,32,-1,-1,-1,-1,-1,-1,-1],"split_conditions":[1.3560688E0,4.117787E-1,1.4561822E0,-1.1801857E0,1.2996877E0,-3.8401086E-2,-1.2867723E-1,1.0193779E-1,1.7239636E-1,1.0193709E-1,1.647993E-2,-3.516088E-1,1.895375E-1,-9.702963E-1,-1.1343455E-1,-6.6364706E-2,-2.662504E-2,9.928504E-1,-8.3596134E-1,1.0384269E-1,1.2720576E-1,-4.657168E-1,5.0653905E-2,3.0045733E-1,-8.983107E-2,3.370326E-2,7.4411474E-2,2.9265756E-2,-3.913454E-3,-4.3554795E-3,8.498526E-3,3.7362184E-2,-2.447978E-2],"split_indices":[3,4,3,3,2,0,0,0,2,0,0,3,4,2,3,0,0,7,4,0,3,7,0,7,0,2,0,0,0,0,0,0,0],"split_type":[0,0,0,0,0,0,0,0,0,0,0,0,0,0,0,0,0,0,0,0,0,0,0,0,0,0,0,0,0,0,0,0,0],"sum_hessian":[1.451917E3,1.3245356E3,1.2738136E2,1.0437811E3,2.8075443E2,7.067016E1,5.6711205E1,1.0182703E2,9.4195416E2,1.8222466E2,9.852978E1,7.932021E2,1.4875206E2,4.24826E2,3.683761E2,7.667264E1,7.207942E1,2.0879756E2,2.1602843E2,7.788853E1,2.9048758E2,1.3403185E2,7.476571E1,1.5202692E2,6.400151E1,2.3994144E2,5.054615E1,5.665221E1,7.737964E1,6.8580246E1,8.344667E1,1.506591E2,8.928234E1],"tree_param":{"num_deleted":"0","num_feature":"8","num_nodes":"33","size_leaf_vector":"1"}},{"base_weights":[1.9567645E-1,2.6533815E-1,-9.12384E-2,1.0172286E-1,2.1057862E-1,7.9877436E-2,5.9873086E-1,2.0467521E-1,-2.187749E-1,1.0294565E-1,5.7417154E-2,-2.3169598E-2,6.1487293E-1,-3.4138012E-1,2.6847357E-2,4.3412864E-2,-3.2626186E-2,2.1911739E-1,-4.5306733E-1,8.2008976E-1,9.808375E-3,-9.884008E-2,-7.614385E-2,4.1932285E-1,-1.7440682E-2,-1.08526405E-2,-9.431902E-2,5.0044E-2,9.6247923E-1,-2.3873148E-2,7.526621E-4,1.6525866E-2,7.1951725E-2,-1.8919704E-2,2.0406594E-2,8.546441E-2,1.0498233E-1],"categories":[],"categories_nodes":[],"categories_segments":[],"categories_sizes":[],"default_left":[0,0,0,0,0,0,0,0,0,0,0,0,0,0,0,0,0,0,0,0,0,0,0,0,0,0,0,0,0,0,0,0,0,0,0,0,0],"id":15,"left_children":[1,3,-1,-1,5,7,9,11,13,-1,15,17,19,21,-1,-1,-1,23,25,27,-1,29,-1,31,33,-1,-1,-1,35,-1,-1,-1,-1,-1,-1,-1,-1],"loss_changes":[1.09314644E2,5.4556168E1,0E0,0E0,6.2920784E1,3.4695477E1,7.280492E1,6.1344864E1,1.6488813E1,0E0,2.0309788E1,4.4142048E1,2.4775383E1,2.231186E1,0E0,0E0,0E0,1.2846889E1,2.5690207E1,7.147461E0,0E0,2.0917134E0,0E0,1.1083021E1,4.8030114E0,0E0,0E0,0E0,1.8479156E-1,0E0,0E0,0E0,0E0,0E0,0E0,0E0,0E0],"parents":[2147483647,0,0,1,1,4,4,5,5,6,6,7,7,8,8,10,10,11,11,12,12,13,13,17,17,18,18,19,19,21,21,23,23,24,24,28,28],"right_children":[2,4,-1,-1,6,8,10,12,14,-1,16,18,20,22,-1,-1,-1,24,26,28,-1,30,-1,32,34,-1,-1,-1,36,-1,-1,-1,-1,-1,-1,-1,-1],"split_conditions":[1.4747838E0,-1.2635934E0,-9.12384E-2,1.0172286E-1,3.2410598E-1,7.44474E-2,1.2841331E0,-6.0127836E-1,3.0420598E-1,1.0294565E-1,1.2735285E0,-8.6662114E-1,4.985637E-3,1.9360553E-1,2.6847357E-2,4.3412864E-2,-3.2626186E-2,-9.702963E-1,-8.3596134E-1,-6.092896E-1,9.808375E-3,-5.8593005E-1,-7.614385E-2,4.9867187E-2,7.4249053E-1,-1.08526405E-2,-9.431902E-2,5.0044E-2,2.3122366E-1,-2.3873148E-2,7.526621E-4,1.6525866E-2,7.1951725E-2,-1.8919704E-2,2.0406594E-2,8.546441E-2,1.0498233E-1],"split_indices":[2,0,0,0,1,0,2,1,0,0,0,0,0,0,0,0,0,2,4,6,0,6,0,6,6,0,0,0,6,0,0,0,0,0,0,0,0],"split_type":[0,0,0,0,0,0,0,0,0,0,0,0,0,0,0,0,0,0,0,0,0,0,0,0,0,0,0,0,0,0,0,0,0,0,0,0,0],"sum_hessian":[1.4120511E3,1.3292446E3,8.28066E1,8.904275E1,1.2402018E3,9.286922E2,3.115096E2,6.5521313E2,2.734791E2,1.729727E2,1.3853693E2,4.218433E2,2.3336984E2,2.1873793E2,5.474116E1,6.983683E1,6.8700096E1,2.701047E2,1.5173859E2,1.6661871E2,6.675113E1,1.394534E2,7.928453E1,1.4587454E2,1.2423016E2,8.981964E1,6.191894E1,5.273919E1,1.1387952E2,5.969685E1,7.9756546E1,7.984751E1,6.602702E1,7.005519E1,5.417497E1,5.5788155E1,5.8091362E1],"tree_param":{"num_deleted":"0","num_feature":"8","num_nodes":"37","size_leaf_vector":"1"}},{"base_weights":[1.7258666E-1,2.3394759E-1,-9.59617E-2,1.02101944E-1,1.8145421E-1,6.0977392E-2,4.8558024E-1,1.8975402E-1,-2.1981242E-1,8.455264E-1,6.83524E-2,-1.6460761E-2,6.6786945E-1,8.753088E-3,-3.6633945E-1,7.259422E-2,9.638562E-2,-3.46328E-2,9.036349E-2,2.7543816E-1,-2.8848654E-1,1.03435695E-1,3.7468877E-2,3.1964894E-2,-3.2863956E-2,-5.9432477E-2,-4.104688E-3,8.244354E-2,4.861628E-2,1.06108524E-1,-7.976175E-2,3.2095414E-2,-1.35927275E-2,3.7421476E-2,-1.5911935E-2],"categories":[],"categories_nodes":[],"categories_segments":[],"categories_sizes":[],"default_left":[0,0,0,0,0,0,0,0,0,0,0,0,0,0,0,0,0,0,0,0,0,0,0,0,0,0,0,0,0,0,0,0,0,0,0],"id":16,"left_children":[1,3,-1,-1,5,7,9,11,13,15,17,19,21,23,25,-1,-1,-1,-1,27,29,-1,-1,-1,-1,-1,-1,31,-1,33,-1,-1,-1,-1,-1],"loss_changes":[9.570485E1,5.371151E1,0E0,0E0,4.482349E1,3.1787827E1,5.2084152E1,5.9408577E1,9.263861E0,1.9365997E0,5.6388176E1,3.3578445E1,1.912088E1,1.1537838E1,1.2473202E1,0E0,0E0,0E0,0E0,8.257069E0,4.405417E1,0E0,0E0,0E0,0E0,0E0,0E0,5.6526866E0,0E0,8.890081E0,0E0,0E0,0E0,0E0,0E0],"parents":[2147483647,0,0,1,1,4,4,5,5,6,6,7,7,8,8,9,9,10,10,11,11,12,12,13,13,14,14,19,19,20,20,27,27,29,29],"right_children":[2,4,-1,-1,6,8,10,12,14,16,18,20,22,24,26,-1,-1,-1,-1,28,30,-1,-1,-1,-1,-1,-1,32,-1,34,-1,-1,-1,-1,-1],"split_conditions":[1.4090246E0,-1.2635934E0,-9.59617E-2,1.02101944E-1,2.1033578E-1,3.9837174E-2,1.2524389E0,-6.0127836E-1,-2.0446515E-1,1.0871763E0,1.2920467E0,-9.576655E-1,-5.7387233E-2,1.8289696E-1,1.895375E-1,7.259422E-2,9.638562E-2,-3.46328E-2,9.036349E-2,3.0045733E-1,-8.8160807E-1,1.03435695E-1,3.7468877E-2,3.1964894E-2,-3.2863956E-2,-5.9432477E-2,-4.104688E-3,-1.0718918E0,4.861628E-2,4.6163237E-1,-7.976175E-2,3.2095414E-2,-1.35927275E-2,3.7421476E-2,-1.5911935E-2],"split_indices":[5,0,0,0,1,0,4,1,6,1,1,0,5,5,4,0,0,0,0,7,4,0,0,0,0,0,0,0,0,7,0,0,0,0,0],"split_type":[0,0,0,0,0,0,0,0,0,0,0,0,0,0,0,0,0,0,0,0,0,0,0,0,0,0,0,0,0,0,0,0,0,0,0],"sum_hessian":[1.3733505E3,1.3034994E3,6.985111E1,8.034702E1,1.2231523E3,8.769549E2,3.461974E2,6.014434E2,2.755115E2,1.8530585E2,1.6089154E2,4.208802E2,1.8056323E2,1.0799377E2,1.6751773E2,9.5713066E1,8.959279E1,1.0790628E2,5.2985264E1,2.0301797E2,2.1786221E2,7.9125336E1,1.014379E2,5.623121E1,5.1762554E1,9.800363E1,6.951411E1,1.0669309E2,9.6324875E1,1.2318271E2,9.4679504E1,5.077045E1,5.592264E1,6.10546E1,6.2128105E1],"tree_param":{"num_deleted":"0","num_feature":"8","num_nodes":"35","size_leaf_vector":"1"}},{"base_weights":[1.6286175E-1,2.2580443E-1,-8.249032E-2,1.0010421E-1,1.7676443E-1,5.350965E-2,5.094728E-1,1.1179273E-1,-4.255743E-2,8.57138E-1,-5.0143197E-2,-2.3866072E-2,2.6768363E-1,7.0906185E-2,9.759636E-2,3.4013335E-2,-3.946159E-2,4.1243512E-2,-1.6865396E-1,7.383391E-1,-1.9351399E-5,1.5982507E-2,-6.778964E-2,4.7146447E-2,9.888506E-2,-4.0939804E-2,1.4836581E-1,-4.137578E-2,1.4063875E-2,-1.18624745E-2,3.209782E-2],"categories":[],"categories_nodes":[],"categories_segments":[],"categories_sizes":[],"default_left":[0,0,0,0,0,0,0,0,0,0,0,0,0,0,0,0,0,0,0,0,0,0,0,0,0,0,0,0,0,0,0],"id":17,"left_children":[1,3,-1,-1,5,7,9,11,-1,13,15,17,19,-1,-1,-1,-1,-1,21,23,25,27,-1,-1,-1,-1,29,-1,-1,-1,-1],"loss_changes":[8.376885E1,4.7900764E1,0E0,0E0,4.879642E1,2.4336555E1,6.263658E1,1.642392E1,0E0,2.8005219E0,1.6835148E1,2.6349566E1,4.5522842E1,0E0,0E0,0E0,0E0,0E0,2.94468E1,8.291565E0,1.4111703E1,1.2418802E1,0E0,0E0,0E0,0E0,7.89598E0,0E0,0E0,0E0,0E0],"parents":[2147483647,0,0,1,1,4,4,5,5,6,6,7,7,9,9,10,10,11,11,12,12,18,18,19,19,20,20,21,21,26,26],"right_children":[2,4,-1,-1,6,8,10,12,-1,14,16,18,20,-1,-1,-1,-1,-1,22,24,26,28,-1,-1,-1,-1,30,-1,-1,-1,-1],"split_conditions":[1.4747838E0,-1.2635934E0,-8.249032E-2,1.0010421E-1,2.1033578E-1,2.2177719E-1,1.3138859E0,-6.619175E-1,-4.255743E-2,1.0871763E0,1.2735285E0,-1.1142707E0,-5.102056E-3,7.0906185E-2,9.759636E-2,3.4013335E-2,-3.946159E-2,4.1243512E-2,-7.8925395E-1,-2.15234E-1,-1.1821972E-3,-1.1861305E0,-6.778964E-2,4.7146447E-2,9.888506E-2,-4.0939804E-2,-8.5511106E-1,-4.137578E-2,1.4063875E-2,-1.18624745E-2,3.209782E-2],"split_indices":[2,0,0,0,1,2,2,1,0,1,0,2,0,0,0,0,0,0,0,7,5,1,0,0,0,0,6,0,0,0,0],"split_type":[0,0,0,0,0,0,0,0,0,0,0,0,0,0,0,0,0,0,0,0,0,0,0,0,0,0,0,0,0,0,0],"sum_hessian":[1.3433646E3,1.2636155E3,7.9749115E1,7.402324E1,1.1895922E3,8.6887177E2,3.2072043E2,7.753171E2,9.355474E1,1.974942E2,1.2322623E2,4.1501294E2,3.603041E2,9.102696E1,1.0646724E2,5.777809E1,6.5448135E1,1.0294671E2,3.1206625E2,1.2999626E2,2.3030783E2,2.2973839E2,8.232785E1,6.433789E1,6.565837E1,6.080217E1,1.6950566E2,5.113528E1,1.786031E2,6.668009E1,1.0282557E2],"tree_param":{"num_deleted":"0","num_feature":"8","num_nodes":"31","size_leaf_vector":"1"}},{"base_weights":[1.5615414E-1,2.079231E-1,-1.0619482E-1,1.017878E-1,1.6068578E-1,6.643737E-2,4.3732822E-1,1.364058E-1,-2.9424018E-1,8.8359565E-1,-2.3912029E-1,-2.6918817E-2,3.4107843E-1,-1.1220545E-2,-5.946803E-2,1.0234777E-1,6.0968954E-2,3.4699343E-2,-7.351064E-2,1.0719646E-1,-8.3841875E-2,1.02314904E-1,1.871288E-1,-3.2840796E-2,2.2709014E-1,-1.4932314E-2,4.0224603E-1,6.481462E-3,4.856959E-2,-2.8323388E-2,2.1416452E-2,7.761924E-2,4.782386E-3],"categories":[],"categories_nodes":[],"categories_segments":[],"categories_sizes":[],"default_left":[0,0,0,0,0,0,0,0,0,0,0,0,0,0,0,0,0,0,0,0,0,0,0,0,0,0,0,0,0,0,0,0,0],"id":18,"left_children":[1,3,-1,-1,5,7,9,11,13,15,17,19,21,-1,-1,-1,-1,-1,-1,23,-1,-1,25,-1,27,29,31,-1,-1,-1,-1,-1,-1],"loss_changes":[8.2760574E1,4.79059E1,0E0,0E0,3.0954615E1,2.2438246E1,9.1315865E1,2.4880524E1,7.8370924E0,6.3510437E0,3.5356674E1,4.5227776E1,3.449013E1,0E0,0E0,0E0,0E0,0E0,0E0,1.8709076E1,0E0,0E0,1.1772025E1,0E0,1.1735006E1,8.699532E0,1.7344141E1,0E0,0E0,0E0,0E0,0E0,0E0],"parents":[2147483647,0,0,1,1,4,4,5,5,6,6,7,7,8,8,9,9,10,10,11,11,12,12,19,19,22,22,24,24,25,25,26,26],"right_children":[2,4,-1,-1,6,8,10,12,14,16,18,20,22,-1,-1,-1,-1,-1,-1,24,-1,-1,26,-1,28,30,32,-1,-1,-1,-1,-1,-1],"split_conditions":[1.4994813E0,-1.1877651E0,-1.0619482E-1,1.017878E-1,3.2410598E-1,1.7239636E-1,1.3747811E0,-6.0127836E-1,2.162944E-1,1.2372661E0,1.2674894E0,-8.5610723E-1,-1.1343455E-1,-1.1220545E-2,-5.946803E-2,1.0234777E-1,6.0968954E-2,3.4699343E-2,-7.351064E-2,-1.1965284E0,-8.3841875E-2,1.02314904E-1,-3.4810156E-3,-3.2840796E-2,9.8170567E-1,-5.1234616E-3,4.0204752E-2,6.481462E-3,4.856959E-2,-2.8323388E-2,2.1416452E-2,7.761924E-2,4.782386E-3],"split_indices":[0,3,0,0,1,2,2,1,0,2,0,5,3,0,0,0,0,0,0,1,0,0,1,0,7,5,2,0,0,0,0,0,0],"split_type":[0,0,0,0,0,0,0,0,0,0,0,0,0,0,0,0,0,0,0,0,0,0,0,0,0,0,0,0,0,0,0,0,0],"sum_hessian":[1.3079106E3,1.2553864E3,5.2524216E1,6.804828E1,1.1873381E3,8.865444E2,3.0079376E2,7.4302545E2,1.4351892E2,1.8104698E2,1.19746765E2,4.1373877E2,3.292867E2,9.022541E1,5.329352E1,1.18032166E2,6.3014816E1,5.5024246E1,6.472252E1,3.558036E2,5.793518E1,5.959708E1,2.696896E2,7.641806E1,2.7938553E2,1.395448E2,1.3014482E2,1.7243372E2,1.069518E2,6.416412E1,7.538068E1,6.2749058E1,6.739576E1],"tree_param":{"num_deleted":"0","num_feature":"8","num_nodes":"33","size_leaf_vector":"1"}},{"base_weights":[1.417925E-1,2.0286377E-1,-7.211636E-2,1.0133628E-1,1.5728197E-1,6.413101E-2,5.630693E-1,1.8577035E-1,-1.21371545E-1,7.9428375E-1,-1.5610459E-2,4.5685167E-3,6.7652494E-1,-1.2967947E-2,-6.1827987E-2,9.928903E-2,5.6958754E-2,3.8394648E-1,-1.5415914E-1,3.0303512E-2,9.0631925E-2,-1.7724021E-1,7.2936825E-2,5.743369E-3,6.6960104E-2,1.3909099E-2,-9.263148E-2,3.8599014E-2,-3.243489E-1,2.0849526E-2,-4.486137E-3,-1.4235812E-2,-6.6063784E-2],"categories":[],"categories_nodes":[],"categories_segments":[],"categories_sizes":[],"default_left":[0,0,0,0,0,0,0,0,0,0,0,0,0,0,0,0,0,0,0,0,0,0,0,0,0,0,0,0,0,0,0,0,0],"id":19,"left_children":[1,3,-1,-1,5,7,9,11,13,15,-1,17,19,21,-1,-1,-1,23,25,-1,-1,27,-1,-1,-1,29,-1,-1,31,-1,-1,-1,-1],"loss_changes":[6.707506E1,4.3685677E1,0E0,0E0,4.2480392E1,2.0689798E1,3.502157E1,4.922429E1,1.9564075E1,6.528885E0,0E0,2.4465822E1,1.2536835E1,3.6626846E1,0E0,0E0,0E0,1.1139154E1,3.7188766E1,0E0,0E0,2.0496914E1,0E0,0E0,0E0,2.7110112E0,0E0,0E0,1.1870447E1,0E0,0E0,0E0,0E0],"parents":[2147483647,0,0,1,1,4,4,5,5,6,6,7,7,8,8,9,9,11,11,12,12,13,13,17,17,18,18,21,21,25,25,28,28],"right_children":[2,4,-1,-1,6,8,10,12,14,16,-1,18,20,22,-1,-1,-1,24,26,-1,-1,28,-1,-1,-1,30,-1,-1,32,-1,-1,-1,-1],"split_conditions":[1.4052775E0,-1.1877651E0,-7.211636E-2,1.0133628E-1,1.0365977E0,2.2725377E-2,1.3411901E0,-6.0127836E-1,1.0332001E0,1.2777274E0,-1.5610459E-2,-1.0459162E0,-5.4328877E-1,3.0420598E-1,-6.1827987E-2,9.928903E-2,5.6958754E-2,-1.0279573E0,-7.568843E-1,3.0303512E-2,9.0631925E-2,-2.5959656E-2,7.2936825E-2,5.743369E-3,6.6960104E-2,-6.56022E-1,-9.263148E-2,3.8599014E-2,1.9360553E-1,2.0849526E-2,-4.486137E-3,-1.4235812E-2,-6.6063784E-2],"split_indices":[4,3,0,0,1,0,3,1,6,2,0,0,6,0,0,0,0,1,2,0,0,2,0,0,0,6,0,0,0,0,0,0,0],"split_type":[0,0,0,0,0,0,0,0,0,0,0,0,0,0,0,0,0,0,0,0,0,0,0,0,0,0,0,0,0,0,0,0,0],"sum_hessian":[1.2689514E3,1.1857976E3,8.315379E1,6.2007023E1,1.1237906E3,9.149226E2,2.0886801E2,5.5257916E2,3.6234344E2,1.579747E2,5.089331E1,4.043061E2,1.4827306E2,2.9829474E2,6.404873E1,8.2040855E1,7.593385E1,1.1884162E2,2.8546448E2,5.7361244E1,9.0911804E1,2.4486874E2,5.3425987E1,5.60153E1,6.2826317E1,2.3524318E2,5.0221302E1,5.0375156E1,1.9449359E2,5.397777E1,1.8126541E2,1.2712187E2,6.737172E1],"tree_param":{"num_deleted":"0","num_feature":"8","num_nodes":"33","size_leaf_vector":"1"}},{"base_weights":[1.2855524E-1,1.9394457E-1,-5.9243243E-2,1.0090134E-1,1.4990693E-1,5.576488E-2,5.390613E-1,1.5957083E-1,-1.70367E-1,9.994772E-2,-3.1976819E-3,2.3672914E-3,4.9632844E-1,-5.6166705E-2,-3.203947E-1,2.1650946E-1,-2.5518858E-1,9.3246154E-2,3.0567425E-1,-2.7829874E-2,3.4866743E-2,-5.076753E-2,-1.6645243E-2,1.1849748E-1,4.0424477E-2,-2.9168094E-2,-7.4561745E-2,6.1645415E-3,5.1296342E-2,3.120111E-2,-8.244314E-3,2.1353265E-2,-1.925536E-2],"categories":[],"categories_nodes":[],"categories_segments":[],"categories_sizes":[],"default_left":[0,0,0,0,0,0,0,0,0,0,0,0,0,0,0,0,0,0,0,0,0,0,0,0,0,0,0,0,0,0,0,0,0],"id":20,"left_children":[1,3,-1,-1,5,7,9,11,13,-1,-1,15,17,19,21,23,25,-1,27,-1,-1,-1,-1,29,-1,31,-1,-1,-1,-1,-1,-1,-1],"loss_changes":[5.8399498E1,4.056079E1,0E0,0E0,3.943668E1,2.0415255E1,5.517265E1,3.1540012E1,4.672177E0,0E0,0E0,2.2513172E1,1.5480999E1,1.4183624E1,3.3204288E0,4.0530415E0,2.051988E1,0E0,6.717437E0,0E0,0E0,0E0,0E0,5.7745285E0,0E0,5.1125965E0,0E0,0E0,0E0,0E0,0E0,0E0,0E0],"parents":[2147483647,0,0,1,1,4,4,5,5,6,6,7,7,8,8,11,11,12,12,13,13,14,14,15,15,16,16,18,18,23,23,25,25],"right_children":[2,4,-1,-1,6,8,10,12,14,-1,-1,16,18,20,22,24,26,-1,28,-1,-1,-1,-1,30,-1,32,-1,-1,-1,-1,-1,-1,-1],"split_conditions":[1.4330469E0,-1.1877651E0,-5.9243243E-2,1.0090134E-1,4.117787E-1,3.370326E-2,1.2916485E0,-4.322224E-1,2.0812957E-1,9.994772E-2,-3.1976819E-3,-9.394302E-1,-8.276337E-2,1.2720576E-1,1.895375E-1,1.0109819E0,-8.3596134E-1,9.3246154E-2,-1.1821972E-3,-2.7829874E-2,3.4866743E-2,-5.076753E-2,-1.6645243E-2,-1.0409342E0,4.0424477E-2,2.1849996E-1,-7.4561745E-2,6.1645415E-3,5.1296342E-2,3.120111E-2,-8.244314E-3,2.1353265E-2,-1.925536E-2],"split_indices":[2,3,0,0,4,2,2,5,2,0,0,2,0,3,4,7,4,0,5,0,0,0,0,3,0,7,0,0,0,0,0,0,0],"split_type":[0,0,0,0,0,0,0,0,0,0,0,0,0,0,0,0,0,0,0,0,0,0,0,0,0,0,0,0,0,0,0,0,0],"sum_hessian":[1.2352861E3,1.133239E3,1.0204711E2,5.6966396E1,1.0762726E3,8.6754443E2,2.087282E2,5.9479694E2,2.7274747E2,1.15141655E2,9.358654E1,4.0618887E2,1.8860806E2,1.5564539E2,1.1710209E2,2.2187366E2,1.843152E2,5.6186703E1,1.3242137E2,1.0070256E2,5.4942825E1,5.1793793E1,6.53083E1,1.4684216E2,7.5031494E1,1.2689396E2,5.7421246E1,6.1416668E1,7.100469E1,7.452192E1,7.232025E1,5.0931267E1,7.596269E1],"tree_param":{"num_deleted":"0","num_feature":"8","num_nodes":"33","size_leaf_vector":"1"}},{"base_weights":[1.1939192E-1,1.6926746E-1,-7.984718E-2,9.9108815E-2,1.2841876E-1,3.0890258E-2,3.6376646E-1,1.6038738E-1,-2.81943E-1,6.5418553E-1,-3.3370957E-2,2.2411428E-2,5.4690653E-1,-9.212242E-2,-4.5745198E-2,2.1773007E-2,9.758091E-2,3.6268808E-2,-4.5311578E-2,1.9658582E-1,-2.7289167E-1,1.0141736E-1,2.7950302E-2,-2.4307895E-2,8.051365E-3,3.2524103E-1,5.1420756E-2,6.6390815E-3,-5.2541602E-2,1.4231077E-2,5.9334833E-2,-1.9102754E-2,3.1900432E-2],"categories":[],"categories_nodes":[],"categories_segments":[],"categories_sizes":[],"default_left":[0,0,0,0,0,0,0,0,0,0,0,0,0,0,0,0,0,0,0,0,0,0,0,0,0,0,0,0,0,0,0,0,0],"id":21,"left_children":[1,3,-1,-1,5,7,9,11,13,15,17,19,21,23,-1,-1,-1,-1,-1,25,27,-1,-1,-1,-1,29,31,-1,-1,-1,-1,-1,-1],"loss_changes":[5.6663647E1,3.9217094E1,0E0,0E0,2.5642344E1,3.210105E1,3.7778893E1,2.9866934E1,7.6876755E0,2.6337494E1,2.3310144E1,2.1343452E1,1.8126919E1,2.9570584E0,0E0,0E0,0E0,0E0,0E0,4.856662E0,1.3227663E1,0E0,0E0,0E0,0E0,6.6910677E0,8.091921E0,0E0,0E0,0E0,0E0,0E0,0E0],"parents":[2147483647,0,0,1,1,4,4,5,5,6,6,7,7,8,8,9,9,10,10,11,11,12,12,13,13,19,19,20,20,25,25,26,26],"right_children":[2,4,-1,-1,6,8,10,12,14,16,18,20,22,24,-1,-1,-1,-1,-1,26,28,-1,-1,-1,-1,30,32,-1,-1,-1,-1,-1,-1],"split_conditions":[1.4090246E0,-1.2975224E0,-7.984718E-2,9.9108815E-2,2.084732E-1,4.6289563E-2,1.3060116E0,-3.516088E-1,-2.5929886E-1,4.117787E-1,1.2735285E0,-8.6662114E-1,-6.387883E-2,7.270796E-2,-4.5745198E-2,2.1773007E-2,9.758091E-2,3.6268808E-2,-4.5311578E-2,-9.394302E-1,-9.8788506E-1,1.0141736E-1,2.7950302E-2,-2.4307895E-2,8.051365E-3,6.933207E-2,8.529944E-1,6.6390815E-3,-5.2541602E-2,1.4231077E-2,5.9334833E-2,-1.9102754E-2,3.1900432E-2],"split_indices":[5,2,0,0,4,0,2,3,7,4,0,0,5,4,0,0,0,0,0,2,2,0,0,0,0,7,7,0,0,0,0,0,0],"split_type":[0,0,0,0,0,0,0,0,0,0,0,0,0,0,0,0,0,0,0,0,0,0,0,0,0,0,0,0,0,0,0,0,0],"sum_hessian":[1.2338138E3,1.1709988E3,6.281499E1,5.4347057E1,1.1166517E3,7.902868E2,3.2636496E2,5.5926624E2,2.3102058E2,1.8813681E2,1.3822815E2,4.1292288E2,1.4634334E2,1.11717804E2,1.1930278E2,8.0530624E1,1.07606186E2,7.119064E1,6.70375E1,2.599403E2,1.5298257E2,5.22492E1,9.409414E1,5.9383556E1,5.2334248E1,1.3714899E2,1.2279131E2,6.559228E1,8.739029E1,8.2434525E1,5.471447E1,6.457144E1,5.821987E1],"tree_param":{"num_deleted":"0","num_feature":"8","num_nodes":"33","size_leaf_vector":"1"}},{"base_weights":[1.2592074E-1,1.781231E-1,-5.0550617E-2,9.7265676E-2,1.393444E-1,4.4919427E-2,5.068963E-1,1.07922345E-1,-3.455058E-1,9.098595E-2,1.2610833E-1,-3.8278862E-3,2.5169295E-1,-2.3299186E-2,-4.553413E-2,4.0935434E-2,-1.3950171E-2,2.3358005E-1,-1.9202518E-1,6.7359954E-1,1.827188E-2,6.9978885E-2,5.3934664E-2,1.4888597E-2,-7.344367E-2,3.7680235E-2,9.754852E-2,-3.2071397E-2,1.6303979E-1,-4.5523155E-3,1.5839009E-2,-1.7992673E-2,1.7660711E-2,-2.0931771E-2,4.2755388E-2],"categories":[],"categories_nodes":[],"categories_segments":[],"categories_sizes":[],"default_left":[0,0,0,0,0,0,0,0,0,0,0,0,0,0,0,0,0,0,0,0,0,0,0,0,0,0,0,0,0,0,0,0,0,0,0],"id":22,"left_children":[1,3,-1,-1,5,7,9,11,13,-1,15,17,19,-1,-1,-1,-1,21,23,25,27,29,-1,31,-1,-1,-1,-1,33,-1,-1,-1,-1,-1,-1],"loss_changes":[3.9592865E1,3.3992638E1,0E0,0E0,3.6671394E1,2.0755611E1,3.3029743E1,1.1665301E1,1.3431463E0,0E0,8.499667E0,1.8340168E1,3.1258598E1,0E0,0E0,0E0,0E0,9.042447E0,2.5707802E1,9.76363E0,1.0134923E1,1.2264585E0,0E0,5.2842507E0,0E0,0E0,0E0,0E0,1.4335117E1,0E0,0E0,0E0,0E0,0E0,0E0],"parents":[2147483647,0,0,1,1,4,4,5,5,6,6,7,7,8,8,10,10,11,11,12,12,17,17,18,18,19,19,20,20,21,21,23,23,28,28],"right_children":[2,4,-1,-1,6,8,10,12,14,-1,16,18,20,-1,-1,-1,-1,22,24,26,28,30,-1,32,-1,-1,-1,-1,34,-1,-1,-1,-1,-1,-1],"split_conditions":[1.4477587E0,-1.2635934E0,-5.0550617E-2,9.7265676E-2,4.021162E-1,1.9360553E-1,1.2777274E0,-4.322224E-1,3.7649128E-1,9.098595E-2,3.8921814E-2,-9.974509E-1,4.985637E-3,-2.3299186E-2,-4.553413E-2,4.0935434E-2,-1.3950171E-2,1.0109819E0,-7.8925395E-1,-2.15234E-1,-9.8689145E-1,-3.4134287E-1,5.3934664E-2,-1.0144309E0,-7.344367E-2,3.7680235E-2,9.754852E-2,-3.2071397E-2,3.147215E-2,-4.5523155E-3,1.5839009E-2,-1.7992673E-2,1.7660711E-2,-2.0931771E-2,4.2755388E-2],"split_indices":[2,0,0,0,0,0,2,5,6,0,6,2,0,0,0,0,0,7,0,7,6,7,0,0,0,0,0,0,3,0,0,0,0,0,0],"split_type":[0,0,0,0,0,0,0,0,0,0,0,0,0,0,0,0,0,0,0,0,0,0,0,0,0,0,0,0,0,0,0,0,0,0,0],"sum_hessian":[1.197436E3,1.1066621E3,9.077389E1,5.0378532E1,1.0562836E3,8.412792E2,2.1500443E2,7.2500824E2,1.16270996E2,1.0378553E2,1.1121889E2,4.0847867E2,3.1652954E2,5.897703E1,5.729396E1,5.356069E1,5.7658195E1,1.8051752E2,2.2796115E2,1.1207292E2,2.0445662E2,1.183975E2,6.2120014E1,1.6571745E2,6.22437E1,5.764637E1,5.442655E1,6.0821877E1,1.4363474E2,5.154424E1,6.6853264E1,7.511593E1,9.0601524E1,5.974298E1,8.389176E1],"tree_param":{"num_deleted":"0","num_feature":"8","num_nodes":"35","size_leaf_vector":"1"}},{"base_weights":[9.995531E-2,1.433071E-1,-7.1567565E-2,9.1871455E-2,6.135256E-1,1.30517E-1,-5.3792346E-2,9.775921E-2,2.7225584E-2,7.758352E-2,8.61269E-2,3.677605E-1,-2.1304041E-2,8.2095765E-2,1.9369613E-1,2.6083486E-2,-5.1989682E-2,-2.9062296E-3,6.342152E-2,1.9277112E-1,-1.333216E-1,-9.705994E-3,6.1182685E-2,-5.001797E-2,-5.9601157E-3],"categories":[],"categories_nodes":[],"categories_segments":[],"categories_sizes":[],"default_left":[0,0,0,0,0,0,0,0,0,0,0,0,0,0,0,0,0,0,0,0,0,0,0,0,0],"id":23,"left_children":[1,3,-1,5,7,9,-1,-1,-1,11,-1,13,15,-1,17,19,-1,-1,-1,21,23,-1,-1,-1,-1],"loss_changes":[4.1560062E1,2.6890013E1,0E0,2.4541702E1,1.3360832E1,3.6607952E1,0E0,0E0,0E0,2.5408165E1,0E0,1.7593401E1,1.5634509E1,0E0,1.6101896E1,1.6093496E1,0E0,0E0,0E0,3.6011856E1,8.346039E0,0E0,0E0,0E0,0E0],"parents":[2147483647,0,0,1,1,3,3,4,4,5,5,9,9,11,11,12,12,14,14,15,15,19,19,20,20],"right_children":[2,4,-1,6,8,10,-1,-1,-1,12,-1,14,16,-1,18,20,-1,-1,-1,22,24,-1,-1,-1,-1],"split_conditions":[1.4090246E0,1.2036343E0,-7.1567565E-2,1.2742854E0,1.3043041E0,3.2410598E-1,-5.3792346E-2,9.775921E-2,2.7225584E-2,-9.6750927E-1,8.61269E-2,-1.1803886E0,1.7732481E0,8.2095765E-2,5.95964E-1,2.2725377E-2,-5.1989682E-2,-2.9062296E-3,6.342152E-2,-6.0127836E-1,-5.1234616E-3,-9.705994E-3,6.1182685E-2,-5.001797E-2,-5.9601157E-3],"split_indices":[5,1,0,4,5,1,0,0,0,0,0,5,7,0,7,0,0,0,0,1,5,0,0,0,0],"split_type":[0,0,0,0,0,0,0,0,0,0,0,0,0,0,0,0,0,0,0,0,0,0,0,0,0],"sum_hessian":[1.1714714E3,1.1131313E3,5.8340008E1,1.004453E3,1.0867841E2,9.47128E2,5.7325016E1,5.168079E1,5.6997623E1,8.8418634E2,6.2941643E1,2.2404034E2,6.60146E2,6.1139645E1,1.629007E2,6.03715E2,5.643093E1,1.0881165E2,5.4089046E1,2.950139E2,3.0870117E2,1.7485056E2,1.2016333E2,5.068591E1,2.5801526E2],"tree_param":{"num_deleted":"0","num_feature":"8","num_nodes":"25","size_leaf_vector":"1"}},{"base_weights":[1.00375116E-1,1.3706672E-1,-5.945575E-2,7.4138604E-2,1.0201295E-1,2.856062E-2,3.794771E-1,1.0116288E-1,-3.3809638E-1,9.840659E-2,1.8654535E-2,-2.5494512E-2,2.6085088E-1,1.5292957E-2,-6.884178E-2,3.0685613E-2,-3.0467853E-2,2.1549967E-1,-2.1504372E-1,6.306221E-2,1.2278106E-1,6.195602E-2,5.1137965E-2,5.4772113E-2,-5.3924102E-2,-1.0690202E-2,5.043718E-2,1.8615577E-2,-6.560381E-3,3.4259897E-2,-3.0864337E-2,3.0897036E-2,-2.6800439E-2],"categories":[],"categories_nodes":[],"categories_segments":[],"categories_sizes":[],"default_left":[0,0,0,0,0,0,0,0,0,0,0,0,0,0,0,0,0,0,0,0,0,0,0,0,0,0,0,0,0,0,0,0,0],"id":24,"left_children":[1,3,-1,-1,5,7,9,11,13,-1,15,17,19,-1,-1,-1,-1,21,23,-1,25,27,-1,29,-1,31,-1,-1,-1,-1,-1,-1,-1],"loss_changes":[2.9683788E1,2.3301538E1,0E0,0E0,2.1270443E1,2.204151E1,4.7644382E1,1.3979429E1,2.364973E1,0E0,1.2938749E1,1.768706E1,1.5528107E1,0E0,0E0,0E0,0E0,7.714972E0,1.8981693E1,0E0,1.140406E1,1.8087692E0,0E0,1.2569562E1,0E0,1.3801635E1,0E0,0E0,0E0,0E0,0E0,0E0,0E0],"parents":[2147483647,0,0,1,1,4,4,5,5,6,6,7,7,8,8,10,10,11,11,12,12,17,17,18,18,20,20,21,21,23,23,25,25],"right_children":[2,4,-1,-1,6,8,10,12,14,-1,16,18,20,-1,-1,-1,-1,22,24,-1,26,28,-1,30,-1,32,-1,-1,-1,-1,-1,-1,-1],"split_conditions":[1.4090246E0,-1.2381339E0,-5.945575E-2,7.4138604E-2,4.117787E-1,1.823609E-1,1.2916485E0,-4.322224E-1,1.4665532E-1,9.840659E-2,1.286281E0,-9.6750927E-1,-5.102056E-3,1.5292957E-2,-6.884178E-2,3.0685613E-2,-3.0467853E-2,7.6710457E-1,-8.8160807E-1,6.306221E-2,1.1803341E-1,-9.974509E-1,5.1137965E-2,4.6163237E-1,-5.3924102E-2,-1.6572442E-2,5.043718E-2,1.8615577E-2,-6.560381E-3,3.4259897E-2,-3.0864337E-2,3.0897036E-2,-2.6800439E-2],"split_indices":[5,2,0,0,4,2,2,5,0,0,0,0,0,0,0,0,0,7,4,0,3,2,0,7,0,2,0,0,0,0,0,0,0],"split_type":[0,0,0,0,0,0,0,0,0,0,0,0,0,0,0,0,0,0,0,0,0,0,0,0,0,0,0,0,0,0,0,0,0],"sum_hessian":[1.1599567E3,1.1025464E3,5.741036E1,5.934263E1,1.0432037E3,8.257169E2,2.1748683E2,6.89844E2,1.3587288E2,8.064015E1,1.3684668E2,3.851782E2,3.0466583E2,5.680956E1,7.906332E1,7.238107E1,6.446561E1,1.6951665E2,2.1566154E2,8.186144E1,2.2280438E2,1.12398224E2,5.7118423E1,1.18156166E2,9.750538E1,1.6578778E2,5.7016598E1,5.671642E1,5.5681805E1,6.596715E1,5.2189022E1,7.384707E1,9.194071E1],"tree_param":{"num_deleted":"0","num_feature":"8","num_nodes":"33","size_leaf_vector":"1"}},{"base_weights":[8.037183E-2,1.1600988E-1,-6.3121125E-2,5.6465413E-2,4.283918E-1,2.4551754E-1,-8.4317006E-2,7.792478E-2,-4.995369E-3,1.5108275E-1,4.3433222E-1,-1.214394E-1,4.1337144E-2,2.5793788E-1,-8.673857E-3,2.3320049E-2,5.980326E-2,7.4275635E-2,-7.064347E-2,5.6957334E-2,1.2761834E-1,1.2802183E-2,-4.6590406E-2,-8.86998E-3,3.8876142E-2,-9.394804E-2,4.2732783E-2,2.1934774E-2,-3.2536108E-2],"categories":[],"categories_nodes":[],"categories_segments":[],"categories_sizes":[],"default_left":[0,0,0,0,0,0,0,0,0,0,0,0,0,0,0,0,0,0,0,0,0,0,0,0,0,0,0,0,0],"id":25,"left_children":[1,3,-1,5,7,9,11,-1,-1,13,15,-1,17,19,-1,-1,-1,-1,21,-1,23,25,-1,-1,-1,27,-1,-1,-1],"loss_changes":[2.8496954E1,1.9845394E1,0E0,2.3930588E1,2.8715729E1,6.7759705E0,7.3272804E1,0E0,0E0,6.561171E0,4.0549164E0,0E0,3.6577972E1,7.147732E0,0E0,0E0,0E0,0E0,1.3262326E1,0E0,7.189131E0,1.476814E1,0E0,0E0,0E0,1.9319675E1,0E0,0E0,0E0],"parents":[2147483647,0,0,1,1,3,3,4,4,5,5,6,6,9,9,10,10,12,12,13,13,18,18,20,20,21,21,25,25],"right_children":[2,4,-1,6,8,10,12,-1,-1,14,16,-1,18,20,-1,-1,-1,-1,22,-1,24,26,-1,-1,-1,28,-1,-1,-1],"split_conditions":[1.4090246E0,1.0600256E0,-6.3121125E-2,-8.593543E-1,1.3282135E0,-9.555356E-1,-3.516088E-1,7.792478E-2,-4.995369E-3,-9.576655E-1,5.6069815E-1,-1.214394E-1,-5.784902E-2,-1.237466E0,-8.673857E-3,2.3320049E-2,5.980326E-2,7.4275635E-2,1.0332001E0,5.6957334E-2,-4.461712E-2,2.084732E-1,-4.6590406E-2,-8.86998E-3,3.8876142E-2,6.712795E-2,4.2732783E-2,2.1934774E-2,-3.2536108E-2],"split_indices":[5,1,0,3,3,3,3,0,0,0,6,0,0,1,0,0,0,0,6,0,6,4,0,0,0,3,0,0,0],"split_type":[0,0,0,0,0,0,0,0,0,0,0,0,0,0,0,0,0,0,0,0,0,0,0,0,0,0,0,0,0],"sum_hessian":[1.1198342E3,1.0672217E3,5.2612457E1,8.97354E2,1.6986775E2,3.8269772E2,5.1465625E2,9.7629555E1,7.2238205E1,2.563071E2,1.26390625E2,5.063182E1,4.640244E2,1.767895E2,7.95176E1,5.7799442E1,6.859119E1,6.3106686E1,4.0091772E2,5.1136135E1,1.2565337E2,3.3183072E2,6.908701E1,6.9086136E1,5.6567238E1,2.6449127E2,6.733944E1,1.1238811E2,1.5210316E2],"tree_param":{"num_deleted":"0","num_feature":"8","num_nodes":"29","size_leaf_vector":"1"}},{"base_weights":[8.569685E-2,1.3281386E-1,-1.9849442E-1,6.4171836E-2,6.726955E-1,9.665708E-3,-4.9986992E-2,2.3691264E-1,-7.242843E-2,1.00596406E-1,3.627851E-2,4.875188E-2,3.13701E-1,-1.0469295E-1,4.8071496E-2,5.563354E-2,-4.041532E-2,1.275468E-1,7.400921E-2,5.2986693E-2,-1.0604463E-1,-8.057657E-3,2.9364392E-2,-2.2210234E-1,8.4562704E-2,-1.4503732E-3,-4.0140253E-1,1.6237073E-2,-1.5473062E-3,-5.2335303E-2,-2.7521461E-2],"categories":[],"categories_nodes":[],"categories_segments":[],"categories_sizes":[],"default_left":[0,0,0,0,0,0,0,0,0,0,0,0,0,0,0,0,0,0,0,0,0,0,0,0,0,0,0,0,0,0,0],"id":26,"left_children":[1,3,5,7,9,-1,-1,11,13,-1,-1,15,17,-1,19,-1,-1,21,-1,-1,23,-1,-1,25,27,-1,29,-1,-1,-1,-1],"loss_changes":[1.5005455E1,3.5539238E1,1.4235243E1,2.0144085E1,1.0810547E1,0E0,0E0,5.4302254E0,5.6071888E1,0E0,0E0,2.5607935E1,2.113627E1,0E0,3.1652874E1,0E0,0E0,6.5017176E0,0E0,0E0,7.169198E0,0E0,0E0,7.482664E0,9.6030354E-1,0E0,1.516571E0,0E0,0E0,0E0,0E0],"parents":[2147483647,0,0,1,1,2,2,3,3,4,4,7,7,8,8,11,11,12,12,14,14,17,17,20,20,23,23,24,24,26,26],"right_children":[2,4,6,8,10,-1,-1,12,14,-1,-1,16,18,-1,20,-1,-1,22,-1,-1,24,-1,-1,26,28,-1,30,-1,-1,-1,-1],"split_conditions":[1.2345002E0,3.2410598E-1,4.9867187E-2,-8.593543E-1,1.1065855E0,9.665708E-3,-4.9986992E-2,-1.1861305E0,-4.322224E-1,1.00596406E-1,3.627851E-2,9.888821E-1,9.8170567E-1,-1.0469295E-1,2.2725377E-2,5.563354E-2,-4.041532E-2,-1.0144309E0,7.400921E-2,5.2986693E-2,8.3004944E-2,-8.057657E-3,2.9364392E-2,6.712795E-2,-5.4328877E-1,-1.4503732E-3,3.4304833E-1,1.6237073E-2,-1.5473062E-3,-5.2335303E-2,-2.7521461E-2],"split_indices":[0,1,6,3,0,0,0,1,5,0,0,6,7,0,0,0,0,0,0,0,1,0,0,3,6,0,7,0,0,0,0],"split_type":[0,0,0,0,0,0,0,0,0,0,0,0,0,0,0,0,0,0,0,0,0,0,0,0,0,0,0,0,0,0,0],"sum_hessian":[1.1176575E3,9.5916675E2,1.584907E2,8.5196454E2,1.0720221E2,8.041537E1,7.807535E1,3.7589017E2,4.7607437E2,5.057229E1,5.662992E1,1.0941545E2,2.6647473E2,5.1543785E1,4.245306E2,5.1485657E1,5.7929794E1,1.8639665E2,8.007808E1,1.0229608E2,3.2223453E2,8.296036E1,1.0343629E2,2.0018181E2,1.22052704E2,9.327101E1,1.06910805E2,6.830321E1,5.3749496E1,5.2767673E1,5.414313E1],"tree_param":{"num_deleted":"0","num_feature":"8","num_nodes":"31","size_leaf_vector":"1"}},{"base_weights":[9.349608E-2,1.284189E-1,-5.4802317E-2,7.747921E-2,3.404567E-1,6.601718E-2,3.4597006E-2,9.570803E-2,2.2331818E-3,8.662868E-2,-2.7299923E-1,3.1973388E-2,-3.4426942E-2,4.9033683E-2,4.9091935E-2,-4.3853868E-2,-1.2492819E-2,9.913218E-2,-2.2074513E-2,-1.776826E-2,3.825933E-1,1.0004769E-2,-1.1563176E-2,7.155234E-2,1.9123219E-2],"categories":[],"categories_nodes":[],"categories_segments":[],"categories_sizes":[],"default_left":[0,0,0,0,0,0,0,0,0,0,0,0,0,0,0,0,0,0,0,0,0,0,0,0,0],"id":27,"left_children":[1,3,-1,5,7,-1,9,-1,11,13,15,-1,-1,17,-1,-1,-1,19,-1,21,23,-1,-1,-1,-1],"loss_changes":[2.4916306E1,1.1342546E1,0E0,2.1215631E1,4.2458195E1,0E0,1.271168E1,0E0,1.4684632E1,1.0293627E1,2.762576E0,0E0,0E0,8.431021E0,0E0,0E0,0E0,1.74178E1,0E0,4.3118243E0,9.640272E0,0E0,0E0,0E0,0E0],"parents":[2147483647,0,0,1,1,3,3,4,4,6,6,8,8,9,9,10,10,13,13,17,17,19,19,20,20],"right_children":[2,4,-1,6,8,-1,10,-1,12,14,16,-1,-1,18,-1,-1,-1,20,-1,22,24,-1,-1,-1,-1],"split_conditions":[1.4090246E0,4.4416484E-1,-5.4802317E-2,-1.224261E0,1.2841331E0,6.601718E-2,2.0812957E-1,9.570803E-2,1.27998E0,1.2720576E-1,1.895375E-1,3.1973388E-2,-3.4426942E-2,3.370326E-2,4.9091935E-2,-4.3853868E-2,-1.2492819E-2,-4.322224E-1,-2.2074513E-2,-9.576655E-1,-6.387883E-2,1.0004769E-2,-1.1563176E-2,7.155234E-2,1.9123219E-2],"split_indices":[5,0,0,2,2,0,2,0,0,3,4,0,0,2,0,0,0,5,0,0,5,0,0,0,0],"split_type":[0,0,0,0,0,0,0,0,0,0,0,0,0,0,0,0,0,0,0,0,0,0,0,0,0],"sum_hessian":[1.1080125E3,1.0515674E3,5.6445053E1,8.4897595E2,2.0259142E2,5.720927E1,7.917667E2,7.1113304E1,1.3147812E2,6.778268E2,1.1393995E2,6.865068E1,6.282744E1,6.2118414E2,5.6642647E1,5.2870483E1,6.1069466E1,5.244291E2,9.675505E1,3.7196616E2,1.5246292E2,1.687677E2,2.0319844E2,5.4647705E1,9.7815216E1],"tree_param":{"num_deleted":"0","num_feature":"8","num_nodes":"25","size_leaf_vector":"1"}},{"base_weights":[6.0486857E-2,1.8930952E-1,-5.9376294E-3,9.189953E-2,3.852262E-1,-6.925514E-2,6.8398416E-2,1.9085895E-1,-2.0255191E-2,2.5391206E-2,5.5805486E-2,4.9938954E-2,1.1854305E-2,4.4210985E-2,7.229907E-2,-1.6833442E-1,1.3822475E-1,-1.2181545E-2,3.1137848E-2,-1.3613636E-2,-3.708935E-2,4.1124818E-1,-2.3597918E-1,-1.9431716E-2,1.3699519E-2,2.6737212E-4,6.621053E-1,-4.0612623E-2,-7.0098042E-3,9.537373E-2,2.5898412E-2],"categories":[],"categories_nodes":[],"categories_segments":[],"categories_sizes":[],"default_left":[0,0,0,0,0,0,0,0,0,0,0,0,0,0,0,0,0,0,0,0,0,0,0,0,0,0,0,0,0,0,0],"id":28,"left_children":[1,3,5,7,9,-1,11,13,-1,-1,-1,-1,15,-1,17,19,21,-1,-1,23,-1,25,27,-1,-1,-1,29,-1,-1,-1,-1],"loss_changes":[9.271869E0,6.999346E0,3.6581802E1,7.250972E0,2.629324E0,0E0,1.5756182E1,5.501816E0,0E0,0E0,0E0,0E0,1.3066079E1,0E0,5.9508095E0,7.409046E0,3.4550068E1,0E0,0E0,3.7050846E0,0E0,2.0018948E1,4.004447E0,0E0,0E0,0E0,1.3980858E1,0E0,0E0,0E0,0E0],"parents":[2147483647,0,0,1,1,2,2,3,3,4,4,6,6,7,7,12,12,14,14,15,15,16,16,19,19,21,21,22,22,26,26],"right_children":[2,4,6,8,10,-1,12,14,-1,-1,-1,-1,16,-1,18,20,22,-1,-1,24,-1,26,28,-1,-1,-1,30,-1,-1,-1,-1],"split_conditions":[-8.593543E-1,-9.555356E-1,-2.4368733E-1,-9.394302E-1,9.8170567E-1,-6.925514E-2,4.6879562E-5,-1.228412E0,-2.0255191E-2,2.5391206E-2,5.5805486E-2,4.9938954E-2,1.21554025E-1,4.4210985E-2,-5.644356E-3,1.9360553E-1,1.3747811E0,-1.2181545E-2,3.1137848E-2,-7.2992505E-3,-3.708935E-2,2.5863105E-1,1.2811859E0,-1.9431716E-2,1.3699519E-2,2.6737212E-4,1.2372661E0,-4.0612623E-2,-7.0098042E-3,9.537373E-2,2.5898412E-2],"split_indices":[3,3,1,2,7,0,0,1,0,0,0,0,1,0,6,0,2,0,0,1,0,0,1,0,0,0,2,0,0,0,0],"split_type":[0,0,0,0,0,0,0,0,0,0,0,0,0,0,0,0,0,0,0,0,0,0,0,0,0,0,0,0,0,0,0],"sum_hessian":[1.0824131E3,3.6761536E2,7.147978E2,2.4651627E2,1.2109909E2,6.901509E1,6.457827E2,1.8477036E2,6.1745922E1,7.021747E1,5.088163E1,7.398924E1,5.7179346E2,5.8361736E1,1.26408615E2,2.3556897E2,3.3622446E2,7.0035515E1,5.6373096E1,1.341604E2,1.0140858E2,1.9433585E2,1.4188861E2,6.085506E1,7.330534E1,7.431259E1,1.20023254E2,6.932871E1,7.2559906E1,6.884935E1,5.1173904E1],"tree_param":{"num_deleted":"0","num_feature":"8","num_nodes":"31","size_leaf_vector":"1"}},{"base_weights":[5.657653E-2,2.64064E-1,1.0616394E-2,9.299635E-3,4.7257E-2,4.0788393E-2,-3.018873E-2,-3.745488E-2,1.6734216E-1,8.989176E-2,-2.3716773E-1,5.638717E-1,-1.0624249E-1,-5.8120463E-2,3.9154917E-2,-7.2520785E-3,-3.8317654E-2,2.286914E-2,9.588657E-2,1.9487322E-3,-2.2727905E-2,1.6102414E-1,-4.0975023E-2,-7.111147E-3,4.6547655E-2],"categories":[],"categories_nodes":[],"categories_segments":[],"categories_sizes":[],"default_left":[0,0,0,0,0,0,0,0,0,0,0,0,0,0,0,0,0,0,0,0,0,0,0,0,0],"id":29,"left_children":[1,3,5,-1,-1,7,-1,9,11,13,15,17,19,21,-1,-1,-1,-1,-1,-1,-1,23,-1,-1,-1],"loss_changes":[1.0355515E1,6.9803543E0,8.406673E0,0E0,0E0,8.054365E0,0E0,1.281578E1,3.3766693E1,1.3770876E1,4.687746E0,1.6596012E1,2.8151307E0,1.6050346E1,0E0,0E0,0E0,0E0,0E0,0E0,0E0,9.115369E0,0E0,0E0,0E0],"parents":[2147483647,0,0,1,1,2,2,5,5,7,7,8,8,9,9,10,10,11,11,12,12,13,13,21,21],"right_children":[2,4,6,-1,-1,8,-1,10,12,14,16,18,20,22,-1,-1,-1,-1,-1,-1,-1,24,-1,-1,-1],"split_conditions":[-9.6750927E-1,3.3236837E-1,1.6045296E0,9.299635E-3,4.7257E-2,2.084732E-1,-3.018873E-2,3.370326E-2,1.2841331E0,-1.412434E-1,-5.4328877E-1,4.117787E-1,1.858594E-1,-8.593543E-1,3.9154917E-2,-7.2520785E-3,-3.8317654E-2,2.286914E-2,9.588657E-2,1.9487322E-3,-2.2727905E-2,-9.600582E-1,-4.0975023E-2,-7.111147E-3,4.6547655E-2],"split_indices":[0,7,7,0,0,4,0,2,2,2,6,4,6,3,0,0,0,0,0,0,0,2,0,0,0],"split_type":[0,0,0,0,0,0,0,0,0,0,0,0,0,0,0,0,0,0,0,0,0,0,0,0,0],"sum_hessian":[1.0852156E3,1.9593224E2,8.892834E2,1.0842308E2,8.7509155E1,8.117764E2,7.7506935E1,5.0207007E2,3.0970636E2,3.0691562E2,1.9515445E2,1.2600931E2,1.8369705E2,2.0643358E2,1.0048205E2,9.242641E1,1.02728035E2,6.901997E1,5.6989334E1,9.051317E1,9.318388E1,1.27508865E2,7.8924706E1,7.278158E1,5.472729E1],"tree_param":{"num_deleted":"0","num_feature":"8","num_nodes":"25","size_leaf_vector":"1"}},{"base_weights":[5.323376E-2,1.3888909E-1,6.734691E-3,5.0137818E-2,2.9991865E-1,5.774694E-2,-2.6121008E-1,1.507284E-1,-2.4710234E-2,1.4838325E-2,4.761893E-2,-6.1155465E-2,1.290515E-1,-6.1865016E-3,-4.582155E-2,4.0942203E-4,3.0064393E-2,6.689463E-2,5.8536533E-2,-7.6694097E-3,4.4001237E-2,-1.5960677E-1,1.4278145E-1,9.295256E-3,-2.845464E-1,4.1715258E-1,-5.1026065E-2,-9.474589E-3,-5.8874097E-2,6.015711E-2,2.5851337E-2],"categories":[],"categories_nodes":[],"categories_segments":[],"categories_sizes":[],"default_left":[0,0,0,0,0,0,0,0,0,0,0,0,0,0,0,0,0,0,0,0,0,0,0,0,0,0,0,0,0,0,0],"id":30,"left_children":[1,3,5,7,9,11,13,15,-1,-1,-1,-1,17,-1,-1,-1,-1,-1,19,21,-1,23,25,-1,27,29,-1,-1,-1,-1,-1],"loss_changes":[4.269244E0,5.3754945E0,9.527619E0,7.343621E0,3.5037985E0,2.8019587E1,4.3499813E0,4.0259676E0,0E0,0E0,0E0,0E0,2.0135204E1,0E0,0E0,0E0,0E0,0E0,1.1868582E1,9.196249E0,0E0,6.3417373E0,3.6436203E1,0E0,7.6892653E0,4.025362E0,0E0,0E0,0E0,0E0,0E0],"parents":[2147483647,0,0,1,1,2,2,3,3,4,4,5,5,6,6,7,7,12,12,18,18,19,19,21,21,22,22,24,24,25,25],"right_children":[2,4,6,8,10,12,14,16,-1,-1,-1,-1,18,-1,-1,-1,-1,-1,20,22,-1,24,26,-1,28,30,-1,-1,-1,-1,-1],"split_conditions":[-8.3934116E-1,-9.555356E-1,1.0332001E0,-9.394302E-1,8.2384366E-1,-1.6182055E-1,2.78834E-1,2.3122366E-1,-2.4710234E-2,1.4838325E-2,4.761893E-2,-6.1155465E-2,-1.749281E-2,-6.1865016E-3,-4.582155E-2,4.0942203E-4,3.0064393E-2,6.689463E-2,5.7816917E-1,2.0009714E-1,4.4001237E-2,7.332385E-2,1.4330469E0,9.295256E-3,-4.5520934E-1,-4.0366822E-1,-5.1026065E-2,-9.474589E-3,-5.8874097E-2,6.015711E-2,2.5851337E-2],"split_indices":[3,3,6,2,7,2,2,6,0,0,0,0,3,0,0,0,0,0,6,4,0,3,2,0,6,6,0,0,0,0,0],"split_type":[0,0,0,0,0,0,0,0,0,0,0,0,0,0,0,0,0,0,0,0,0,0,0,0,0,0,0,0,0,0,0],"sum_hessian":[1.07113E3,3.761824E2,6.949476E2,2.4336397E2,1.3281844E2,5.8446045E2,1.10487114E2,1.8219823E2,6.1165745E1,7.241064E1,6.0407795E1,5.5541595E1,5.289189E2,5.5570595E1,5.4916523E1,9.2626465E1,8.957176E1,6.012071E1,4.6879816E2,4.0030438E2,6.849378E1,1.9913799E2,2.011664E2,6.59928E1,1.3314519E2,1.4190656E2,5.9259846E1,8.279633E1,5.0348854E1,6.433032E1,7.7576225E1],"tree_param":{"num_deleted":"0","num_feature":"8","num_nodes":"31","size_leaf_vector":"1"}},{"base_weights":[5.1682275E-2,2.198913E-1,8.630555E-3,9.470329E-2,4.2929597E-2,-2.155778E-1,7.463703E-2,1.9336736E-2,-1.3972784E-3,-4.0208027E-2,-1.3963833E-1,5.7069518E-2,6.6818674E-3,1.6963916E-2,-4.7792118E-2,-3.710315E-2,7.216313E-2,1.5677488E-1,-1.1988077E-1,4.0487647E-2,6.990418E-2,1.5511679E-2,-3.806643E-2,2.4671073E-1,-2.6546904E-1,-1.1259549E-2,5.0097883E-2,5.804993E-3,-5.3000122E-2],"categories":[],"categories_nodes":[],"categories_segments":[],"categories_sizes":[],"default_left":[0,0,0,0,0,0,0,0,0,0,0,0,0,0,0,0,0,0,0,0,0,0,0,0,0,0,0,0,0],"id":31,"left_children":[1,3,5,7,-1,9,11,-1,-1,-1,13,-1,15,-1,-1,-1,17,19,21,23,-1,-1,-1,25,27,-1,-1,-1,-1],"loss_changes":[7.672333E0,5.619569E0,1.251866E1,1.4653898E0,0E0,2.6688185E0,2.202252E1,0E0,0E0,0E0,1.4546385E1,0E0,1.4265588E1,0E0,0E0,0E0,8.004877E0,2.1512405E1,1.087929E1,1.7879826E1,0E0,0E0,0E0,1.5512483E1,9.800928E0,0E0,0E0,0E0,0E0],"parents":[2147483647,0,0,1,1,2,2,3,3,5,5,6,6,10,10,12,12,16,16,17,17,18,18,19,19,23,23,24,24],"right_children":[2,4,6,8,-1,10,12,-1,-1,-1,14,-1,16,-1,-1,-1,18,20,22,24,-1,-1,-1,26,28,-1,-1,-1,-1],"split_conditions":[-9.35608E-1,5.6069815E-1,-6.0127836E-1,-4.8531583E-1,4.2929597E-2,-1.0549251E0,-5.102056E-3,1.9336736E-2,-1.3972784E-3,-4.0208027E-2,-9.8001176E-1,5.7069518E-2,-7.215115E-2,1.6963916E-2,-4.7792118E-2,-3.710315E-2,1.2345002E0,1.1089638E0,4.9867187E-2,2.3858666E-1,6.990418E-2,1.5511679E-2,-3.806643E-2,-8.830781E-1,1.9360553E-1,-1.1259549E-2,5.0097883E-2,5.804993E-3,-5.3000122E-2],"split_indices":[0,6,1,6,0,5,0,0,0,0,1,0,1,0,0,0,0,1,6,2,0,0,0,6,0,0,0,0,0],"split_type":[0,0,0,0,0,0,0,0,0,0,0,0,0,0,0,0,0,0,0,0,0,0,0,0,0,0,0,0,0],"sum_hessian":[1.0587296E3,2.1491591E2,8.438137E2,1.3541391E2,7.950199E1,1.9140167E2,6.5241205E2,7.056791E1,6.4846E1,5.4140736E1,1.3726093E2,7.771454E1,5.746975E2,7.196497E1,6.529596E1,8.422117E1,4.9047635E2,3.4059766E2,1.4987872E2,2.8133994E2,5.9257698E1,7.314847E1,7.673025E1,1.6817744E2,1.131625E2,6.992443E1,9.825301E1,5.125677E1,6.1905727E1],"tree_param":{"num_deleted":"0","num_feature":"8","num_nodes":"29","size_leaf_vector":"1"}},{"base_weights":[6.193349E-2,1.9651487E-1,2.8634002E-2,3.1466457E-1,-6.0938206E-3,-1.6717671E-1,8.978759E-2,4.5894753E-2,1.0328562E-2,5.5276765E-3,-3.8552493E-2,5.909709E-2,2.8958205E-2,-2.8935394E-1,1.0055067E-1,-4.761947E-2,-9.75561E-3,2.0926574E-1,-6.523657E-3,4.830472E-2,5.206097E-2,1.6622972E-1,-1.1412819E-2,3.0517189E-2,4.169106E-3],"categories":[],"categories_nodes":[],"categories_segments":[],"categories_sizes":[],"default_left":[0,0,0,0,0,0,0,0,0,0,0,0,0,0,0,0,0,0,0,0,0,0,0,0,0],"id":32,"left_children":[1,3,5,7,-1,9,11,-1,-1,-1,-1,-1,13,15,17,-1,-1,19,-1,21,-1,23,-1,-1,-1],"loss_changes":[4.6983275E0,6.346961E0,1.0104901E1,4.306321E0,0E0,9.778442E0,1.9577719E1,0E0,0E0,0E0,0E0,0E0,1.3114843E1,3.7411375E0,8.476192E0,0E0,0E0,1.4197808E1,0E0,3.6237438E0,0E0,1.8809974E0,0E0,0E0,0E0],"parents":[2147483647,0,0,1,1,2,2,3,3,5,5,6,6,12,12,13,13,14,14,17,17,19,19,21,21],"right_children":[2,4,6,8,-1,10,12,-1,-1,-1,-1,-1,14,16,18,-1,-1,20,-1,22,-1,24,-1,-1,-1],"split_conditions":[-9.702963E-1,-9.8863614E-1,-6.0127836E-1,-9.6750927E-1,-6.0938206E-3,-9.1358525E-1,-1.857855E-2,4.5894753E-2,1.0328562E-2,5.5276765E-3,-3.8552493E-2,5.909709E-2,-4.4064928E-2,-1.7581835E-2,1.2372661E0,-4.761947E-2,-9.75561E-3,1.7993383E-1,-6.523657E-3,1.9360553E-1,5.206097E-2,6.260374E-2,-1.1412819E-2,3.0517189E-2,4.169106E-3],"split_indices":[2,5,1,0,0,4,0,0,0,0,0,0,1,5,2,0,0,1,0,0,0,1,0,0,0],"split_type":[0,0,0,0,0,0,0,0,0,0,0,0,0,0,0,0,0,0,0,0,0,0,0,0,0],"sum_hessian":[1.0486405E3,2.0702762E2,8.4161285E2,1.4175264E2,6.527497E1,1.9987843E2,6.4173444E2,8.355113E1,5.820152E1,9.937842E1,1.0050002E2,6.851477E1,5.7321967E2,1.0469342E2,4.6852625E2,5.2280922E1,5.24125E1,2.828107E2,1.8571553E2,1.871906E2,9.562011E1,1.0844038E2,7.875022E1,5.057061E1,5.7869766E1],"tree_param":{"num_deleted":"0","num_feature":"8","num_nodes":"25","size_leaf_vector":"1"}},{"base_weights":[5.2191477E-2,9.063284E-2,-1.1910916E-1,4.3217286E-2,3.828094E-1,-2.2421874E-2,-5.222367E-4,1.670109E-1,-6.049992E-2,4.4503056E-2,3.217106E-2,7.174794E-2,4.046135E-2,-5.8440786E-2,4.6844035E-2,2.111602E-2,2.0446682E-2,4.9072314E-2,-1.1302614E-1,-1.2092347E-1,3.3192154E-2,-2.093407E-1,1.0412497E-2,8.151023E-3,-3.9256014E-2,-3.0205937E-3,-3.0625442E-1,-4.5562275E-2,-1.678229E-2],"categories":[],"categories_nodes":[],"categories_segments":[],"categories_sizes":[],"default_left":[0,0,0,0,0,0,0,0,0,0,0,0,0,0,0,0,0,0,0,0,0,0,0,0,0,0,0,0,0],"id":33,"left_children":[1,3,5,7,9,-1,-1,11,13,-1,-1,15,-1,-1,17,-1,19,-1,21,23,-1,25,-1,-1,-1,-1,27,-1,-1],"loss_changes":[6.79526E0,1.1648611E1,2.2644095E0,9.326252E0,3.0329514E-1,0E0,0E0,7.4640512E0,2.2271885E1,0E0,0E0,1.6944135E0,0E0,0E0,2.3416803E1,0E0,7.734216E0,0E0,5.1008615E0,6.681071E0,0E0,2.9170814E0,0E0,0E0,0E0,0E0,2.183032E0,0E0,0E0],"parents":[2147483647,0,0,1,1,2,2,3,3,4,4,7,7,8,8,11,11,14,14,16,16,18,18,19,19,21,21,26,26],"right_children":[2,4,6,8,10,-1,-1,12,14,-1,-1,16,-1,-1,18,-1,20,-1,22,24,-1,26,-1,-1,-1,-1,28,-1,-1],"split_conditions":[1.2301234E0,2.084732E-1,1.2811859E0,-8.764201E-1,3.579264E-1,-2.2421874E-2,-5.222367E-4,-9.555356E-1,-6.0127836E-1,4.4503056E-2,3.217106E-2,-1.2498459E0,4.046135E-2,-5.8440786E-2,-5.0725445E-2,2.111602E-2,8.0050415E-1,4.9072314E-2,1.05271906E-1,-2.4301256E-1,3.3192154E-2,-2.1520261E-1,1.0412497E-2,8.151023E-3,-3.9256014E-2,-3.0205937E-3,4.6606627E-1,-4.5562275E-2,-1.678229E-2],"split_indices":[4,4,1,3,7,0,0,3,1,0,0,1,0,0,4,0,7,0,1,7,0,6,0,0,0,0,6,0,0],"split_type":[0,0,0,0,0,0,0,0,0,0,0,0,0,0,0,0,0,0,0,0,0,0,0,0,0,0,0,0,0],"sum_hessian":[1.0292859E3,8.410237E2,1.8826218E2,7.245834E2,1.1644031E2,9.739999E1,9.086219E1,3.3004352E2,3.9453986E2,5.4577007E1,6.18633E1,2.3651755E2,9.352596E1,6.6335495E1,3.2820438E2,6.2784164E1,1.7373338E2,8.6359085E1,2.4184528E2,1.199177E2,5.381568E1,1.6756151E2,7.4283775E1,6.9112465E1,5.0805237E1,5.9287155E1,1.0827435E2,5.0977768E1,5.729659E1],"tree_param":{"num_deleted":"0","num_feature":"8","num_nodes":"29","size_leaf_vector":"1"}},{"base_weights":[2.3170723E-2,1.7599739E-1,-1.41534945E-2,3.4856778E-2,-2.0885542E-3,-3.9911468E-2,1.6396545E-2,2.9441247E-2,-2.3238301E-2,-6.0254563E-2,3.6848307E-2,3.497755E-2,-1.4945349E-2,-1.3888575E-1,8.949794E-2,4.9037497E-2,-6.339234E-2,4.9639195E-2,-1.1441397E-1,3.7464023E-2,-1.0545356E-2,3.9993636E-3,-2.5870133E-2],"categories":[],"categories_nodes":[],"categories_segments":[],"categories_sizes":[],"default_left":[0,0,0,0,0,0,0,0,0,0,0,0,0,0,0,0,0,0,0,0,0,0,0],"id":34,"left_children":[1,3,5,-1,-1,-1,7,-1,9,-1,11,-1,13,15,17,19,-1,-1,21,-1,-1,-1,-1],"loss_changes":[5.928052E0,6.9377837E0,9.836471E0,0E0,0E0,0E0,8.550443E0,0E0,2.3675589E1,0E0,9.999042E0,0E0,6.87322E0,2.2615898E1,2.397175E1,8.937996E0,0E0,0E0,4.3062553E0,0E0,0E0,0E0,0E0],"parents":[2147483647,0,0,1,1,2,2,6,6,8,8,10,10,12,12,13,13,14,14,15,15,18,18],"right_children":[2,4,6,-1,-1,-1,8,-1,10,-1,12,-1,14,16,18,20,-1,-1,22,-1,-1,-1,-1],"split_conditions":[-9.702963E-1,-9.4711506E-1,-9.783694E-1,3.4856778E-2,-2.0885542E-3,-3.9911468E-2,-8.593543E-1,2.9441247E-2,-2.4368733E-1,-6.0254563E-2,-2.5959656E-2,3.497755E-2,2.8003722E-1,1.9360553E-1,1.2372661E0,5.2851796E-2,-6.339234E-2,4.9639195E-2,1.858594E-1,3.7464023E-2,-1.0545356E-2,3.9993636E-3,-2.5870133E-2],"split_indices":[2,0,3,0,0,0,3,0,1,0,2,0,0,0,2,0,0,0,6,0,0,0,0],"split_type":[0,0,0,0,0,0,0,0,0,0,0,0,0,0,0,0,0,0,0,0,0,0,0],"sum_hessian":[1.0378184E3,2.0298135E2,8.34837E2,1.0775889E2,9.5222466E1,6.0493526E1,7.7434344E2,9.581657E1,6.785269E2,6.2915707E1,6.156112E2,8.660533E1,5.2900586E2,2.417715E2,2.8723434E2,1.7589879E2,6.587271E1,9.541169E1,1.9182266E2,5.614453E1,1.19754265E2,9.3010864E1,9.881179E1],"tree_param":{"num_deleted":"0","num_feature":"8","num_nodes":"23","size_leaf_vector":"1"}},{"base_weights":[2.183246E-2,1.0517133E-1,-2.2024782E-2,-3.1637117E-2,2.5508347E-1,-5.1092036E-2,3.320236E-2,8.529599E-2,-3.402614E-2,1.6737139E-2,3.3013787E-2,3.6213245E-2,-2.0767422E-2,-4.2909975E-3,2.3199696E-2,-1.1105503E-1,1.2398073E-1,-1.1581449E-2,-5.9218835E-2,3.308401E-2,3.6952283E-2,-1.0632804E-1,1.7375747E-2,6.0029067E-2,-3.0405208E-2,5.5612218E-2,-4.2745616E-2,-1.1130742E-2,2.3037206E-2],"categories":[],"categories_nodes":[],"categories_segments":[],"categories_sizes":[],"default_left":[0,0,0,0,0,0,0,0,0,0,0,0,0,0,0,0,0,0,0,0,0,0,0,0,0,0,0,0,0],"id":35,"left_children":[1,3,5,7,9,-1,11,13,-1,-1,-1,-1,15,-1,-1,17,19,21,-1,23,-1,25,-1,-1,-1,27,-1,-1,-1],"loss_changes":[3.760901E0,7.2836E0,1.8231182E1,6.7547407E0,1.0597782E0,0E0,1.07842655E1,2.5670435E0,0E0,0E0,0E0,0E0,6.841553E0,0E0,0E0,1.5417331E1,4.4775877E0,4.726059E0,0E0,2.8467598E1,0E0,9.28126E0,0E0,0E0,0E0,3.5035179E0,0E0,0E0,0E0],"parents":[2147483647,0,0,1,1,2,2,3,3,4,4,6,6,7,7,12,12,15,15,16,16,17,17,19,19,21,21,25,25],"right_children":[2,4,6,8,10,-1,12,14,-1,-1,-1,-1,16,-1,-1,18,20,22,-1,24,-1,26,-1,-1,-1,28,-1,-1,-1],"split_conditions":[-8.593543E-1,-1.0019182E0,-2.4368733E-1,-9.702963E-1,5.4605734E-1,-5.1092036E-2,-2.5959656E-2,2.3122366E-1,-3.402614E-2,1.6737139E-2,3.3013787E-2,3.6213245E-2,1.0525383E0,-4.2909975E-3,2.3199696E-2,2.640307E-1,5.700942E-1,1.9556984E-1,-5.9218835E-2,1.3747811E0,3.6952283E-2,-4.5520934E-1,1.7375747E-2,6.0029067E-2,-3.0405208E-2,1.16160244E-1,-4.2745616E-2,-1.1130742E-2,2.3037206E-2],"split_indices":[3,3,1,2,6,0,2,6,0,0,0,0,1,0,0,3,6,7,0,2,0,6,0,0,0,2,0,0,0],"split_type":[0,0,0,0,0,0,0,0,0,0,0,0,0,0,0,0,0,0,0,0,0,0,0,0,0,0,0,0,0],"sum_hessian":[1.0273369E3,3.5374393E2,6.73593E2,1.8536787E2,1.6837607E2,6.753059E1,6.0606244E2,1.3495795E2,5.040992E1,7.913048E1,8.924558E1,8.461976E1,5.214427E2,7.239633E1,6.2561623E1,3.212769E2,2.0016579E2,2.6708212E2,5.4194748E1,1.4691454E2,5.325125E1,1.7701637E2,9.006575E1,5.447828E1,9.243626E1,1.18224365E2,5.8792015E1,6.065428E1,5.7570084E1],"tree_param":{"num_deleted":"0","num_feature":"8","num_nodes":"29","size_leaf_vector":"1"}},{"base_weights":[2.0900743E-2,5.6534927E-2,-1.2571922E-1,5.181707E-3,2.3613359E-1,3.1729978E-2,-2.9728332E-1,1.393438E-1,-4.1039333E-2,4.969319E-2,1.02008626E-1,-4.4329964E-2,-1.2351173E-2,2.602314E-2,-1.1843152E-3,-5.419765E-2,2.8102687E-2,1.7317282E-2,7.33117E-5,8.89467E-2,-1.230224E-1,-1.2458445E-2,4.6679735E-2,-1.4552948E-3,-2.3401722E-2,3.579393E-2,-1.3294831E-1,-4.350757E-3,-2.8065786E-2],"categories":[],"categories_nodes":[],"categories_segments":[],"categories_sizes":[],"default_left":[0,0,0,0,0,0,0,0,0,0,0,0,0,0,0,0,0,0,0,0,0,0,0,0,0,0,0,0,0],"id":36,"left_children":[1,3,5,7,9,-1,11,13,15,-1,17,-1,-1,-1,-1,-1,19,-1,-1,21,23,25,-1,-1,-1,-1,27,-1,-1],"loss_changes":[5.316979E0,7.5458174E0,1.5220869E1,3.9580588E0,6.313057E0,0E0,3.5984411E0,2.992105E0,1.6460884E1,0E0,8.748195E-1,0E0,0E0,0E0,0E0,0E0,3.8561234E0,0E0,0E0,1.1451748E1,1.446813E0,1.0602022E1,0E0,0E0,0E0,0E0,2.3548932E0,0E0,0E0],"parents":[2147483647,0,0,1,1,2,2,3,3,4,4,6,6,7,7,8,8,10,10,16,16,19,19,20,20,21,21,26,26],"right_children":[2,4,6,8,10,-1,12,14,16,-1,18,-1,-1,-1,-1,-1,20,-1,-1,22,24,26,-1,-1,-1,-1,28,-1,-1],"split_conditions":[1.170413E0,5.6069815E-1,-9.600582E-1,-9.2296726E-1,7.2691756E-1,3.1729978E-2,6.4451344E-2,-4.5520934E-1,-1.5407121E-1,4.969319E-2,5.21489E-2,-4.4329964E-2,-1.2351173E-2,2.602314E-2,-1.1843152E-3,-5.419765E-2,1.2368575E0,1.7317282E-2,7.33117E-5,2.084732E-1,-4.0366822E-1,-3.640554E-2,4.6679735E-2,-1.4552948E-3,-2.3401722E-2,3.579393E-2,1.8289696E-1,-4.350757E-3,-2.8065786E-2],"split_indices":[6,6,2,4,6,0,4,6,2,0,2,0,0,0,0,0,5,0,0,4,6,4,0,0,0,0,5,0,0],"split_type":[0,0,0,0,0,0,0,0,0,0,0,0,0,0,0,0,0,0,0,0,0,0,0,0,0,0,0,0,0],"sum_hessian":[1.01530493E3,8.172876E2,1.980173E2,6.3636E2,1.809276E2,5.504044E1,1.4297687E2,1.6254347E2,4.7381653E2,6.0528473E1,1.2039913E2,7.685028E1,6.612658E1,8.99217E1,7.262177E1,5.6637394E1,4.1717914E2,7.029463E1,5.0104496E1,2.9772458E2,1.1945456E2,2.3549182E2,6.223276E1,6.0986626E1,5.846793E1,5.7318474E1,1.7817336E2,1.1178195E2,6.6391396E1],"tree_param":{"num_deleted":"0","num_feature":"8","num_nodes":"29","size_leaf_vector":"1"}},{"base_weights":[1.2869648E-2,4.4088658E-2,-1.7142156E-1,-8.228227E-3,5.62404E-2,8.4773535E-3,-4.127573E-2,5.1613465E-2,-2.6054052E-1,-1.0071382E-2,1.5145141E-1,-2.4825947E-3,-4.192271E-2,1.3762158E-1,-1.3898905E-1,-5.347133E-2,3.4075594E-1,4.7995006E-3,3.6467995E-2,2.2641866E-2,-3.5344042E-2,-3.1937584E-2,2.3688018E-2,3.9731216E-2,2.55173E-2,1.739338E-2,-1.7524695E-2,-3.9767474E-2,3.707951E-2],"categories":[],"categories_nodes":[],"categories_segments":[],"categories_sizes":[],"default_left":[0,0,0,0,0,0,0,0,0,0,0,0,0,0,0,0,0,0,0,0,0,0,0,0,0,0,0,0,0],"id":37,"left_children":[1,3,5,7,-1,-1,-1,9,11,13,15,-1,-1,17,19,21,23,25,-1,27,-1,-1,-1,-1,-1,-1,-1,-1,-1],"loss_changes":[5.815995E0,2.3436567E1,9.089949E0,1.1879258E1,0E0,0E0,0E0,3.918664E0,5.631072E0,7.52262E0,9.443672E0,0E0,0E0,5.5525455E0,7.318739E0,9.150114E0,5.1058483E-1,3.59982E0,0E0,1.7884499E1,0E0,0E0,0E0,0E0,0E0,0E0,0E0,0E0,0E0],"parents":[2147483647,0,0,1,1,2,2,3,3,7,7,8,8,9,9,10,10,13,13,14,14,15,15,16,16,17,17,19,19],"right_children":[2,4,6,8,-1,-1,-1,10,12,14,16,-1,-1,18,20,22,24,26,-1,28,-1,-1,-1,-1,-1,-1,-1,-1,-1],"split_conditions":[1.2345002E0,4.117787E-1,4.9867187E-2,1.556516E-1,5.62404E-2,8.4773535E-3,-4.127573E-2,-3.516088E-1,-2.0446515E-1,-9.6750927E-1,-1.9473346E-1,-2.4825947E-3,-4.192271E-2,5.95964E-1,-8.8160807E-1,4.9763378E-2,6.861943E-1,-4.3251815E-1,3.6467995E-2,-9.95155E-1,-3.5344042E-2,-3.1937584E-2,2.3688018E-2,3.9731216E-2,2.55173E-2,1.739338E-2,-1.7524695E-2,-3.9767474E-2,3.707951E-2],"split_indices":[0,4,6,2,0,0,0,3,6,0,7,0,0,7,4,3,6,7,0,3,0,0,0,0,0,0,0,0,0],"split_type":[0,0,0,0,0,0,0,0,0,0,0,0,0,0,0,0,0,0,0,0,0,0,0,0,0,0,0,0,0],"sum_hessian":[1.0085681E3,8.631165E2,1.4545155E2,7.848779E2,7.823863E1,7.086841E1,7.458314E1,6.350553E2,1.498226E2,3.930862E2,2.419691E2,6.0746143E1,8.907647E1,1.8317102E2,2.0991518E2,1.16536026E2,1.25433075E2,1.16211845E2,6.6959175E1,1.20208824E2,8.970636E1,6.077667E1,5.5759357E1,7.333095E1,5.2102127E1,5.9939278E1,5.6272564E1,5.4395847E1,6.581298E1],"tree_param":{"num_deleted":"0","num_feature":"8","num_nodes":"29","size_leaf_vector":"1"}},{"base_weights":[3.905652E-2,6.3940726E-2,-1.0622515E-1,2.0275718E-2,4.9711935E-2,2.694632E-2,-7.387668E-2,6.2013537E-2,-2.3638467E-1,1.2667626E-2,2.524948E-1,-3.3940062E-2,-1.418736E-2,7.417587E-2,-2.5593773E-2,1.1192756E-2,4.2477243E-2,-4.4950992E-2,1.1938132E-1,2.2314368E-2,-4.0532663E-2,-1.8304411E-2,6.437619E-2,1.525241E-2,-1.6493214E-2],"categories":[],"categories_nodes":[],"categories_segments":[],"categories_sizes":[],"default_left":[0,0,0,0,0,0,0,0,0,0,0,0,0,0,0,0,0,0,0,0,0,0,0,0,0],"id":38,"left_children":[1,3,5,7,-1,-1,-1,9,11,13,15,-1,-1,17,-1,-1,-1,19,21,-1,-1,23,-1,-1,-1],"loss_changes":[3.6630883E0,1.6333967E1,3.5434284E1,8.434715E0,0E0,0E0,0E0,6.3589106E0,1.0242734E0,8.91815E0,3.3237658E0,0E0,0E0,2.3697648E0,0E0,0E0,0E0,1.1829576E1,2.3011122E1,0E0,0E0,6.369283E0,0E0,0E0,0E0],"parents":[2147483647,0,0,1,1,2,2,3,3,7,7,8,8,9,9,10,10,13,13,17,17,18,18,21,21],"right_children":[2,4,6,8,-1,-1,-1,10,12,14,16,-1,-1,18,-1,-1,-1,20,22,-1,-1,24,-1,-1,-1],"split_conditions":[1.2345002E0,3.2410598E-1,1.4052775E0,1.8289696E-1,4.9711935E-2,2.694632E-2,-7.387668E-2,-3.4463856E-2,-7.624413E-1,3.9837174E-2,-6.910282E-2,-3.3940062E-2,-1.418736E-2,-3.5157707E-1,-2.5593773E-2,1.1192756E-2,4.2477243E-2,-9.0763354E-1,-8.5055774E-1,2.2314368E-2,-4.0532663E-2,-9.702963E-1,6.437619E-2,1.525241E-2,-1.6493214E-2],"split_indices":[0,1,4,5,0,0,0,1,7,0,7,0,0,7,0,0,0,1,1,0,0,2,0,0,0],"split_type":[0,0,0,0,0,0,0,0,0,0,0,0,0,0,0,0,0,0,0,0,0,0,0,0,0],"sum_hessian":[1.01036237E3,8.6309E2,1.4727232E2,7.85007E2,7.8083E1,9.275558E1,5.4516743E1,6.7585815E2,1.09148895E2,5.3764325E2,1.3821487E2,5.0984875E1,5.816402E1,4.3805612E2,9.958711E1,7.702071E1,6.119417E1,1.20504486E2,3.1755164E2,6.9317696E1,5.118679E1,2.5227682E2,6.527482E1,1.1650387E2,1.3577296E2],"tree_param":{"num_deleted":"0","num_feature":"8","num_nodes":"25","size_leaf_vector":"1"}},{"base_weights":[1.7254628E-2,-1.3137856E-2,1.4563566E-1,3.0657236E-2,-2.1930243E-1,4.0152617E-2,4.3383922E-2,-3.1453972E-3,3.9677136E-2,1.6981045E-2,-5.7116438E-2,5.3957414E-2,-3.0689409E-2,3.1479582E-2,-4.377378E-2,-3.713004E-2,7.3897564E-3,-1.5816413E-1,9.125065E-2,3.7091372E-3,-3.7248448E-2,-1.3861425E-1,2.3270594E-1,-4.970603E-2,2.9593647E-2,5.4110356E-2,-1.7353398E-3],"categories":[],"categories_nodes":[],"categories_segments":[],"categories_sizes":[],"default_left":[0,0,0,0,0,0,0,0,0,0,0,0,0,0,0,0,0,0,0,0,0,0,0,0,0,0,0],"id":39,"left_children":[1,3,5,7,9,11,-1,13,-1,-1,-1,-1,-1,-1,15,-1,17,19,21,-1,-1,23,25,-1,-1,-1,-1],"loss_changes":[3.8978312E0,7.3046265E0,5.795586E0,8.262405E0,1.950308E1,2.4618372E1,0E0,7.9205966E0,0E0,0E0,0E0,0E0,0E0,0E0,9.11252E0,0E0,6.555773E0,6.658489E0,1.0221846E1,0E0,0E0,1.8839863E1,1.4998571E1,0E0,0E0,0E0,0E0],"parents":[2147483647,0,0,1,1,2,2,3,3,4,4,5,5,7,7,14,14,16,16,17,17,18,18,21,21,22,22],"right_children":[2,4,6,8,10,12,-1,14,-1,-1,-1,-1,-1,-1,16,-1,18,20,22,-1,-1,24,26,-1,-1,-1,-1],"split_conditions":[1.0525383E0,2.0812957E-1,5.8782685E-1,1.2720576E-1,1.9360553E-1,1.3863542E0,4.3383922E-2,-1.256448E0,3.9677136E-2,1.6981045E-2,-5.7116438E-2,5.3957414E-2,-3.0689409E-2,3.1479582E-2,-7.350943E-1,-3.713004E-2,-1.0760485E0,1.2629926E0,1.3026737E-1,3.7091372E-3,-3.7248448E-2,-1.7031719E-1,-8.3934116E-1,-4.970603E-2,2.9593647E-2,5.4110356E-2,-1.7353398E-3],"split_indices":[1,2,6,3,0,2,0,6,0,0,0,0,0,0,6,0,1,6,6,0,0,2,3,0,0,0,0],"split_type":[0,0,0,0,0,0,0,0,0,0,0,0,0,0,0,0,0,0,0,0,0,0,0,0,0,0,0],"sum_hessian":[9.974877E2,8.0727405E2,1.902136E2,6.665348E2,1.4073924E2,1.4008246E2,5.0131134E1,6.111041E2,5.54307E1,6.707763E1,7.3661606E1,5.7205486E1,8.287697E1,6.847766E1,5.4262646E2,7.246704E1,4.7015942E2,1.5778409E2,3.1237534E2,8.299701E1,7.478709E1,1.1900775E2,1.9336757E2,6.51357E1,5.387206E1,8.606271E1,1.07304855E2],"tree_param":{"num_deleted":"0","num_feature":"8","num_nodes":"27","size_leaf_vector":"1"}},{"base_weights":[1.0792699E-2,1.7771225E-1,-1.5009065E-2,3.52446E-2,-4.128286E-3,-8.932378E-2,4.3831717E-2,-1.6954538E-1,7.313735E-2,1.0216297E-1,-2.485046E-2,-7.127519E-2,-5.4054987E-2,2.4934938E-2,-9.7016385E-3,-1.8369084E-2,6.4800404E-2,-2.2649426E-2,8.803483E-3,8.1576414E-2,-3.076524E-2,-1.3690002E-1,3.3070096E-1,-2.1646554E-2,-1.5888987E-3,1.0676711E-2,5.6112118E-2],"categories":[],"categories_nodes":[],"categories_segments":[],"categories_sizes":[],"default_left":[0,0,0,0,0,0,0,0,0,0,0,0,0,0,0,0,0,0,0,0,0,0,0,0,0,0,0],"id":40,"left_children":[1,3,5,-1,-1,7,9,11,13,15,-1,17,-1,-1,-1,19,-1,-1,-1,21,-1,23,25,-1,-1,-1,-1],"loss_changes":[4.295782E0,5.124305E0,3.783205E0,0E0,0E0,4.994257E0,8.262222E0,9.302038E0,3.833748E0,2.655159E1,0E0,5.0569777E0,0E0,0E0,0E0,9.606709E0,0E0,0E0,0E0,1.3494057E1,0E0,1.2708843E0,5.9122496E0,0E0,0E0,0E0,0E0],"parents":[2147483647,0,0,1,1,2,2,5,5,6,6,7,7,8,8,9,9,11,11,15,15,19,19,21,21,22,22],"right_children":[2,4,6,-1,-1,8,10,12,14,16,-1,18,-1,-1,-1,20,-1,-1,-1,22,-1,24,26,-1,-1,-1,-1],"split_conditions":[-1.1720543E0,9.065005E-2,2.4974161E-1,3.52446E-2,-4.128286E-3,1.315123E-1,1.1345867E0,2.9185524E-2,1.2301234E0,2.4526307E-2,-2.485046E-2,-8.2946026E-1,-5.4054987E-2,2.4934938E-2,-9.7016385E-3,7.44474E-2,6.4800404E-2,-2.2649426E-2,8.803483E-3,-1.0688179E0,-3.076524E-2,-1.1861305E0,9.8170567E-1,-2.1646554E-2,-1.5888987E-3,1.0676711E-2,5.6112118E-2],"split_indices":[7,3,7,0,0,1,0,1,4,1,0,0,0,0,0,0,0,0,0,1,0,1,7,0,0,0,0],"split_type":[0,0,0,0,0,0,0,0,0,0,0,0,0,0,0,0,0,0,0,0,0,0,0,0,0,0,0],"sum_hessian":[9.9581805E2,1.325331E2,8.63285E2,7.337702E1,5.915608E1,3.812526E2,4.8203238E2,2.5519592E2,1.2605667E2,4.0239175E2,7.964061E1,2.0269817E2,5.249776E1,6.1697258E1,6.435941E1,3.303996E2,7.199215E1,1.0245369E2,1.0024448E2,2.460938E2,8.43058E1,1.3135179E2,1.14742E2,7.877073E1,5.2581066E1,5.893215E1,5.5809845E1],"tree_param":{"num_deleted":"0","num_feature":"8","num_nodes":"27","size_leaf_vector":"1"}},{"base_weights":[2.5172316E-2,4.731188E-2,-1.1058107E-1,8.144996E-3,4.3394785E-2,9.729567E-3,-3.354263E-2,6.913091E-2,-1.18741065E-1,-4.7279666E-3,2.7764478E-1,1.3186027E-2,-3.0265617E-1,9.399766E-2,-2.1582325E-1,8.798186E-3,5.3655457E-2,-1.6506651E-2,1.9496655E-2,-1.32257035E-2,-4.6868693E-2,1.9319037E-1,-1.1657244E-2,-9.80195E-3,-3.341945E-2,2.5237253E-1,5.490651E-3,1.3487622E-2,3.8466305E-2],"categories":[],"categories_nodes":[],"categories_segments":[],"categories_sizes":[],"default_left":[0,0,0,0,0,0,0,0,0,0,0,0,0,0,0,0,0,0,0,0,0,0,0,0,0,0,0,0,0],"id":41,"left_children":[1,3,5,7,-1,-1,-1,9,11,13,15,17,19,21,23,-1,-1,-1,-1,-1,-1,25,-1,-1,-1,27,-1,-1,-1],"loss_changes":[2.9672246E0,1.2838455E1,6.5055656E0,5.9747496E0,0E0,0E0,0E0,8.030942E0,6.085847E0,8.0645485E0,6.6504374E0,4.792731E0,2.9013262E0,5.5302277E0,1.6866231E0,0E0,0E0,0E0,0E0,0E0,0E0,1.4562025E0,0E0,0E0,0E0,1.8990564E0,0E0,0E0,0E0],"parents":[2147483647,0,0,1,1,2,2,3,3,7,7,8,8,9,9,10,10,11,11,12,12,13,13,14,14,21,21,25,25],"right_children":[2,4,6,8,-1,-1,-1,10,12,14,16,18,20,22,24,-1,-1,-1,-1,-1,-1,26,-1,-1,-1,28,-1,-1,-1],"split_conditions":[1.2345002E0,4.117787E-1,1.858594E-1,3.370326E-2,4.3394785E-2,9.729567E-3,-3.354263E-2,-3.449581E-1,1.9360553E-1,-8.743073E-1,1.0786692E-1,-6.317982E-1,3.7649128E-1,-9.660502E-1,-7.568843E-1,8.798186E-3,5.3655457E-2,-1.6506651E-2,1.9496655E-2,-1.32257035E-2,-4.6868693E-2,-8.796834E-1,-1.1657244E-2,-9.80195E-3,-3.341945E-2,3.0045733E-1,5.490651E-3,1.3487622E-2,3.8466305E-2],"split_indices":[0,4,6,2,0,0,0,4,0,2,6,7,6,5,2,0,0,0,0,0,0,0,0,0,0,7,0,0,0],"split_type":[0,0,0,0,0,0,0,0,0,0,0,0,0,0,0,0,0,0,0,0,0,0,0,0,0,0,0,0,0],"sum_hessian":[9.8451746E2,8.470297E2,1.3748775E2,7.70044E2,7.698571E1,7.1734314E1,6.575343E1,5.203842E2,2.4965982E2,3.8499152E2,1.353927E2,1.459176E2,1.037422E2,2.6269043E2,1.2230106E2,7.892007E1,5.647263E1,7.372015E1,7.219746E1,5.2084213E1,5.1657993E1,1.7862741E2,8.406303E1,6.221369E1,6.008737E1,1.2451357E2,5.4113842E1,6.701367E1,5.7499905E1],"tree_param":{"num_deleted":"0","num_feature":"8","num_nodes":"29","size_leaf_vector":"1"}},{"base_weights":[2.9603923E-2,6.5352984E-2,-1.3098629E-1,1.751839E-2,3.8882267E-2,-5.42508E-3,-2.0001868E-2,8.6943254E-2,-9.776413E-2,2.487526E-2,5.308948E-2,-2.8505573E-2,-9.827466E-3,1.6746846E-1,-9.325217E-2,1.3100378E-1,-2.5411237E-2,1.4187755E-4,3.7656322E-2,1.06546804E-1,-3.537743E-2,4.0940255E-2,-1.0993648E-2,3.493789E-2,-1.860912E-2],"categories":[],"categories_nodes":[],"categories_segments":[],"categories_sizes":[],"default_left":[0,0,0,0,0,0,0,0,0,0,0,0,0,0,0,0,0,0,0,0,0,0,0,0,0],"id":42,"left_children":[1,3,5,7,-1,-1,-1,9,11,13,-1,-1,15,17,19,21,-1,-1,-1,23,-1,-1,-1,-1,-1],"loss_changes":[5.716321E0,1.2586088E1,9.4984627E-1,5.69144E0,0E0,0E0,0E0,1.2213108E1,4.400505E0,6.590362E0,0E0,0E0,6.3280168E0,6.152133E0,1.118309E1,7.874345E0,0E0,0E0,0E0,8.731116E0,0E0,0E0,0E0,0E0,0E0],"parents":[2147483647,0,0,1,1,2,2,3,3,7,7,8,8,9,9,12,12,13,13,14,14,15,15,19,19],"right_children":[2,4,6,8,-1,-1,-1,10,12,14,-1,-1,16,18,20,22,-1,-1,-1,24,-1,-1,-1,-1,-1],"split_conditions":[1.2372661E0,2.084732E-1,1.858594E-1,-6.9122694E-2,3.8882267E-2,-5.42508E-3,-2.0001868E-2,-3.965587E-1,7.44474E-2,-9.6750927E-1,5.308948E-2,-2.8505573E-2,-1.750184E-2,3.0045733E-1,-8.8160807E-1,1.8289696E-1,-2.5411237E-2,1.4187755E-4,3.7656322E-2,6.200835E-1,-3.537743E-2,4.0940255E-2,-1.0993648E-2,3.493789E-2,-1.860912E-2],"split_indices":[2,4,6,5,0,0,0,0,0,0,0,0,6,7,4,5,0,0,0,7,0,0,0,0,0],"split_type":[0,0,0,0,0,0,0,0,0,0,0,0,0,0,0,0,0,0,0,0,0,0,0,0,0],"sum_hessian":[9.932189E2,8.128606E2,1.8035826E2,7.0905927E2,1.0380131E2,8.625937E1,9.4098885E1,4.4270282E2,2.6635648E2,3.8932773E2,5.3375107E1,8.438588E1,1.8197058E2,1.7620753E2,2.1312018E2,1.15720795E2,6.6249794E1,9.8774185E1,7.743336E1,1.2095144E2,9.216874E1,5.336271E1,6.2358086E1,6.5994804E1,5.495663E1],"tree_param":{"num_deleted":"0","num_feature":"8","num_nodes":"25","size_leaf_vector":"1"}},{"base_weights":[5.773756E-3,3.7978392E-2,-1.3679715E-1,-1.2946845E-2,3.8701467E-2,-5.516847E-3,-2.0704862E-2,1.2480689E-1,-6.374052E-2,1.9669977E-3,3.1140378E-2,-1.8897139E-1,1.1101492E-2,-8.4413233E-4,-2.713929E-1,3.5150032E-2,-1.2981537E-1,-5.1493865E-2,-1.1477592E-2,-1.905057E-2,-2.982902E-2,-1.2745716E-2,1.3157814E-2],"categories":[],"categories_nodes":[],"categories_segments":[],"categories_sizes":[],"default_left":[0,0,0,0,0,0,0,0,0,0,0,0,0,0,0,0,0,0,0,0,0,0,0],"id":43,"left_children":[1,3,5,7,-1,-1,-1,9,11,-1,-1,13,15,-1,17,-1,19,-1,-1,21,-1,-1,-1],"loss_changes":[4.494147E0,1.4194785E1,1.0228977E0,4.8893065E0,0E0,0E0,0E0,3.6875288E0,4.785428E0,0E0,0E0,2.8392067E0,1.5414072E1,0E0,4.9405937E0,0E0,4.2363214E0,0E0,0E0,2.2737374E0,0E0,0E0,0E0],"parents":[2147483647,0,0,1,1,2,2,3,3,7,7,8,8,11,11,12,12,14,14,16,16,19,19],"right_children":[2,4,6,8,-1,-1,-1,10,12,-1,-1,14,16,-1,18,-1,20,-1,-1,22,-1,-1,-1],"split_conditions":[1.2372661E0,2.084732E-1,1.858594E-1,-9.702963E-1,3.8701467E-2,-5.516847E-3,-2.0704862E-2,8.519979E-1,-6.0127836E-1,1.9669977E-3,3.1140378E-2,3.8921814E-2,-2.5959656E-2,-8.4413233E-4,9.4442326E-1,3.5150032E-2,-2.1520261E-1,-5.1493865E-2,-1.1477592E-2,7.270796E-2,-2.982902E-2,-1.2745716E-2,1.3157814E-2],"split_indices":[2,4,6,2,0,0,0,6,1,0,0,6,2,0,6,0,6,0,0,4,0,0,0],"split_type":[0,0,0,0,0,0,0,0,0,0,0,0,0,0,0,0,0,0,0,0,0,0,0],"sum_hessian":[9.766775E2,7.9731055E2,1.7936693E2,6.96633E2,1.00677536E2,8.379114E1,9.557579E1,1.8727672E2,5.093563E2,1.2049177E2,6.678495E1,1.8996638E2,3.193899E2,5.9890045E1,1.3007634E2,9.307163E1,2.2631825E2,5.001426E1,8.006209E1,1.372171E2,8.910115E1,7.9881035E1,5.7336075E1],"tree_param":{"num_deleted":"0","num_feature":"8","num_nodes":"23","size_leaf_vector":"1"}},{"base_weights":[6.6179703E-3,-2.6731815E-2,1.4674775E-1,1.7204683E-2,-2.1754527E-1,3.5763934E-2,-2.0633256E-3,-8.618429E-2,1.3079228E-1,-4.7117267E-3,-5.163416E-2,2.3482883E-2,-2.123381E-1,-6.95702E-2,5.154816E-1,-6.1962765E-2,-9.3498625E-2,-1.77009E-1,1.0002085E-2,6.2274005E-2,3.9530795E-2,2.0118164E-2,-2.0589189E-1,-3.4860037E-3,-3.309712E-2,-2.6034335E-2,-1.1473558E-2],"categories":[],"categories_nodes":[],"categories_segments":[],"categories_sizes":[],"default_left":[0,0,0,0,0,0,0,0,0,0,0,0,0,0,0,0,0,0,0,0,0,0,0,0,0,0,0],"id":44,