{"learner":{"attributes":{"scikit_learn":"{\"_estimator_type\": \"classifier\"}"},"feature_names":[],"feature_types":[],"gradient_booster":{"model":{"gbtree_model_param":{"num_parallel_tree":"1","num_trees":"800"},"iteration_indptr":[0,4,8,12,16,20,24,28,32,36,40,44,48,52,56,60,64,68,72,76,80,84,88,92,96,100,104,108,112,116,120,124,128,132,136,140,144,148,152,156,160,164,168,172,176,180,184,188,192,196,200,204,208,212,216,220,224,228,232,236,240,244,248,252,256,260,264,268,272,276,280,284,288,292,296,300,304,308,312,316,320,324,328,332,336,340,344,348,352,356,360,364,368,372,376,380,384,388,392,396,400,404,408,412,416,420,424,428,432,436,440,444,448,452,456,460,464,468,472,476,480,484,488,492,496,500,504,508,512,516,520,524,528,532,536,540,544,548,552,556,560,564,568,572,576,580,584,588,592,596,600,604,608,612,616,620,624,628,632,636,640,644,648,652,656,660,664,668,672,676,680,684,688,692,696,700,704,708,712,716,720,724,728,732,736,740,744,748,752,756,760,764,768,772,776,780,784,788,792,796,800],"tree_info":[0,1,2,3,0,1,2,3,0,1,2,3,0,1,2,3,0,1,2,3,0,1,2,3,0,1,2,3,0,1,2,3,0,1,2,3,0,1,2,3,0,1,2,3,0,1,2,3,0,1,2,3,0,1,2,3,0,1,2,3,0,1,2,3,0,1,2,3,0,1,2,3,0,1,2,3,0,1,2,3,0,1,2,3,0,1,2,3,0,1,2,3,0,1,2,3,0,1,2,3,0,1,2,3,0,1,2,3,0,1,2,3,0,1,2,3,0,1,2,3,0,1,2,3,0,1,2,3,0,1,2,3,0,1,2,3,0,1,2,3,0,1,2,3,0,1,2,3,0,1,2,3,0,1,2,3,0,1,2,3,0,1,2,3,0,1,2,3,0,1,2,3,0,1,2,3,0,1,2,3,0,1,2,3,0,1,2,3,0,1,2,3,0,1,2,3,0,1,2,3,0,1,2,3,0,1,2,3,0,1,2,3,0,1,2,3,0,1,2,3,0,1,2,3,0,1,2,3,0,1,2,3,0,1,2,3,0,1,2,3,0,1,2,3,0,1,2,3,0,1,2,3,0,1,2,3,0,1,2,3,0,1,2,3,0,1,2,3,0,1,2,3,0,1,2,3,0,1,2,3,0,1,2,3,0,1,2,3,0,1,2,3,0,1,2,3,0,1,2,3,0,1,2,3,0,1,2,3,0,1,2,3,0,1,2,3,0,1,2,3,0,1,2,3,0,1,2,3,0,1,2,3,0,1,2,3,0,1,2,3,0,1,2,3,0,1,2,3,0,1,2,3,0,1,2,3,0,1,2,3,0,1,2,3,0,1,2,3,0,1,2,3,0,1,2,3,0,1,2,3,0,1,2,3,0,1,2,3,0,1,2,3,0,1,2,3,0,1,2,3,0,1,2,3,0,1,2,3,0,1,2,3,0,1,2,3,0,1,2,3,0,1,2,3,0,1,2,3,0,1,2,3,0,1,2,3,0,1,2,3,0,1,2,3,0,1,2,3,0,1,2,3,0,1,2,3,0,1,2,3,0,1,2,3,0,1,2,3,0,1,2,3,0,1,2,3,0,1,2,3,0,1,2,3,0,1,2,3,0,1,2,3,0,1,2,3,0,1,2,3,0,1,2,3,0,1,2,3,0,1,2,3,0,1,2,3,0,1,2,3,0,1,2,3,0,1,2,3,0,1,2,3,0,1,2,3,0,1,2,3,0,1,2,3,0,1,2,3,0,1,2,3,0,1,2,3,0,1,2,3,0,1,2,3,0,1,2,3,0,1,2,3,0,1,2,3,0,1,2,3,0,1,2,3,0,1,2,3,0,1,2,3,0,1,2,3,0,1,2,3,0,1,2,3,0,1,2,3,0,1,2,3,0,1,2,3,0,1,2,3,0,1,2,3,0,1,2,3,0,1,2,3,0,1,2,3,0,1,2,3,0,1,2,3,0,1,2,3,0,1,2,3,0,1,2,3,0,1,2,3,0,1,2,3,0,1,2,3,0,1,2,3,0,1,2,3,0,1,2,3,0,1,2,3,0,1,2,3,0,1,2,3,0,1,2,3,0,1,2,3,0,1,2,3,0,1,2,3,0,1,2,3,0,1,2,3,0,1,2,3,0,1,2,3,0,1,2,3,0,1,2,3,0,1,2,3,0,1,2,3,0,1,2,3,0,1,2,3,0,1,2,3,0,1,2,3,0,1,2,3,0,1,2,3,0,1,2,3,0,1,2,3,0,1,2,3,0,1,2,3,0,1,2,3,0,1,2,3,0,1,2,3,0,1,2,3,0,1,2,3],"trees":[{"base_weights":[-3.9724836E-1,-4.5219046E-1,1.8233852E-1,-4.6379015E-1,3.215259E-2,-3.933044E-1,-6.085318E-1,-4.611914E-1,4.7531992E-2,-6.479811E-1,-2.2898743E-1,-6.658997E-2,-3.9458576E-1,4.3104354E-1,-2.478805E-1,-6.62021E-2,-4.918033E-1,-7.6271184E-2,-4.7652174E-2,-2.0987143E-1,-5.454237E-1,8.16E-2,2.925795E-1,-5.108911E-1,-6.644068E-2,-5.2412E-2,-4.295011E-2,-2.2129437E-2,7.188161E-3,-3.074747E-1,1.7396963E-1,-6.574155E-2,-4.376658E-1,5.3521127E-1,-1.6E-2,-3.362832E-2,-6.431096E-2,-3.7798166E-2,1.1513859E-1,-3.4331005E-2,1.0187668E-2,4.475043E-3,-4.8836783E-2,8.251473E-3,1.0710901E-1,-4.77327E-4,2.0872867E-2],"categories":[],"categories_nodes":[],"categories_segments":[],"categories_sizes":[],"default_left":[0,0,0,0,0,0,0,0,0,0,0,0,0,0,0,0,0,0,0,0,0,0,0,0,0,0,0,0,0,0,0,0,0,0,0,0,0,0,0,0,0,0,0,0,0,0,0],"id":0,"left_children":[1,3,-1,5,-1,7,9,11,13,15,17,-1,19,21,23,-1,25,27,-1,29,31,-1,33,35,37,-1,-1,-1,-1,39,-1,-1,41,43,-1,-1,-1,-1,45,-1,-1,-1,-1,-1,-1,-1,-1],"loss_changes":[7.7233124E2,5.5538574E1,0E0,6.1799072E1,0E0,1.22490906E2,2.9641846E1,4.8089417E1,6.207872E1,3.625183E0,7.1036043E0,0E0,7.4503265E1,1.2467266E1,1.4741549E1,0E0,8.193207E-2,2.5512064E0,0E0,2.2992252E2,1.7495941E1,0E0,1.9508307E1,2.6983871E0,1.04735E1,0E0,0E0,0E0,0E0,1.6888107E1,0E0,0E0,1.846431E1,2.7900494E1,0E0,0E0,0E0,0E0,1.3168412E0,0E0,0E0,0E0,0E0,0E0,0E0,0E0,0E0],"parents":[2147483647,0,0,1,1,3,3,5,5,6,6,7,7,8,8,9,9,10,10,12,12,13,13,14,14,16,16,17,17,19,19,20,20,22,22,23,23,24,24,29,29,32,32,33,33,38,38],"right_children":[2,4,-1,6,-1,8,10,12,14,16,18,-1,20,22,24,-1,26,28,-1,30,32,-1,34,36,38,-1,-1,-1,-1,40,-1,-1,42,44,-1,-1,-1,-1,46,-1,-1,-1,-1,-1,-1,-1,-1],"split_conditions":[1.4305464E0,1.4477587E0,1.8233852E-1,3.2410598E-1,3.215259E-2,6.712795E-2,1.3508385E0,-1.1877651E0,1.05271906E-1,1.2996877E0,1.286276E0,-6.658997E-2,-6.619175E-1,-2.4871452E-2,2.0981264E-1,-6.62021E-2,-5.644356E-3,4.741546E-1,-4.7652174E-2,-8.3934116E-1,-1.1343455E-1,8.16E-2,3.7601903E-1,-3.4134287E-1,1.7239636E-1,-5.2412E-2,-4.295011E-2,-2.2129437E-2,7.188161E-3,-8.8530177E-1,1.7396963E-1,-6.574155E-2,-1.8995373E-1,-3.692359E-1,-1.6E-2,-3.362832E-2,-6.431096E-2,-3.7798166E-2,-7.007184E-1,-3.4331005E-2,1.0187668E-2,4.475043E-3,-4.8836783E-2,8.251473E-3,1.0710901E-1,-4.77327E-4,2.0872867E-2],"split_indices":[3,2,0,1,0,3,2,3,1,2,1,0,1,1,5,0,6,7,0,3,3,0,7,7,2,0,0,0,0,3,0,0,1,6,0,0,0,0,7,0,0,0,0,0,0,0,0],"split_type":[0,0,0,0,0,0,0,0,0,0,0,0,0,0,0,0,0,0,0,0,0,0,0,0,0,0,0,0,0,0,0,0,0,0,0,0,0,0,0,0,0,0,0,0,0,0,0],"sum_hessian":[6.3225E3,6.170625E3,1.51875E2,6.079875E3,9.075E1,4.09125E3,1.988625E3,3.54525E3,5.46E2,1.80075E3,1.87875E2,8.68125E2,2.677125E3,2.37375E2,3.08625E2,1.64925E3,1.515E2,1.17E2,7.0875E1,1.2045E3,1.472625E3,6.15E1,1.75875E2,1.2525E2,1.83375E2,9.4875E1,5.6625E1,5.8875E1,5.8125E1,1.147875E3,5.6625E1,7.19625E2,7.53E2,1.14375E2,6.15E1,5.55E1,6.975E1,6.7125E1,1.1625E2,1.055625E3,9.225E1,7.1625E1,6.81375E2,6.2625E1,5.175E1,5.1375E1,6.4875E1],"tree_param":{"num_deleted":"0","num_feature":"8","num_nodes":"47","size_leaf_vector":"1"}},{"base_weights":[1.3410021E-1,2.2685452E-1,-4.0896207E-1,1.4312296E-1,1.1500694E0,-1.3810742E-1,-6.057356E-1,1.44623E-1,1.1604095E-1,1.5068216E0,7.123623E-1,4.010462E-2,-6.223278E-2,-3.736264E-2,-6.3196254E-1,1.5560235E-1,-3.7920278E-1,1.7249452E0,1.0064516E-1,9.702026E-1,4.358655E-2,-2.2808023E-1,8.797128E-2,-5.0998825E-1,-6.648883E-2,6.1098244E-2,8.062049E-1,-5.6367433E-1,-1.4329581E-2,1.3788235E-1,1.8652631E-1,7.952941E-2,1.1279621E-1,-4.6616542E-1,1.4223513E-2,-6.1818182E-2,-3.8663488E-2,2.2826773E-1,-3.3679923E-1,1.3454169E0,4.114544E-1,-4.0000003E-2,-6.556837E-2,1.9413093E-2,-1.8450184E-2,-6.425993E-2,-2.7027026E-2,4.4485744E-2,8.6195153E-1,-1.2667947E-1,-6.014054E-1,7.672552E-2,1.6109422E0,-2.4060151E-1,8.4355444E-1,2.1540582E-2,-3.0848606E-2,1.5418503E-1,5.4310855E-2,-4.878049E-2,3.9128005E-3,-6.392867E-2,-2.6728112E-2,1.4089172E-1,1.8812616E-1,-1.8148822E-3,-4.721689E-2,1.3544018E-3,1.1539123E-1],"categories":[],"categories_nodes":[],"categories_segments":[],"categories_sizes":[],"default_left":[0,0,0,0,0,0,0,0,0,0,0,0,0,0,0,0,0,0,0,0,0,0,0,0,0,0,0,0,0,0,0,0,0,0,0,0,0,0,0,0,0,0,0,0,0,0,0,0,0,0,0,0,0,0,0,0,0,0,0,0,0,0,0,0,0,0,0,0,0],"id":1,"left_children":[1,3,5,7,9,11,13,-1,15,17,19,21,-1,-1,23,25,27,29,-1,31,-1,33,-1,35,-1,37,39,41,43,-1,-1,-1,-1,45,-1,-1,-1,47,49,51,53,-1,-1,-1,-1,-1,-1,55,57,59,61,-1,63,65,67,-1,-1,-1,-1,-1,-1,-1,-1,-1,-1,-1,-1,-1,-1],"loss_changes":[3.1974942E2,4.1888107E2,4.9276062E1,1.7527129E2,6.929309E1,3.3765873E1,3.0275574E0,0E0,9.549669E1,2.5263E1,1.4138519E1,6.4768196E1,0E0,0E0,1.5896301E0,2.773386E2,2.4265137E1,5.7270813E0,0E0,1.9968033E0,0E0,1.9297646E1,0E0,1.1806736E0,0E0,2.621761E2,1.2122562E2,3.34449E0,4.3681035E0,0E0,0E0,0E0,0E0,4.4231415E0,0E0,0E0,0E0,3.2316635E2,6.475917E1,3.581906E1,9.367465E1,0E0,0E0,0E0,0E0,0E0,0E0,1.2991917E2,1.3440683E2,3.9014168E1,6.358612E0,0E0,6.3330383E0,6.8426323E0,5.1440018E1,0E0,0E0,0E0,0E0,0E0,0E0,0E0,0E0,0E0,0E0,0E0,0E0,0E0,0E0],"parents":[2147483647,0,0,1,1,2,2,3,3,4,4,5,5,6,6,8,8,9,9,10,10,11,11,14,14,15,15,16,16,17,17,19,19,21,21,23,23,25,25,26,26,27,27,28,28,33,33,37,37,38,38,39,39,40,40,47,47,48,48,49,49,50,50,52,52,53,53,54,54],"right_children":[2,4,6,8,10,12,14,-1,16,18,20,22,-1,-1,24,26,28,30,-1,32,-1,34,-1,36,-1,38,40,42,44,-1,-1,-1,-1,46,-1,-1,-1,48,50,52,54,-1,-1,-1,-1,-1,-1,56,58,60,62,-1,64,66,68,-1,-1,-1,-1,-1,-1,-1,-1,-1,-1,-1,-1,-1,-1],"split_conditions":[1.2286574E0,1.200639E0,-4.4074965E-1,-1.6630899E0,1.1388205E0,1.396521E0,1.2467256E0,1.44623E-1,1.0975221E0,7.597738E-1,-3.692359E-1,1.313112E0,-6.223278E-2,-3.736264E-2,-1.1419937E-1,2.8003722E-1,1.2047074E0,1.2345002E0,1.0064516E-1,-9.8689145E-1,4.358655E-2,1.3250248E0,8.797128E-2,1.2293642E0,-6.648883E-2,-8.261401E-2,9.184276E-1,-6.278873E-1,1.2071196E0,1.3788235E-1,1.8652631E-1,7.952941E-2,1.1279621E-1,1.165482E0,1.4223513E-2,-6.1818182E-2,-3.8663488E-2,-2.6792267E-1,-1.4509724E-1,3.4805888E-1,1.0451564E0,-4.0000003E-2,-6.556837E-2,1.9413093E-2,-1.8450184E-2,-6.425993E-2,-2.7027026E-2,-9.880505E-1,-2.5661418E-1,-4.6694007E-2,2.0502435E-1,7.672552E-2,9.7019273E-1,-5.076559E-1,1.0191388E0,2.1540582E-2,-3.0848606E-2,1.5418503E-1,5.4310855E-2,-4.878049E-2,3.9128005E-3,-6.392867E-2,-2.6728112E-2,1.4089172E-1,1.8812616E-1,-1.8148822E-3,-4.721689E-2,1.3544018E-3,1.1539123E-1],"split_indices":[1,0,6,1,1,1,1,0,1,6,6,0,0,0,6,0,5,0,0,6,0,5,0,0,0,1,1,6,2,0,0,0,0,0,0,0,0,0,6,0,0,0,0,0,0,0,0,1,1,0,0,0,0,6,2,0,0,0,0,0,0,0,0,0,0,0,0,0,0],"split_type":[0,0,0,0,0,0,0,0,0,0,0,0,0,0,0,0,0,0,0,0,0,0,0,0,0,0,0,0,0,0,0,0,0,0,0,0,0,0,0,0,0,0,0,0,0,0,0,0,0,0,0,0,0,0,0,0,0,0,0,0,0,0,0,0,0,0,0,0,0],"sum_hessian":[6.345E3,5.419875E3,9.25125E2,4.97025E3,4.49625E2,3.9E2,5.35125E2,1.00125E2,4.870125E3,2.46375E2,2.0325E2,2.8575E2,1.0425E2,5.5875E1,4.7925E2,4.5105E3,3.59625E2,1.69875E2,7.65E1,1.03875E2,9.9375E1,2.17125E2,6.8625E1,1.05375E2,3.73875E2,3.939375E3,5.71125E2,2.385E2,1.21125E2,5.2125E1,1.1775E2,5.2125E1,5.175E1,1.32E2,8.5125E1,5.4E1,5.1375E1,2.77425E3,1.165125E3,2.40375E2,3.3075E2,8.775E1,1.5075E2,5.4375E1,6.675E1,6.825E1,6.375E1,2.151375E3,6.22875E2,6.5025E2,5.14875E2,7.6875E1,1.635E2,1.32E2,1.9875E2,1.44975E3,7.01625E2,1.97625E2,4.2525E2,2.04E2,4.4625E2,4.61625E2,5.325E1,9.7125E1,6.6375E1,6.7875E1,6.4125E1,5.4375E1,1.44375E2],"tree_param":{"num_deleted":"0","num_feature":"8","num_nodes":"69","size_leaf_vector":"1"}},{"base_weights":[1.412185E-1,1.5660897E-1,-6.610527E-2,1.0193191E-1,5.1489687E-1,1.5014338E-1,-3.857106E-1,7.243189E-1,1.8495297E-1,1.193185E-1,5.168539E-1,-6.149181E-1,-2.1422142E-1,9.477966E-1,5.9194946E-1,-7.2790295E-2,3.954481E-1,1.4266221E-1,-3.835103E-1,6.8075335E-1,9.568262E-3,-5.307557E-2,-6.5441184E-2,4.7750868E-2,-4.552058E-1,1.146245E-1,8.372569E-1,3.2911393E-1,7.910864E-1,8.174387E-3,-3.3644862E-2,5.973398E-1,1.0562181E-2,1.08457185E-1,6.7177033E-1,-2.2714682E-2,-5.073281E-2,7.8335726E-1,4.930468E-2,-5.3747714E-1,-2.8975267E-2,5.6658596E-2,1.02097906E-1,5.1731165E-2,1.7656501E-2,2.5084747E-2,1.15690865E-1,3.3414047E-2,8.436019E-2,1.4572635E-1,-6.0836977E-1,1.2132353E0,8.316832E-2,4.7124308E-2,9.710313E-1,-6.1538465E-2,-4.83965E-2,7.4911662E-3,3.4259032E-2,-4.9541287E-2,-6.616541E-2,1.0405904E-1,1.3646209E-1,-2.8960818E-2,5.8932718E-2,8.269231E-2,1.0857143E-1],"categories":[],"categories_nodes":[],"categories_segments":[],"categories_sizes":[],"default_left":[0,0,0,0,0,0,0,0,0,0,0,0,0,0,0,0,0,0,0,0,0,0,0,0,0,0,0,0,0,0,0,0,0,0,0,0,0,0,0,0,0,0,0,0,0,0,0,0,0,0,0,0,0,0,0,0,0,0,0,0,0,0,0,0,0,0,0],"id":2,"left_children":[1,3,-1,5,7,9,11,13,15,17,19,21,23,25,27,29,31,33,35,37,-1,-1,-1,-1,39,-1,41,43,45,-1,-1,47,-1,49,51,-1,-1,53,-1,55,-1,-1,-1,-1,-1,-1,-1,-1,-1,57,59,61,63,-1,65,-1,-1,-1,-1,-1,-1,-1,-1,-1,-1,-1,-1],"loss_changes":[7.7876274E1,1.2103409E2,0E0,1.2616244E2,5.6396484E1,5.5123535E1,1.8848442E1,1.4233459E1,1.7335712E1,5.2930992E1,2.604535E1,3.378067E-1,4.6517223E1,3.0848236E0,1.6318413E1,5.9048557E0,1.0220663E1,7.785101E1,3.7592945E0,4.8547363E0,0E0,0E0,0E0,0E0,2.6551552E0,0E0,5.4945908E0,3.8777294E0,3.518463E1,0E0,0E0,6.41848E0,0E0,1.0816307E2,8.316139E1,0E0,0E0,9.749229E0,0E0,2.7228546E-1,0E0,0E0,0E0,0E0,0E0,0E0,0E0,0E0,0E0,5.359436E1,8.767319E-1,2.1344757E0,2.3992043E1,0E0,8.85025E-1,0E0,0E0,0E0,0E0,0E0,0E0,0E0,0E0,0E0,0E0,0E0,0E0],"parents":[2147483647,0,0,1,1,3,3,4,4,5,5,6,6,7,7,8,8,9,9,10,10,11,11,12,12,13,13,14,14,15,15,16,16,17,17,18,18,19,19,24,24,26,26,27,27,28,28,31,31,33,33,34,34,37,37,39,39,49,49,50,50,51,51,52,52,54,54],"right_children":[2,4,-1,6,8,10,12,14,16,18,20,22,24,26,28,30,32,34,36,38,-1,-1,-1,-1,40,-1,42,44,46,-1,-1,48,-1,50,52,-1,-1,54,-1,56,-1,-1,-1,-1,-1,-1,-1,-1,-1,58,60,62,64,-1,66,-1,-1,-1,-1,-1,-1,-1,-1,-1,-1,-1,-1],"split_conditions":[1.4561822E0,1.2110934E0,-6.610527E-2,1.1315395E0,1.2952225E0,1.054753E0,1.0817056E0,1.2037407E0,1.3747811E0,1.0077971E0,1.1407086E0,1.1069381E0,1.2107942E0,-1.6473453E-1,1.2841331E0,-5.200365E-1,1.3840679E0,3.0021366E-1,1.061779E0,1.1334449E0,9.568262E-3,-5.307557E-2,-6.5441184E-2,4.7750868E-2,1.1749176E0,1.146245E-1,3.5904709E-1,1.1904099E0,1.1966594E0,8.174387E-3,-3.3644862E-2,-3.5419944E-1,1.0562181E-2,1.8020678E-1,3.216276E-1,-2.2714682E-2,-5.073281E-2,-1.133396E0,4.930468E-2,1.1221998E0,-2.8975267E-2,5.6658596E-2,1.02097906E-1,5.1731165E-2,1.7656501E-2,2.5084747E-2,1.15690865E-1,3.3414047E-2,8.436019E-2,-1.0428222E-1,3.6758068E-1,7.1532136E-1,9.299871E-1,4.7124308E-2,1.0000858E0,-6.1538465E-2,-4.83965E-2,7.4911662E-3,3.4259032E-2,-4.9541287E-2,-6.616541E-2,1.0405904E-1,1.3646209E-1,-2.8960818E-2,5.8932718E-2,8.269231E-2,1.0857143E-1],"split_indices":[3,2,0,4,3,2,2,3,2,3,3,5,5,6,2,6,4,2,3,2,0,0,0,0,2,0,6,4,5,0,0,6,0,4,5,0,0,7,0,2,0,0,0,0,0,0,0,0,0,2,7,7,2,0,5,0,0,0,0,0,0,0,0,0,0,0,0],"split_type":[0,0,0,0,0,0,0,0,0,0,0,0,0,0,0,0,0,0,0,0,0,0,0,0,0,0,0,0,0,0,0,0,0,0,0,0,0,0,0,0,0,0,0,0,0,0,0,0,0,0,0,0,0,0,0,0,0,0,0,0,0,0,0,0,0,0,0],"sum_hessian":[6.29775E3,6.18E3,1.1775E2,5.362875E3,8.17125E2,4.881E3,4.81875E2,4.99125E2,3.18E2,4.50375E3,3.7725E2,2.05125E2,2.7675E2,1.83375E2,3.1575E2,1.4325E2,1.7475E2,4.304625E3,1.99125E2,2.71125E2,1.06125E2,7.0125E1,1.35E2,7.125E1,2.055E2,6.225E1,1.21125E2,1.3725E2,1.785E2,9.075E1,5.25E1,1.02375E2,7.2375E1,4.044375E3,2.6025E2,8.925E1,1.09875E2,1.7325E2,9.7875E1,1.3575E2,6.975E1,5.0625E1,7.05E1,6.0375E1,7.6875E1,7.275E1,1.0575E2,5.0625E1,5.175E1,3.84525E3,1.99125E2,1.35E2,1.2525E2,6.6375E1,1.06875E2,5.1E1,8.475E1,2.829E3,1.01625E3,6.7125E1,1.32E2,6.675E1,6.825E1,7.2375E1,5.2875E1,5.1E1,5.5875E1],"tree_param":{"num_deleted":"0","num_feature":"8","num_nodes":"67","size_leaf_vector":"1"}},{"base_weights":[1.3479517E-1,2.3979989E-1,-4.3612108E-1,1.5007003E-1,1.3723472E0,-1.8430884E-1,-6.1149824E-1,1.5E-1,1.2369261E-1,1.7186173E0,9.761743E-1,-1.1231101E-2,-6.254144E-2,-4.5495093E-1,-6.6053465E-2,-1.1914007E-1,2.1529664E-1,1.4018692E-1,1.8177381E-1,5.5837568E-2,1.4426707E-1,-2.562929E-1,7.339131E-2,-6.551724E-2,-3.0977443E-2,3.4012696E-1,-3.005017E-1,7.074943E-1,4.388875E-3,-6.327504E-2,-4.4365574E-2,8.052054E-2,1.5129152E-1,9.494554E-3,-5.773557E-1,2.497561E-1,1.142525E0,-2.743355E-1,3.7969834E-1,-1.7892644E-2,6.329114E-3,-4.7564473E-2,2.996043E-1,-5.6126483E-2,1.03146285E-1,-4.0130505E-1,-6.532519E-2,1.4441417E-1,-1.0669828E-2,9.586675E-1,1.6925961E0,2.6265102E-2,-5.834836E-1,8.8982487E-1,-2.1864451E-1,1.8798152E-2,5.9707727E-2,2.278481E-2,-4.5825932E-2,-6.5885805E-2,-7.622504E-3,2.2382023E-2,-4.6153847E-2,1.3647643E-1,2.8987855E-2,1.4535104E-1,1.8978103E-1,5.676647E-2,-1.970857E-2,-4.1912176E-2,-6.609853E-2,3.591088E-2,1.1580354E-1,-5.7858285E-2,1.2310797E-2],"categories":[],"categories_nodes":[],"categories_segments":[],"categories_sizes":[],"default_left":[0,0,0,0,0,0,0,0,0,0,0,0,0,0,0,0,0,0,0,0,0,0,0,0,0,0,0,0,0,0,0,0,0,0,0,0,0,0,0,0,0,0,0,0,0,0,0,0,0,0,0,0,0,0,0,0,0,0,0,0,0,0,0,0,0,0,0,0,0,0,0,0,0,0,0],"id":3,"left_children":[1,3,5,7,9,11,13,-1,15,17,19,21,-1,23,-1,25,27,-1,-1,-1,-1,29,-1,-1,-1,31,33,35,37,-1,39,41,-1,43,45,47,49,51,53,-1,-1,-1,55,-1,57,59,-1,-1,61,63,65,67,69,71,73,-1,-1,-1,-1,-1,-1,-1,-1,-1,-1,-1,-1,-1,-1,-1,-1,-1,-1,-1,-1],"loss_changes":[3.7602167E2,5.381056E2,4.2923294E1,1.746258E2,5.165216E1,3.0645718E1,4.1058044E0,0E0,1.0716326E2,3.9233398E0,3.4983246E1,5.302981E1,0E0,3.870119E0,0E0,1.1003912E2,3.630665E2,0E0,0E0,0E0,0E0,1.7404213E1,0E0,0E0,0E0,1.1378554E2,8.125906E1,2.0862708E2,2.5632812E2,0E0,2.0520933E0,3.759516E1,0E0,2.3984615E1,6.4203186E0,1.5942801E2,5.274994E1,1.3068668E2,3.1893158E2,0E0,0E0,0E0,7.2301636E0,0E0,2.7083862E1,1.278068E1,0E0,0E0,4.4692486E1,1.0966748E2,3.785431E0,8.64351E1,8.553833E0,7.9848175E1,5.928508E1,0E0,0E0,0E0,0E0,0E0,0E0,0E0,0E0,0E0,0E0,0E0,0E0,0E0,0E0,0E0,0E0,0E0,0E0,0E0,0E0],"parents":[2147483647,0,0,1,1,2,2,3,3,4,4,5,5,6,6,8,8,9,9,10,10,11,11,13,13,15,15,16,16,21,21,25,25,26,26,27,27,28,28,30,30,31,31,33,33,34,34,35,35,36,36,37,37,38,38,42,42,44,44,45,45,48,48,49,49,50,50,51,51,52,52,53,53,54,54],"right_children":[2,4,6,8,10,12,14,-1,16,18,20,22,-1,24,-1,26,28,-1,-1,-1,-1,30,-1,-1,-1,32,34,36,38,-1,40,42,-1,44,46,48,50,52,54,-1,-1,-1,56,-1,58,60,-1,-1,62,64,66,68,70,72,74,-1,-1,-1,-1,-1,-1,-1,-1,-1,-1,-1,-1,-1,-1,-1,-1,-1,-1,-1,-1],"split_conditions":[1.2071196E0,1.2238075E0,-4.4074965E-1,-1.671808E0,1.1102599E0,1.3747811E0,1.2712733E0,1.5E-1,-1.0279573E0,1.256232E0,1.2437427E0,1.3305594E0,-6.254144E-2,1.0824512E0,-6.6053465E-2,-1.4180028E0,-1.9948071E-1,1.4018692E-1,1.8177381E-1,5.5837568E-2,1.4426707E-1,1.1889682E0,7.339131E-2,-6.551724E-2,-3.0977443E-2,-1.3095244E0,4.8870146E-1,-8.088129E-1,1.7993383E-1,-6.327504E-2,1.256232E0,-1.6092124E0,1.5129152E-1,-1.4302617E0,-1.2039256E0,-1.224261E0,-6.1346687E-2,-1.8999204E-1,1.0357844E0,-1.7892644E-2,6.329114E-3,-4.7564473E-2,-1.3993179E0,-5.6126483E-2,-9.702963E-1,-1.3118598E0,-6.532519E-2,1.4441417E-1,-9.720256E-1,-3.5628894E-1,-1.2827264E-1,-8.5311905E-2,-6.0917918E-2,3.2410598E-1,1.0871763E0,1.8798152E-2,5.9707727E-2,2.278481E-2,-4.5825932E-2,-6.5885805E-2,-7.622504E-3,2.2382023E-2,-4.6153847E-2,1.3647643E-1,2.8987855E-2,1.4535104E-1,1.8978103E-1,5.676647E-2,-1.970857E-2,-4.1912176E-2,-6.609853E-2,3.591088E-2,1.1580354E-1,-5.7858285E-2,1.2310797E-2],"split_indices":[2,1,6,2,2,2,2,0,1,1,3,1,0,1,0,2,2,0,0,0,0,1,0,0,0,1,6,1,1,0,1,1,0,1,2,2,1,6,2,0,0,0,1,0,2,4,0,0,4,2,3,2,2,1,1,0,0,0,0,0,0,0,0,0,0,0,0,0,0,0,0,0,0,0,0],"split_type":[0,0,0,0,0,0,0,0,0,0,0,0,0,0,0,0,0,0,0,0,0,0,0,0,0,0,0,0,0,0,0,0,0,0,0,0,0,0,0,0,0,0,0,0,0,0,0,0,0,0,0,0,0,0,0,0,0,0,0,0,0,0,0,0,0,0,0,0,0,0,0,0,0,0,0],"sum_hessian":[6.269625E3,5.296125E3,9.735E2,4.908375E3,3.8775E2,4.005E2,5.73E2,9.3E1,4.815375E3,2.05125E2,1.82625E2,2.88375E2,1.12125E2,1.39125E2,4.33875E2,1.318875E3,3.4965E3,5.25E1,1.52625E2,9.75E1,8.5125E1,2.175E2,7.0875E1,5.7E1,8.2125E1,3.73125E2,9.4575E2,1.048125E3,2.448375E3,7.7625E1,1.39875E2,3.06375E2,6.675E1,4.46625E2,4.99125E2,5.115E2,5.36625E2,1.405125E3,1.04325E3,6.1875E1,7.8E1,8.625E1,2.20125E2,6.225E1,3.84375E2,1.5225E2,3.46875E2,9.075E1,4.2075E2,4.0425E2,1.32375E2,7.12875E2,6.9225E2,5.62875E2,4.80375E2,1.6125E2,5.8875E1,3.15E2,6.9375E1,8.4375E1,6.7875E1,2.77125E2,1.43625E2,2.50875E2,1.53375E2,6.4875E1,6.75E1,2.0775E2,5.05125E2,2.23875E2,4.68375E2,1.8975E2,3.73125E2,2.33625E2,2.4675E2],"tree_param":{"num_deleted":"0","num_feature":"8","num_nodes":"75","size_leaf_vector":"1"}},{"base_weights":[-3.8065022E-1,-4.3416777E-1,1.510339E-1,-4.5280322E-1,9.1267094E-2,-3.8135144E-1,-6.1855507E-1,-2.7892813E-1,6.0627993E-2,-4.5893013E-1,6.1465386E-2,-6.498229E-2,-4.2611277E-1,-4.386673E-2,-6.1979354E-3,-6.496257E-2,-3.9658737E-1,-1.0138918E-1,6.1622167E-1,-6.5080106E-2,-3.558437E-1,-2.0209521E-1,-5.659174E-1,1.479866E-1,-3.7826067E-1,1.1534931E-1,2.206911E-2,-4.8967123E-1,-9.113803E-3,-3.0814093E-1,9.366398E-2,-5.989249E-1,-2.7670875E-1,-3.423704E-2,3.869639E-1,-5.3458554E-1,-5.212217E-3,-4.2247456E-2,-5.3467628E-2,-3.773836E-2,-4.974661E-3,-6.508982E-2,-5.2916735E-2,-1.5054866E-2,-4.6808384E-2,1.9766395E-3,7.722567E-2,-4.5568924E-2,-6.1787933E-2],"categories":[],"categories_nodes":[],"categories_segments":[],"categories_sizes":[],"default_left":[0,0,0,0,0,0,0,0,0,0,0,0,0,0,0,0,0,0,0,0,0,0,0,0,0,0,0,0,0,0,0,0,0,0,0,0,0,0,0,0,0,0,0,0,0,0,0,0,0],"id":4,"left_children":[1,3,-1,5,7,9,11,13,-1,15,17,-1,19,-1,-1,-1,21,23,25,-1,27,29,31,33,35,-1,-1,37,-1,39,-1,41,43,-1,45,47,-1,-1,-1,-1,-1,-1,-1,-1,-1,-1,-1,-1,-1],"loss_changes":[6.215016E2,5.8465576E1,0E0,6.801111E1,3.9292267E1,1.3844733E2,1.0158203E1,4.133936E0,0E0,4.0504883E1,5.4409748E1,0E0,3.6412697E0,0E0,0E0,0E0,8.506937E1,3.2223858E1,2.8786297E1,0E0,6.652891E0,1.458486E2,1.3028473E1,2.894088E1,1.1242483E1,0E0,0E0,1.531868E-1,0E0,1.972403E1,0E0,4.1502075E0,3.3928833E0,0E0,2.3435558E1,6.9973755E-1,0E0,0E0,0E0,0E0,0E0,0E0,0E0,0E0,0E0,0E0,0E0,0E0,0E0],"parents":[2147483647,0,0,1,1,3,3,4,4,5,5,6,6,7,7,9,9,10,10,12,12,16,16,17,17,18,18,20,20,21,21,22,22,23,23,24,24,27,27,29,29,31,31,32,32,34,34,35,35],"right_children":[2,4,-1,6,8,10,12,14,-1,16,18,-1,20,-1,-1,-1,22,24,26,-1,28,30,32,34,36,-1,-1,38,-1,40,-1,42,44,-1,46,48,-1,-1,-1,-1,-1,-1,-1,-1,-1,-1,-1,-1,-1],"split_conditions":[1.4305464E0,1.3863542E0,1.510339E-1,4.117787E-1,1.2735285E0,7.44474E-2,1.2916485E0,4.6163237E-1,6.0627993E-2,-1.1801857E0,2.5916725E-1,-6.498229E-2,1.0957592E0,-4.386673E-2,-6.1979354E-3,-6.496257E-2,-4.322224E-1,1.2720576E-1,2.2464298E-1,-6.5080106E-2,-1.0232697E-1,-8.593543E-1,3.307168E-2,-3.302466E-2,1.7239636E-1,1.1534931E-1,2.206911E-2,1.3215533E0,-9.113803E-3,-8.6662114E-1,9.366398E-2,-5.7387233E-2,4.826493E-3,-3.423704E-2,-1.729969E-1,1.8239686E-1,-5.212217E-3,-4.2247456E-2,-5.3467628E-2,-3.773836E-2,-4.974661E-3,-6.508982E-2,-5.2916735E-2,-1.5054866E-2,-4.6808384E-2,1.9766395E-3,7.722567E-2,-4.5568924E-2,-6.1787933E-2],"split_indices":[3,2,0,4,0,0,2,7,0,3,2,0,0,0,0,0,5,3,5,0,7,3,0,2,2,0,0,2,0,0,0,5,7,0,7,3,0,0,0,0,0,0,0,0,0,0,0,0,0],"split_type":[0,0,0,0,0,0,0,0,0,0,0,0,0,0,0,0,0,0,0,0,0,0,0,0,0,0,0,0,0,0,0,0,0,0,0,0,0,0,0,0,0,0,0,0,0,0,0,0,0],"sum_hessian":[6.133776E3,5.965709E3,1.6806718E2,5.7615054E3,2.0420364E2,4.028299E3,1.7332063E3,1.190721E2,8.5131546E1,3.4277437E3,6.005553E2,1.4889127E3,2.4429355E2,6.798951E1,5.1082584E1,8.421951E2,2.5855486E3,4.648971E2,1.3565822E2,5.6231E1,1.8806255E2,1.204386E3,1.3811626E3,2.4483858E2,2.2005852E2,5.67098E1,7.894842E1,1.2434663E2,6.3715927E1,1.1024489E3,1.0193715E2,1.2387163E3,1.4244626E2,8.008327E1,1.6475531E2,1.4832443E2,7.173408E1,5.404288E1,7.030374E1,8.6909467E2,2.3335425E2,7.0506885E2,5.3364746E2,8.692765E1,5.55186E1,8.48969E1,7.985841E1,7.949616E1,6.882827E1],"tree_param":{"num_deleted":"0","num_feature":"8","num_nodes":"49","size_leaf_vector":"1"}},{"base_weights":[1.2827867E-1,2.1301036E-1,-3.9909407E-1,1.3375542E-1,7.397093E-1,-1.5371503E-1,-5.8745337E-1,1.259443E0,1.08185574E-1,9.9463046E-1,2.8866166E-1,-8.859545E-3,-6.3560046E-2,-6.471088E-2,-4.619936E-1,9.201187E-2,1.6027254E-1,2.263528E-1,-6.0609866E-2,1.6409248E-1,8.869485E-1,-4.86755E-2,6.215145E-1,-4.0484548E-2,3.4476936E-1,-6.495631E-3,-6.491188E-2,5.994243E-2,8.179908E-1,-5.734029E-1,1.04111396E-1,-4.9390557E-4,1.0711004E0,8.674898E-1,5.3340844E-3,5.599869E-2,-2.7009686E-3,1.7048661E-1,-3.1880355E-1,1.2970203E0,4.8436153E-1,-6.475743E-2,-4.4352636E-1,2.091088E-1,-2.7758005E-1,1.1799587E0,4.9805537E-2,5.2113045E-2,1.2571114E-1,-5.1305526E-1,2.520625E-1,-4.2519188E-1,2.8210685E-2,1.7448896E-1,1.0974281E0,-5.1951498E-2,7.660511E-1,-2.0548176E-2,-6.4168565E-2,4.09655E-2,9.96884E-1,-4.6389785E-1,2.1667043E-2,9.71533E-1,1.5885389E-1,-2.0358777E-2,-6.405288E-2,3.1403877E-2,-3.2112755E-2,-1.2455616E-2,-5.5105444E-2,1.3584442E-1,5.3380847E-2,1.07186094E-1,6.517726E-2,2.2031596E-2,-5.527367E-2,6.96748E-2,1.5124318E-1,-6.4503774E-2,-2.696689E-2,1.4922653E-1,5.4898646E-2],"categories":[],"categories_nodes":[],"categories_segments":[],"categories_sizes":[],"default_left":[0,0,0,0,0,0,0,0,0,0,0,0,0,0,0,0,0,0,0,0,0,0,0,0,0,0,0,0,0,0,0,0,0,0,0,0,0,0,0,0,0,0,0,0,0,0,0,0,0,0,0,0,0,0,0,0,0,0,0,0,0,0,0,0,0,0,0,0,0,0,0,0,0,0,0,0,0,0,0,0,0,0,0],"id":5,"left_children":[1,3,5,7,9,11,13,15,17,19,21,23,-1,-1,25,-1,-1,27,29,-1,31,-1,33,-1,35,-1,-1,37,39,41,43,-1,45,47,-1,-1,-1,49,51,53,55,-1,57,59,61,63,-1,-1,-1,65,67,69,-1,-1,71,-1,73,-1,-1,75,77,79,-1,81,-1,-1,-1,-1,-1,-1,-1,-1,-1,-1,-1,-1,-1,-1,-1,-1,-1,-1,-1],"loss_changes":[2.8383E2,2.2830174E2,4.0552307E1,1.3679066E2,8.197308E1,2.6744902E1,3.4216156E0,1.0821732E1,9.281378E1,3.0326721E1,6.7342094E1,4.1542324E1,0E0,0E0,1.211977E1,0E0,0E0,2.6941187E2,1.619544E2,0E0,6.465646E1,0E0,2.5413506E1,0E0,1.255534E1,0E0,0E0,8.953349E1,9.53808E1,4.2031555E0,5.822936E1,0E0,1.976532E1,1.6492561E1,0E0,0E0,0E0,9.241139E1,3.1010414E1,2.0078156E1,1.00985435E2,0E0,8.010529E0,1.5082062E2,2.8976841E1,2.1743683E1,0E0,0E0,0E0,6.8433914E0,5.264788E1,1.547979E1,0E0,0E0,2.4708237E1,0E0,9.022736E0,0E0,0E0,1.0017503E2,2.9938202E1,7.849304E0,0E0,3.9591248E1,0E0,0E0,0E0,0E0,0E0,0E0,0E0,0E0,0E0,0E0,0E0,0E0,0E0,0E0,0E0,0E0,0E0,0E0,0E0],"parents":[2147483647,0,0,1,1,2,2,3,3,4,4,5,5,6,6,7,7,8,8,9,9,10,10,11,11,14,14,17,17,18,18,20,20,22,22,24,24,27,27,28,28,29,29,30,30,32,32,33,33,37,37,38,38,39,39,40,40,42,42,43,43,44,44,45,45,49,49,50,50,51,51,54,54,56,56,59,59,60,60,61,61,63,63],"right_children":[2,4,6,8,10,12,14,16,18,20,22,24,-1,-1,26,-1,-1,28,30,-1,32,-1,34,-1,36,-1,-1,38,40,42,44,-1,46,48,-1,-1,-1,50,52,54,56,-1,58,60,62,64,-1,-1,-1,66,68,70,-1,-1,72,-1,74,-1,-1,76,78,80,-1,82,-1,-1,-1,-1,-1,-1,-1,-1,-1,-1,-1,-1,-1,-1,-1,-1,-1,-1,-1],"split_conditions":[1.2286574E0,1.1175847E0,-4.4411308E-1,-1.6630899E0,1.154474E0,1.4084083E0,1.2818502E0,7.1532136E-1,-1.0096824E-1,9.367723E-1,1.256419E0,1.3250248E0,-6.3560046E-2,-6.471088E-2,1.3097862E0,9.201187E-2,1.6027254E-1,-2.6685154E-1,1.9039506E-2,1.6409248E-1,1.1123393E0,-4.86755E-2,1.3508385E0,-4.0484548E-2,1.3305594E0,-6.495631E-3,-6.491188E-2,-9.0763354E-1,-2.3344816E-1,-5.7387233E-2,1.065837E0,-4.9390557E-4,9.068722E-1,-1.0876698E0,5.3340844E-3,5.599869E-2,-2.7009686E-3,-1.5208706E0,-3.7386215E-1,-3.5907015E-1,-1.0781672E-1,-6.475743E-2,-1.3481773E-2,8.7412035E-1,1.1791364E0,1.2212193E0,4.9805537E-2,5.2113045E-2,1.2571114E-1,3.9528576E-1,-8.0751985E-1,1.3988493E-1,2.8210685E-2,1.7448896E-1,5.758777E-1,-5.1951498E-2,-1.8182655E-1,-2.0548176E-2,-6.4168565E-2,2.5916725E-1,1.0109054E0,1.0680735E0,2.1667043E-2,1.0600256E0,1.5885389E-1,-2.0358777E-2,-6.405288E-2,3.1403877E-2,-3.2112755E-2,-1.2455616E-2,-5.5105444E-2,1.3584442E-1,5.3380847E-2,1.07186094E-1,6.517726E-2,2.2031596E-2,-5.527367E-2,6.96748E-2,1.5124318E-1,-6.4503774E-2,-2.696689E-2,1.4922653E-1,5.4898646E-2],"split_indices":[1,2,7,1,1,1,5,7,1,1,5,5,0,0,1,0,0,2,5,0,3,0,2,0,1,0,0,1,1,5,1,0,7,7,0,0,0,5,2,1,5,0,1,2,5,3,0,0,0,7,2,7,0,0,7,0,1,0,0,2,4,5,0,1,0,0,0,0,0,0,0,0,0,0,0,0,0,0,0,0,0,0,0],"split_type":[0,0,0,0,0,0,0,0,0,0,0,0,0,0,0,0,0,0,0,0,0,0,0,0,0,0,0,0,0,0,0,0,0,0,0,0,0,0,0,0,0,0,0,0,0,0,0,0,0,0,0,0,0,0,0,0,0,0,0,0,0,0,0,0,0,0,0,0,0,0,0,0,0,0,0,0,0,0,0,0,0,0,0],"sum_hessian":[6.348868E3,5.470528E3,8.7834015E2,4.7561074E3,7.1442053E2,3.822249E2,4.961152E2,1.0456308E2,4.6515444E3,4.5567752E2,2.5874298E2,2.946662E2,8.7558716E1,3.3341876E2,1.6269646E2,5.4435543E1,5.012754E1,2.7359028E3,1.9156416E3,6.304573E1,3.926318E2,7.757087E1,1.811721E2,1.3893971E2,1.5572649E2,5.25482E1,1.1014826E2,2.136164E3,5.997388E2,4.6513885E2,1.4505027E3,6.7361E1,3.252708E2,1.2606771E2,5.5104397E1,9.8310005E1,5.741648E1,1.6539711E3,4.8219293E2,2.450315E2,3.547073E2,2.9352377E2,1.7161508E2,1.1379283E3,3.125743E2,2.724549E2,5.281591E1,6.7976555E1,5.8091152E1,1.7578036E2,1.4781908E3,4.0991232E2,7.228061E1,7.314889E1,1.718826E2,7.753746E1,2.7716986E2,7.8886894E1,9.2728195E1,9.38637E2,1.9929137E2,2.2704608E2,8.5528244E1,1.8265591E2,8.979897E1,5.203998E1,1.2374038E2,1.3343645E3,1.4382623E2,1.215551E2,2.8835724E2,1.1651398E2,5.536862E1,7.312027E1,2.0404958E2,7.213535E2,2.172835E2,1.2744707E2,7.184429E1,1.1628062E2,1.1076547E2,8.0687614E1,1.0196831E2],"tree_param":{"num_deleted":"0","num_feature":"8","num_nodes":"83","size_leaf_vector":"1"}},{"base_weights":[1.2664446E-1,2.1949328E-1,-4.120558E-1,1.3920473E-1,1.1586885E0,-1.2829034E-1,-5.9798735E-1,1.4132242E0,1.1261004E-1,3.2909113E-1,1.4260752E0,3.2489087E-2,-5.8960725E-2,-4.3656603E-1,-6.544006E-2,1.01386145E-1,1.7847519E-1,2.4318308E-1,-4.8850913E-2,2.2058336E-2,4.2545833E-2,1.744356E-1,1.0854448E0,-5.015542E-2,3.6231056E-1,-6.529892E-2,-3.113365E-3,7.744981E-2,1.1213545E0,-3.7434787E-1,2.9604852E-1,9.059464E-2,1.3297302E-1,1.04848914E-1,7.455985E-2,2.69458E-1,-1.6006042E-1,1.5079239E-2,1.3725622E0,-1.6352253E-1,-6.334057E-1,6.926844E-1,-2.3265171E-1,5.8739497E-3,1.4743337E-2,-1.5178135E-1,6.278665E-1,-3.0078638E-1,4.2340183E-1,9.9229616E-1,1.7380018E0,-4.9140805E-1,1.2969407E-2,-4.9239524E-2,-6.626012E-2,4.6039045E-1,1.192153E0,-5.9455746E-1,8.055198E-2,1.7291935E-2,-4.6852402E-2,4.6368405E-2,1.4721142E-1,-1.0654121E-2,-5.9742637E-2,1.2075167E-1,-2.2930754E-2,8.6969756E-2,1.1452023E-1,1.8545221E-1,1.551124E-1,-6.103028E-2,-2.9181859E-2,2.7562825E-2,-4.650326E-2,1.3013858E-1,2.0831129E-2,8.3971255E-2,1.4814617E-1,-4.122685E-2,-6.5299354E-2,-3.363837E-2,3.354976E-2],"categories":[],"categories_nodes":[],"categories_segments":[],"categories_sizes":[],"default_left":[0,0,0,0,0,0,0,0,0,0,0,0,0,0,0,0,0,0,0,0,0,0,0,0,0,0,0,0,0,0,0,0,0,0,0,0,0,0,0,0,0,0,0,0,0,0,0,0,0,0,0,0,0,0,0,0,0,0,0,0,0,0,0,0,0,0,0,0,0,0,0,0,0,0,0,0,0,0,0,0,0,0,0],"id":6,"left_children":[1,3,5,7,9,11,13,15,17,19,21,23,-1,25,-1,-1,-1,27,29,-1,-1,-1,31,-1,33,-1,-1,35,37,39,41,-1,-1,43,-1,45,47,-1,49,51,53,55,57,-1,-1,59,61,63,65,67,69,71,73,-1,-1,75,77,79,81,-1,-1,-1,-1,-1,-1,-1,-1,-1,-1,-1,-1,-1,-1,-1,-1,-1,-1,-1,-1,-1,-1,-1,-1],"loss_changes":[3.180304E2,4.0874466E2,4.9248047E1,1.6914174E2,9.423193E1,2.7562008E1,4.855057E0,1.3337463E1,1.0322461E2,1.0078678E0,3.3077454E1,4.885251E1,0E0,1.3071314E1,0E0,0E0,0E0,3.9388226E2,2.4594199E2,0E0,0E0,0E0,5.7434845E0,0E0,1.6836163E1,0E0,0E0,1.0393907E2,1.0455487E2,6.1449265E1,2.2323178E2,0E0,0E0,1.9494843E-1,0E0,1.9034888E2,8.3801025E1,0E0,4.569165E1,3.6041298E1,1.7540741E0,6.999783E1,5.1816685E1,0E0,0E0,5.9743084E1,9.3718414E1,4.727897E1,1.0183957E2,2.1823273E0,8.8323975E-1,4.9931755E0,5.1074036E1,0E0,0E0,8.8057304E1,1.8372772E1,1.9891052E0,2.623104E1,0E0,0E0,0E0,0E0,0E0,0E0,0E0,0E0,0E0,0E0,0E0,0E0,0E0,0E0,0E0,0E0,0E0,0E0,0E0,0E0,0E0,0E0,0E0,0E0],"parents":[2147483647,0,0,1,1,2,2,3,3,4,4,5,5,6,6,7,7,8,8,9,9,10,10,11,11,13,13,17,17,18,18,22,22,24,24,27,27,28,28,29,29,30,30,33,33,35,35,36,36,38,38,39,39,40,40,41,41,42,42,45,45,46,46,47,47,48,48,49,49,50,50,51,51,52,52,55,55,56,56,57,57,58,58],"right_children":[2,4,6,8,10,12,14,16,18,20,22,24,-1,26,-1,-1,-1,28,30,-1,-1,-1,32,-1,34,-1,-1,36,38,40,42,-1,-1,44,-1,46,48,-1,50,52,54,56,58,-1,-1,60,62,64,66,68,70,72,74,-1,-1,76,78,80,82,-1,-1,-1,-1,-1,-1,-1,-1,-1,-1,-1,-1,-1,-1,-1,-1,-1,-1,-1,-1,-1,-1,-1,-1],"split_conditions":[1.2103132E0,1.202167E0,-4.720164E-1,-1.6760981E0,1.0975221E0,1.3719473E0,1.2735285E0,7.090374E-1,-1.1336463E-1,2.1153273E-1,1.1119238E0,1.2167381E0,-5.8960725E-2,1.2301234E0,-6.544006E-2,1.01386145E-1,1.7847519E-1,-1.6182055E-1,1.932298E-1,2.2058336E-2,4.2545833E-2,1.744356E-1,1.2763784E0,-5.015542E-2,1.3138859E0,-6.529892E-2,-3.113365E-3,-1.0459162E0,-2.4368733E-1,-1.2218708E-1,1.050518E0,9.059464E-2,1.3297302E-1,-1.4427588E0,7.455985E-2,-1.31095E0,-3.7386215E-1,1.5079239E-2,-9.218119E-2,-5.0160337E-2,-5.784902E-2,1.0432256E0,1.0652827E0,5.8739497E-3,1.4743337E-2,8.133088E-2,-8.630949E-1,-8.4354395E-1,-2.5614578E-1,-6.055339E-1,-2.6792267E-1,-2.948732E-2,9.839389E-2,-4.9239524E-2,-6.626012E-2,9.839389E-2,1.0871763E0,-9.4293565E-1,1.1032842E0,1.7291935E-2,-4.6852402E-2,4.6368405E-2,1.4721142E-1,-1.0654121E-2,-5.9742637E-2,1.2075167E-1,-2.2930754E-2,8.6969756E-2,1.1452023E-1,1.8545221E-1,1.551124E-1,-6.103028E-2,-2.9181859E-2,2.7562825E-2,-4.650326E-2,1.3013858E-1,2.0831129E-2,8.3971255E-2,1.4814617E-1,-4.122685E-2,-6.5299354E-2,-3.363837E-2,3.354976E-2],"split_indices":[0,2,6,0,1,0,0,6,0,6,0,2,0,4,0,0,0,2,2,0,0,0,1,0,2,0,0,0,1,6,0,0,0,7,0,2,2,0,6,2,0,2,2,0,0,7,2,0,0,7,0,1,0,0,0,0,1,6,1,0,0,0,0,0,0,0,0,0,0,0,0,0,0,0,0,0,0,0,0,0,0,0,0],"split_type":[0,0,0,0,0,0,0,0,0,0,0,0,0,0,0,0,0,0,0,0,0,0,0,0,0,0,0,0,0,0,0,0,0,0,0,0,0,0,0,0,0,0,0,0,0,0,0,0,0,0,0,0,0,0,0,0,0,0,0,0,0,0,0,0,0,0,0,0,0,0,0,0,0,0,0,0,0,0,0,0,0,0,0],"sum_hessian":[6.355552E3,5.421679E3,9.338724E2,4.9957573E3,4.2592175E2,3.703463E2,5.6352606E2,1.0108607E2,4.8946714E3,1.0436093E2,3.2156082E2,2.7532043E2,9.502586E1,1.4820108E2,4.1532498E2,5.051517E1,5.05709E1,2.7059062E3,2.188765E3,5.0635372E1,5.3725563E1,1.6410358E2,1.5745724E2,1.0491788E2,1.7040256E2,9.622486E1,5.1976223E1,2.2772244E3,4.2868192E2,1.126012E3,1.062753E3,9.347867E1,6.397858E1,1.02694374E2,6.7708176E1,1.2591594E3,1.01806506E3,8.847018E1,3.4021176E2,6.2169666E2,5.043153E2,6.0703754E2,4.5571548E2,5.0448895E1,5.2245483E1,5.7910767E2,6.800517E2,8.206226E2,1.9744246E2,1.6854454E2,1.7166722E2,2.1691994E2,4.047767E2,8.9569855E1,4.1474545E2,4.1564856E2,1.91389E2,2.1100343E2,2.4471204E2,2.861857E2,2.9292197E2,5.706295E2,1.0942219E2,4.967204E2,3.2390222E2,8.9306496E1,1.0813596E2,9.7254585E1,7.128995E1,1.00241714E2,7.14255E1,1.34651E2,8.2268936E1,2.615049E2,1.4327179E2,9.489475E1,3.2075378E2,8.803989E1,1.0334913E2,5.317654E1,1.5782689E2,9.273486E1,1.5197717E2],"tree_param":{"num_deleted":"0","num_feature":"8","num_nodes":"83","size_leaf_vector":"1"}},{"base_weights":[1.17088325E-1,2.1065697E-1,-4.2566797E-1,1.2714396E-1,1.1586913E0,-1.8882218E-1,-6.057179E-1,1.3020719E0,1.01681426E-1,1.5291466E0,8.8725036E-1,-3.75285E-2,-6.101584E-2,-6.36715E-2,-3.9985307E-2,9.643712E-2,1.6456418E-1,-1.4313358E-1,1.9250308E-1,1.6754793E-1,1.4073034E-1,4.9074113E-1,1.3272573E0,-2.855191E-1,6.721817E-2,2.4750137E-1,-3.152357E-1,5.8347535E-1,-4.1644428E-2,8.6958624E-2,1.7705554E-2,1.06345415E-1,1.5151653E-1,-6.1900254E-2,-9.725194E-2,3.679811E-2,1.1889597E-1,4.6408333E-2,-5.161241E-1,3.765121E-1,1.1131451E0,-3.6253962E-1,3.2252404E-1,-2.6695117E-2,-2.0600555E-5,-4.6913657E-2,2.2155213E-1,-2.2611877E-2,1.3802814E-1,-6.0923606E-1,-2.938933E-1,1.1487248E0,1.5253954E-1,1.5922002E-1,8.607795E-1,-7.079093E-2,-5.7628846E-1,7.36125E-1,-2.5211388E-1,3.1871926E-2,-1.2565749E-2,2.6469944E-2,-1.1556381E-2,-5.1757246E-2,-6.428189E-2,5.606564E-3,-6.370202E-2,3.1739686E-2,1.4574605E-1,-1.16501525E-2,3.6366098E-2,-1.854135E-2,1.2630507E-1,-5.3922255E-2,4.717269E-3,-4.1927103E-2,-6.483906E-2,1.436299E-1,5.732264E-2,-5.828563E-2,5.368561E-3],"categories":[],"categories_nodes":[],"categories_segments":[],"categories_sizes":[],"default_left":[0,0,0,0,0,0,0,0,0,0,0,0,0,0,0,0,0,0,0,0,0,0,0,0,0,0,0,0,0,0,0,0,0,0,0,0,0,0,0,0,0,0,0,0,0,0,0,0,0,0,0,0,0,0,0,0,0,0,0,0,0,0,0,0,0,0,0,0,0,0,0,0,0,0,0,0,0,0,0,0,0],"id":7,"left_children":[1,3,5,7,9,11,13,15,17,19,21,23,-1,-1,-1,-1,-1,25,27,-1,-1,29,31,33,-1,35,37,39,41,-1,-1,-1,-1,-1,43,45,-1,47,49,51,53,55,57,-1,-1,-1,59,-1,61,63,65,67,69,-1,71,73,75,77,79,-1,-1,-1,-1,-1,-1,-1,-1,-1,-1,-1,-1,-1,-1,-1,-1,-1,-1,-1,-1,-1,-1],"loss_changes":[3.2396085E2,4.3057227E2,3.988936E1,1.4947806E2,4.2919556E1,2.5895706E1,3.143341E0,1.0710815E1,1.0888577E2,9.3722534E-1,4.4098953E1,5.3033657E1,0E0,0E0,0E0,0E0,0E0,8.918242E1,3.269807E2,0E0,0E0,1.6067951E1,4.3864136E0,1.3952723E1,0E0,8.0474556E1,6.689702E1,1.4623718E2,2.6126328E2,0E0,0E0,0E0,0E0,0E0,2.3688369E0,3.1203014E1,0E0,8.261817E0,1.2067627E1,1.6646107E2,4.400995E1,7.406885E1,2.4909772E2,0E0,0E0,0E0,8.285056E0,0E0,7.975176E0,9.48349E-1,2.1252436E1,5.5095184E1,4.252932E1,0E0,1.0461743E2,2.7856201E1,7.4916687E0,6.866434E1,4.4438545E1,0E0,0E0,0E0,0E0,0E0,0E0,0E0,0E0,0E0,0E0,0E0,0E0,0E0,0E0,0E0,0E0,0E0,0E0,0E0,0E0,0E0,0E0],"parents":[2147483647,0,0,1,1,2,2,3,3,4,4,5,5,6,6,7,7,8,8,9,9,10,10,11,11,17,17,18,18,21,21,22,22,23,23,25,25,26,26,27,27,28,28,34,34,35,35,37,37,38,38,39,39,40,40,41,41,42,42,46,46,48,48,49,49,50,50,51,51,52,52,54,54,55,55,56,56,57,57,58,58],"right_children":[2,4,6,8,10,12,14,16,18,20,22,24,-1,-1,-1,-1,-1,26,28,-1,-1,30,32,34,-1,36,38,40,42,-1,-1,-1,-1,-1,44,46,-1,48,50,52,54,56,58,-1,-1,-1,60,-1,62,64,66,68,70,-1,72,74,76,78,80,-1,-1,-1,-1,-1,-1,-1,-1,-1,-1,-1,-1,-1,-1,-1,-1,-1,-1,-1,-1,-1,-1],"split_conditions":[1.2071196E0,1.2189904E0,-3.81697E-1,-1.671808E0,1.0817056E0,1.3747811E0,1.4084083E0,7.6710457E-1,-1.0279573E0,1.0043081E0,1.2437427E0,1.3305594E0,-6.101584E-2,-6.36715E-2,-3.9985307E-2,9.643712E-2,1.6456418E-1,-1.4082031E0,-1.3538222E-1,1.6754793E-1,1.4073034E-1,-8.5511106E-1,-1.8415408E-1,1.1889682E0,6.721817E-2,-1.3095244E0,7.824333E-2,-1.3070607E-1,1.7993383E-1,8.6958624E-2,1.7705554E-2,1.06345415E-1,1.5151653E-1,-6.1900254E-2,1.2378865E0,-1.6092124E0,1.1889597E-1,-1.2719307E0,-1.1549908E0,-1.1334904E0,-2.809315E-1,-4.543741E-1,1.048575E0,-2.6695117E-2,-2.0600555E-5,-4.6913657E-2,2.9299256E-1,-2.2611877E-2,-1.0389771E0,-1.2489079E0,-9.4953793E-1,6.3252205E-1,-8.3804613E-1,1.5922002E-1,-1.4151552E-1,-8.9194484E-2,-2.5959656E-2,1.0683257E-1,1.0871763E0,3.1871926E-2,-1.2565749E-2,2.6469944E-2,-1.1556381E-2,-5.1757246E-2,-6.428189E-2,5.606564E-3,-6.370202E-2,3.1739686E-2,1.4574605E-1,-1.16501525E-2,3.6366098E-2,-1.854135E-2,1.2630507E-1,-5.3922255E-2,4.717269E-3,-4.1927103E-2,-6.483906E-2,1.436299E-1,5.732264E-2,-5.828563E-2,5.368561E-3],"split_indices":[2,1,6,2,2,2,1,7,1,2,3,1,0,0,0,0,0,2,2,0,0,6,7,1,0,1,6,1,1,0,0,0,0,0,1,1,0,1,1,2,2,7,2,0,0,0,6,0,2,2,2,7,1,0,3,1,2,2,1,0,0,0,0,0,0,0,0,0,0,0,0,0,0,0,0,0,0,0,0,0,0],"split_type":[0,0,0,0,0,0,0,0,0,0,0,0,0,0,0,0,0,0,0,0,0,0,0,0,0,0,0,0,0,0,0,0,0,0,0,0,0,0,0,0,0,0,0,0,0,0,0,0,0,0,0,0,0,0,0,0,0,0,0,0,0,0,0,0,0,0,0,0,0,0,0,0,0,0,0,0,0,0,0,0,0],"sum_hessian":[6.376303E3,5.439219E3,9.3708405E2,4.9999077E3,4.3931125E2,4.0559497E2,5.314891E2,1.04993965E2,4.894914E3,1.8381377E2,2.5549748E2,2.9923465E2,1.06360306E2,4.601165E2,7.137259E1,5.48691E1,5.012487E1,1.3243842E3,3.5705298E3,7.772075E1,1.06093025E2,1.3550415E2,1.1999334E2,2.2219266E2,7.704201E1,4.0490298E2,9.1948114E2,1.3368339E3,2.2336958E3,6.057464E1,7.4929504E1,5.268647E1,6.730686E1,7.934988E1,1.4284277E2,3.3170483E2,7.319817E1,3.2863458E2,5.9084656E2,9.6246924E2,3.7436462E2,1.1873981E3,1.0462979E3,5.133141E1,9.151137E1,8.83168E1,2.4338802E2,8.231551E1,2.4631906E2,4.1515884E2,1.7568774E2,2.1546388E2,7.470054E2,1.27337E2,2.4702762E2,5.0265228E2,6.847457E2,6.0823444E2,4.380634E2,1.9023306E2,5.315495E1,1.6423735E2,8.208172E1,1.1571875E2,2.994401E2,8.739213E1,8.829561E1,5.889806E1,1.5656583E2,3.286459E2,4.1835944E2,6.875486E1,1.7827275E2,1.0039887E2,4.022534E2,2.1762856E2,4.671172E2,1.1332438E2,4.949101E2,2.1001367E2,2.2804971E2],"tree_param":{"num_deleted":"0","num_feature":"8","num_nodes":"81","size_leaf_vector":"1"}},{"base_weights":[-3.7085176E-1,-4.2493963E-1,1.2153311E0,-6.391595E-2,-3.90353E-1,1.4193425E-1,8.2163155E-2,-3.006362E-1,-5.440745E-1,-3.8522774E-1,4.2985905E-2,-5.836216E-1,6.568835E-3,-2.0236848E-1,-5.552944E-1,-1.7044346E-1,2.0302486E-1,-6.3021284E-1,-4.2162144E-1,-2.9422903E-1,1.09523915E-1,-5.9521574E-1,-3.1628087E-1,7.1453447E-3,-2.459173E-1,4.221903E-1,-8.9298815E-2,-6.350418E-2,-5.7172794E-2,-4.9331036E-1,-6.2010153E-3,-3.53109E-1,5.3813215E-2,-6.267816E-1,-4.9848312E-1,-1.9053541E-1,-5.139018E-2,-8.683197E-3,-3.2334852E-1,1.4935582E-2,6.5443054E-2,-3.0433849E-2,3.330871E-2,-3.269952E-2,-5.261511E-1,-4.6520974E-2,-2.6205618E-2,-7.1429475E-3,2.9570583E-2,-5.432996E-2,-6.358015E-2,-4.600527E-2,-6.353698E-2,-2.7939433E-2,-7.2403075E-3,-2.4707949E-2,-4.2106956E-2,-6.333184E-2,-4.449543E-2],"categories":[],"categories_nodes":[],"categories_segments":[],"categories_sizes":[],"default_left":[0,0,0,0,0,0,0,0,0,0,0,0,0,0,0,0,0,0,0,0,0,0,0,0,0,0,0,0,0,0,0,0,0,0,0,0,0,0,0,0,0,0,0,0,0,0,0,0,0,0,0,0,0,0,0,0,0,0,0],"id":8,"left_children":[1,3,5,-1,7,-1,-1,9,11,13,15,17,-1,19,21,23,25,27,29,31,-1,33,35,-1,37,39,41,-1,-1,43,-1,45,47,49,51,53,-1,-1,55,-1,-1,-1,-1,-1,57,-1,-1,-1,-1,-1,-1,-1,-1,-1,-1,-1,-1,-1,-1],"loss_changes":[5.0958392E2,4.2269653E1,1.4570038E1,0E0,6.8015015E1,0E0,0E0,9.082034E1,4.3942566E1,7.784732E1,2.1143955E1,1.2640076E1,0E0,1.4450307E2,1.2199768E1,4.8624663E0,2.2694172E1,1.1413574E-2,9.893242E0,2.3183998E1,0E0,3.0809937E0,4.5725727E0,0E0,2.4662323E0,1.2719524E1,1.3939561E1,0E0,0E0,1.5802155E0,0E0,9.748024E0,5.002641E0,2.8259277E-1,1.1718063E0,1.202169E0,0E0,0E0,9.083271E-1,0E0,0E0,0E0,0E0,0E0,2.0351944E0,0E0,0E0,0E0,0E0,0E0,0E0,0E0,0E0,0E0,0E0,0E0,0E0,0E0,0E0],"parents":[2147483647,0,0,1,1,2,2,4,4,7,7,8,8,9,9,10,10,11,11,13,13,14,14,15,15,16,16,17,17,18,18,19,19,21,21,22,22,24,24,25,25,26,26,29,29,31,31,32,32,33,33,34,34,35,35,38,38,44,44],"right_children":[2,4,6,-1,8,-1,-1,10,12,14,16,18,-1,20,22,24,26,28,30,32,-1,34,36,-1,38,40,42,-1,-1,44,-1,46,48,50,52,54,-1,-1,56,-1,-1,-1,-1,-1,58,-1,-1,-1,-1,-1,-1,-1,-1,-1,-1,-1,-1,-1,-1],"split_conditions":[1.4211475E0,-1.1877651E0,6.200835E-1,-6.391595E-2,4.117787E-1,1.4193425E-1,8.2163155E-2,7.44474E-2,1.3560688E0,-3.516088E-1,-2.0446515E-1,1.2565522E0,6.568835E-3,-8.3934116E-1,2.2725377E-2,-1.2329775E0,2.084732E-1,1.2301234E0,9.772929E-1,-8.1458515E-1,1.09523915E-1,4.2717713E-3,-1.03300944E-1,7.1453447E-3,1.2902975E-1,6.712795E-2,2.640307E-1,-6.350418E-2,-5.7172794E-2,1.2467761E0,-6.2010153E-3,-1.0718918E0,-9.050266E-1,-9.0471435E-1,1.7147177E-1,-8.71509E-1,-5.139018E-2,-8.683197E-3,2.577055E-1,1.4935582E-2,6.5443054E-2,-3.0433849E-2,3.330871E-2,-3.269952E-2,1.268067E0,-4.6520974E-2,-2.6205618E-2,-7.1429475E-3,2.9570583E-2,-5.432996E-2,-6.358015E-2,-4.600527E-2,-6.353698E-2,-2.7939433E-2,-7.2403075E-3,-2.4707949E-2,-4.2106956E-2,-6.333184E-2,-4.449543E-2],"split_indices":[4,3,7,0,4,0,0,0,3,3,6,4,0,3,0,7,4,4,6,0,0,5,6,0,0,3,3,0,0,3,0,0,3,7,7,6,0,0,5,0,0,0,0,0,5,0,0,0,0,0,0,0,0,0,0,0,0,0,0],"split_type":[0,0,0,0,0,0,0,0,0,0,0,0,0,0,0,0,0,0,0,0,0,0,0,0,0,0,0,0,0,0,0,0,0,0,0,0,0,0,0,0,0,0,0,0,0,0,0,0,0,0,0,0,0,0,0,0,0,0,0],"sum_hessian":[5.932651E3,5.73773E3,1.9492108E2,7.9517316E2,4.9425566E3,1.2667444E2,6.824664E1,3.122892E3,1.8196647E3,2.5058828E3,6.170093E2,1.7088756E3,1.10789085E2,1.2085809E3,1.297302E3,2.6437347E2,3.526358E2,1.3249346E3,3.8394107E2,1.1294014E3,7.917961E1,1.1103541E3,1.8694786E2,6.2883244E1,2.0149023E2,2.0128275E2,1.5135307E2,1.2147749E3,1.1015959E2,3.19814E2,6.412706E1,9.659692E2,1.6343219E2,8.330375E2,2.7731662E2,1.1545096E2,7.1496895E1,6.6658745E1,1.3483148E2,9.330805E1,1.07974686E2,1.00478325E2,5.0874752E1,5.4544025E1,2.6526996E2,4.3110287E2,5.3486633E2,1.0814406E2,5.5288128E1,8.7200745E1,7.4583673E2,2.1993225E2,5.7384384E1,6.511015E1,5.0340813E1,7.770944E1,5.7122036E1,1.1141691E2,1.5385306E2],"tree_param":{"num_deleted":"0","num_feature":"8","num_nodes":"59","size_leaf_vector":"1"}},{"base_weights":[1.11184545E-1,1.8973516E-1,-3.8848352E-1,1.1769226E-1,9.326697E-1,-1.6396111E-1,-5.846805E-1,1.0336128E0,9.083872E-2,1.1955266E0,6.2252814E-1,5.7324567E-3,-5.458629E-1,-4.165641E-2,-6.212851E-1,4.633411E-2,1.341937E-1,-2.0739922E-1,1.5792131E-1,1.3119172E0,6.894216E-2,4.0703997E-1,8.1808895E-1,-2.2446501E-1,8.402538E-2,-4.0970832E-2,-6.3323125E-2,-4.977066E-2,-6.388786E-2,1.3241088E-1,-4.3917066E-1,3.7926817E-1,-3.492183E-2,1.0559531E-1,1.4287299E-1,7.5813636E-2,1.083906E-3,9.985498E-2,6.362447E-2,-5.458648E-2,-2.1608239E-2,-1.0494219E-1,4.6473595E-1,-6.35474E-2,-6.0232675E-1,2.3477945E-1,8.443287E-1,-3.2547736E-1,2.841645E-1,-1.5183437E-2,7.2582327E-3,1.5573259E-1,-5.5063654E-2,1.5767949E-2,6.2375642E-2,-1.6987218E-2,6.7728097E-3,-5.043465E-1,-6.48399E-2,6.8595827E-1,7.2054386E-2,1.2635163E0,6.5067893E-1,-1.10352136E-1,-5.7513636E-1,7.633654E-1,-1.9786036E-1,2.6491422E-2,2.809563E-3,-3.9076325E-2,-6.3821174E-2,8.1756925E-3,8.396436E-2,-1.2564111E-2,2.8348109E-2,1.4657371E-1,1.0229063E-1,-2.2799244E-2,8.6687595E-2,-4.3413214E-2,3.6860225E-3,-4.0603843E-2,-6.345906E-2,2.3469964E-2,9.146077E-2,-5.5024028E-2,1.08379815E-2],"categories":[],"categories_nodes":[],"categories_segments":[],"categories_sizes":[],"default_left":[0,0,0,0,0,0,0,0,0,0,0,0,0,0,0,0,0,0,0,0,0,0,0,0,0,0,0,0,0,0,0,0,0,0,0,0,0,0,0,0,0,0,0,0,0,0,0,0,0,0,0,0,0,0,0,0,0,0,0,0,0,0,0,0,0,0,0,0,0,0,0,0,0,0,0,0,0,0,0,0,0,0,0,0,0,0,0],"id":9,"left_children":[1,3,5,7,9,11,13,15,17,19,21,23,25,-1,27,-1,-1,29,31,33,-1,35,37,39,-1,-1,-1,-1,-1,41,43,45,47,-1,-1,-1,-1,-1,-1,-1,49,51,53,55,57,59,61,63,65,-1,-1,67,-1,-1,-1,-1,-1,69,-1,71,73,75,77,79,81,83,85,-1,-1,-1,-1,-1,-1,-1,-1,-1,-1,-1,-1,-1,-1,-1,-1,-1,-1,-1,-1],"loss_changes":[2.5063904E2,2.951972E2,3.812175E1,1.23641846E2,3.9004944E1,2.6312925E1,2.5879974E0,2.455655E1,9.783664E1,1.4577423E1,9.1807785E0,5.43757E1,1.226387E0,0E0,5.0357056E-1,0E0,0E0,7.079155E1,1.7039047E2,4.847229E0,0E0,1.5209562E1,3.216011E0,1.44540205E1,0E0,0E0,0E0,0E0,0E0,2.88349E1,3.2698097E1,1.24684296E2,1.9794043E2,0E0,0E0,0E0,0E0,0E0,0E0,0E0,1.6922497E0,2.4914568E1,7.3350487E0,2.2849076E0,1.3535614E0,1.04155E2,3.490753E1,5.994983E1,2.3520279E2,0E0,0E0,1.8825257E0,0E0,0E0,0E0,0E0,0E0,1.6294689E0,0E0,3.485469E1,4.3682472E1,5.216324E0,5.7782333E1,2.868373E1,4.9395447E0,4.060321E1,5.4890026E1,0E0,0E0,0E0,0E0,0E0,0E0,0E0,0E0,0E0,0E0,0E0,0E0,0E0,0E0,0E0,0E0,0E0,0E0,0E0,0E0],"parents":[2147483647,0,0,1,1,2,2,3,3,4,4,5,5,6,6,7,7,8,8,9,9,10,10,11,11,12,12,14,14,17,17,18,18,19,19,21,21,22,22,23,23,29,29,30,30,31,31,32,32,40,40,41,41,42,42,43,43,44,44,45,45,46,46,47,47,48,48,51,51,57,57,59,59,60,60,61,61,62,62,63,63,64,64,65,65,66,66],"right_children":[2,4,6,8,10,12,14,16,18,20,22,24,26,-1,28,-1,-1,30,32,34,-1,36,38,40,-1,-1,-1,-1,-1,42,44,46,48,-1,-1,-1,-1,-1,-1,-1,50,52,54,56,58,60,62,64,66,-1,-1,68,-1,-1,-1,-1,-1,70,-1,72,74,76,78,80,82,84,86,-1,-1,-1,-1,-1,-1,-1,-1,-1,-1,-1,-1,-1,-1,-1,-1,-1,-1,-1,-1],"split_conditions":[1.2286574E0,1.200639E0,-3.81697E-1,-1.6367481E0,1.130995E0,1.3739878E0,-1.1419937E-1,3.504273E-1,-1.1727912E0,1.0001225E0,1.2437427E0,1.313112E0,1.3318775E0,-4.165641E-2,1.2518182E0,4.633411E-2,1.341937E-1,-1.3993179E0,-1.0096824E-1,1.1508583E0,6.894216E-2,-8.365335E-1,1.2144149E-2,1.1856039E0,8.402538E-2,-4.0970832E-2,-6.3323125E-2,-4.977066E-2,-6.388786E-2,-1.4931792E0,4.9867187E-2,-1.3221754E-1,2.162944E-1,1.0559531E-1,1.4287299E-1,7.5813636E-2,1.083906E-3,9.985498E-2,6.362447E-2,-5.458648E-2,1.2401066E0,2.1849996E-1,-7.280295E-1,-1.2741361E0,7.700954E-1,-1.1277083E0,-2.5661418E-1,-2.4928617E-1,1.0450484E0,-1.5183437E-2,7.2582327E-3,-8.2405895E-1,-5.5063654E-2,1.5767949E-2,6.2375642E-2,-1.6987218E-2,6.7728097E-3,-1.1277083E0,-6.48399E-2,3.286664E-2,-8.4354395E-1,-3.2243887E-1,-1.4151552E-1,-4.6694007E-2,-2.4871452E-2,3.0420598E-1,1.067264E0,2.6491422E-2,2.809563E-3,-3.9076325E-2,-6.3821174E-2,8.1756925E-3,8.396436E-2,-1.2564111E-2,2.8348109E-2,1.4657371E-1,1.0229063E-1,-2.2799244E-2,8.6687595E-2,-4.3413214E-2,3.6860225E-3,-4.0603843E-2,-6.345906E-2,2.3469964E-2,9.146077E-2,-5.5024028E-2,1.08379815E-2],"split_indices":[1,0,6,1,1,1,6,7,0,6,3,0,4,0,1,0,0,1,1,4,0,6,7,0,0,0,0,0,0,3,6,0,0,0,0,0,0,0,0,0,0,7,7,0,6,1,1,6,1,0,0,6,0,0,0,0,0,1,0,7,0,1,3,0,1,0,0,0,0,0,0,0,0,0,0,0,0,0,0,0,0,0,0,0,0,0,0],"split_type":[0,0,0,0,0,0,0,0,0,0,0,0,0,0,0,0,0,0,0,0,0,0,0,0,0,0,0,0,0,0,0,0,0,0,0,0,0,0,0,0,0,0,0,0,0,0,0,0,0,0,0,0,0,0,0,0,0,0,0,0,0,0,0,0,0,0,0,0,0,0,0,0,0,0,0,0,0,0,0,0,0,0,0,0,0,0,0],"sum_hessian":[6.3829536E3,5.5163696E3,8.665839E2,5.029786E3,4.8658362E2,4.0497604E2,4.6160785E2,1.421982E2,4.887588E3,2.618234E2,2.2476022E2,2.8107062E2,1.2390543E2,8.475022E1,3.7685764E2,5.0779644E1,9.141855E1,8.971073E2,3.9904807E3,2.1157469E2,5.0248688E1,1.08398026E2,1.1636219E2,2.2087474E2,6.019588E1,5.0654694E1,7.325074E1,5.061572E1,3.262419E2,3.6394318E2,5.331641E2,1.8574818E3,2.1329988E3,6.944468E1,1.4213002E2,5.6985973E1,5.1412052E1,5.6149055E1,6.0213135E1,8.481139E1,1.3606335E2,2.1270752E2,1.5123566E2,1.6187642E2,3.712877E2,1.418329E3,4.3915292E2,1.1164003E3,1.0165985E3,5.6850674E1,7.921268E1,1.3462155E2,7.8085976E1,5.2279488E1,9.895618E1,8.92752E1,7.260123E1,1.225698E2,2.487179E2,3.7509854E2,1.0432303E3,1.3702164E2,3.021313E2,6.004493E2,5.159509E2,5.0949988E2,5.0709866E2,7.1976654E1,6.2644894E1,6.8428246E1,5.414156E1,7.637368E1,2.9872485E2,5.3933167E2,5.0389874E2,7.168348E1,6.5338165E1,5.964926E1,2.4248201E2,1.8706598E2,4.1338333E2,1.3625316E2,3.7969778E2,1.1390346E2,3.955964E2,2.3541641E2,2.7168225E2],"tree_param":{"num_deleted":"0","num_feature":"8","num_nodes":"87","size_leaf_vector":"1"}},{"base_weights":[1.17547065E-1,2.0441474E-1,-4.1104674E-1,1.3096467E-1,1.0345819E0,-1.5601797E-1,-5.947649E-1,8.3592916E-1,9.197039E-2,3.0425657E-2,1.2592255E0,-2.0001293E-3,-6.0026314E-2,-6.3365436E-1,-4.324684E-2,4.2679474E-1,1.5692015E-1,-2.8886423E-1,1.6450305E-1,1.448186E0,9.448211E-1,-4.9897473E-2,3.1072354E-1,-5.5141684E-2,-6.447079E-2,4.045085E-3,6.21334E-1,7.200541E-2,-5.516E-1,4.0440798E-1,-3.68758E-2,1.3309364E0,1.5564458E-1,1.0420664E-1,8.199521E-2,5.0966456E-3,6.4292245E-2,1.16335526E-1,6.686335E-3,-3.845406E-2,1.6499303E-1,-4.4062233E-1,-6.377353E-1,2.216206E-1,1.0281099E0,-3.490088E-1,2.8932902E-1,1.461642E-1,1.17452756E-1,4.899643E-2,-4.9518496E-2,-6.397744E-2,-5.0581074E-3,-5.6004733E-2,-6.572654E-2,1.01033E0,8.159207E-2,2.4942545E-2,1.2224737E0,-1.4235356E-1,-6.236033E-1,7.0483065E-1,-2.1309155E-1,-1.9264834E-2,1.0412789E-2,6.17458E-2,1.5499151E-1,-1.1406696E-2,3.284046E-2,8.9135446E-2,1.462455E-1,-4.6273857E-2,3.2785584E-3,-5.443988E-2,-6.495183E-2,4.657809E-2,1.1225434E-1,-5.3627163E-2,1.1245893E-2],"categories":[],"categories_nodes":[],"categories_segments":[],"categories_sizes":[],"default_left":[0,0,0,0,0,0,0,0,0,0,0,0,0,0,0,0,0,0,0,0,0,0,0,0,0,0,0,0,0,0,0,0,0,0,0,0,0,0,0,0,0,0,0,0,0,0,0,0,0,0,0,0,0,0,0,0,0,0,0,0,0,0,0,0,0,0,0,0,0,0,0,0,0,0,0,0,0,0,0],"id":10,"left_children":[1,3,5,7,9,11,13,15,17,-1,19,21,-1,23,-1,25,-1,27,29,31,33,-1,35,-1,-1,-1,37,39,41,43,45,47,-1,-1,-1,-1,-1,-1,-1,-1,49,51,53,55,57,59,61,-1,-1,-1,63,-1,-1,-1,-1,65,67,-1,69,71,73,75,77,-1,-1,-1,-1,-1,-1,-1,-1,-1,-1,-1,-1,-1,-1,-1,-1],"loss_changes":[2.9353876E2,3.3459302E2,4.2185654E1,1.3859312E2,7.28002E1,2.5944477E1,3.0342407E0,7.861592E1,1.3211775E2,0E0,1.88797E1,4.4072945E1,0E0,2.6901245E-2,0E0,1.282749E1,0E0,7.259912E1,1.9407808E2,6.06781E-1,7.340698E-1,0E0,1.4987013E1,0E0,0E0,0E0,3.4082737E1,1.3789099E1,3.953415E0,2.087638E2,2.2254642E2,4.9516296E-1,0E0,0E0,0E0,0E0,0E0,0E0,0E0,0E0,1.87975E1,1.5255211E1,6.9122314E-3,1.5663168E2,6.253607E1,6.3290573E1,2.2327354E2,0E0,0E0,0E0,3.6075287E0,0E0,0E0,0E0,0E0,4.437767E1,5.8282295E1,0E0,2.5079163E1,3.5846954E1,6.3023376E-1,5.791638E1,5.104306E1,0E0,0E0,0E0,0E0,0E0,0E0,0E0,0E0,0E0,0E0,0E0,0E0,0E0,0E0,0E0,0E0],"parents":[2147483647,0,0,1,1,2,2,3,3,4,4,5,5,6,6,7,7,8,8,10,10,11,11,13,13,15,15,17,17,18,18,19,19,20,20,22,22,26,26,27,27,28,28,29,29,30,30,31,31,40,40,41,41,42,42,43,43,44,44,45,45,46,46,50,50,55,55,56,56,58,58,59,59,60,60,61,61,62,62],"right_children":[2,4,6,8,10,12,14,16,18,-1,20,22,-1,24,-1,26,-1,28,30,32,34,-1,36,-1,-1,-1,38,40,42,44,46,48,-1,-1,-1,-1,-1,-1,-1,-1,50,52,54,56,58,60,62,-1,-1,-1,64,-1,-1,-1,-1,66,68,-1,70,72,74,76,78,-1,-1,-1,-1,-1,-1,-1,-1,-1,-1,-1,-1,-1,-1,-1,-1],"split_conditions":[1.2103132E0,1.2071196E0,-4.4074965E-1,-1.5587909E0,1.0975221E0,1.3719473E0,1.3379858E0,-1.4180028E0,-1.171961E0,3.0425657E-2,1.1345867E0,1.2167381E0,-6.0026314E-2,-1.6460668E-1,-4.324684E-2,-6.7809904E-1,1.5692015E-1,1.4315769E-1,-1.1336463E-1,3.2388374E-1,1.1751434E0,-4.9897473E-2,1.3138859E0,-5.5141684E-2,-6.447079E-2,4.045085E-3,-1.6760981E0,-1.554769E0,-1.2504879E0,-1.412434E-1,2.0812957E-1,1.067264E0,1.5564458E-1,1.0420664E-1,8.199521E-2,5.0966456E-3,6.4292245E-2,1.16335526E-1,6.686335E-3,-3.845406E-2,-1.4118893E0,-1.4082031E0,-1.1362798E0,-1.2152256E0,-2.4368733E-1,-1.1419937E-1,1.037698E0,1.461642E-1,1.17452756E-1,4.899643E-2,-1.2726616E0,-6.397744E-2,-5.0581074E-3,-5.6004733E-2,-6.572654E-2,-9.600582E-1,-8.5214233E-1,2.4942545E-2,-2.0433506E-1,-4.4603776E-2,-2.3331346E-2,1.0191388E0,1.1670965E0,-1.9264834E-2,1.0412789E-2,6.17458E-2,1.5499151E-1,-1.1406696E-2,3.284046E-2,8.9135446E-2,1.462455E-1,-4.6273857E-2,3.2785584E-3,-5.443988E-2,-6.495183E-2,4.657809E-2,1.1225434E-1,-5.3627163E-2,1.1245893E-2],"split_indices":[0,2,6,0,1,0,5,2,2,0,0,2,0,7,0,7,0,6,0,6,0,0,2,0,0,0,0,2,0,2,2,0,0,0,0,0,0,0,0,0,0,2,0,0,1,6,0,0,0,0,2,0,0,0,0,2,2,0,7,2,0,2,5,0,0,0,0,0,0,0,0,0,0,0,0,0,0,0,0],"split_type":[0,0,0,0,0,0,0,0,0,0,0,0,0,0,0,0,0,0,0,0,0,0,0,0,0,0,0,0,0,0,0,0,0,0,0,0,0,0,0,0,0,0,0,0,0,0,0,0,0,0,0,0,0,0,0,0,0,0,0,0,0,0,0,0,0,0,0,0,0,0,0,0,0,0,0,0,0,0,0],"sum_hessian":[6.389882E3,5.488526E3,9.013562E2,5.0434575E3,4.4506848E2,3.7820258E2,5.231536E2,2.632794E2,4.7801777E3,1.0525018E2,3.3981827E2,2.8158337E2,9.6619225E1,4.1968454E2,1.03469086E2,1.7000562E2,9.327377E1,7.6428687E2,4.015891E3,2.0999985E2,1.2981844E2,1.08523796E2,1.7305957E2,5.5755096E1,3.6392944E2,5.7339863E1,1.1266576E2,3.2231314E2,4.4197375E2,1.8321826E3,2.1837085E3,1.07196175E2,1.0280368E2,6.8852425E1,6.0966007E1,9.7766335E1,7.5293236E1,5.6417175E1,5.624858E1,5.4008663E1,2.6830447E2,1.958081E2,2.4616563E2,1.4179745E3,4.1420825E2,1.1158878E3,1.0678206E3,5.3850338E1,5.3345833E1,1.0617381E2,1.6213066E2,1.2919954E2,6.660857E1,5.541375E1,1.9075189E2,2.1285509E2,1.2051194E3,8.3193085E1,3.3101517E2,6.375766E2,4.7831116E2,5.842463E2,4.8357434E2,8.380653E1,7.832412E1,1.2441375E2,8.8441345E1,6.7252075E2,5.325986E2,1.4107626E2,1.8993889E2,2.2476608E2,4.1281055E2,1.2334299E2,3.5496817E2,3.729363E2,2.1130994E2,2.4234583E2,2.4122852E2],"tree_param":{"num_deleted":"0","num_feature":"8","num_nodes":"79","size_leaf_vector":"1"}},{"base_weights":[1.09594695E-1,6.883471E-2,3.5192207E-1,1.1563279E-1,-3.839136E-1,6.4535916E-1,-1.8768977E-1,6.092627E-2,3.5390776E-1,-5.801262E-1,-2.2257772E-1,1.1632719E-1,1.0746244E0,8.333731E-2,-6.115919E-2,1.2204998E-1,-5.774976E-1,1.1409913E0,1.3984007E-1,-6.377038E-2,-5.380196E-1,4.2450882E-2,-4.3953332E-1,5.127253E-1,-2.0485185E-1,1.4102922E-1,5.8819634E-1,-1.3914585E-2,2.5697464E-2,4.5043852E-2,3.926197E-1,-4.1098353E-2,-6.1582726E-1,6.397845E-2,1.5625891E-1,-2.7844906E-1,4.360345E-1,-6.182177E-2,-4.439414E-2,-2.1688204E-2,-5.1592987E-2,5.985334E-3,9.8566934E-2,-2.7386462E-3,-4.8909873E-2,2.5430638E-2,9.651273E-2,1.6827205E-1,-1.7262805E-1,5.9590334E-1,1.0553301E-1,-5.262394E-2,-6.356376E-2,-5.063928E-1,-1.18640155E-1,1.9152889E-1,6.8657994E-1,7.8142606E-2,9.9616E-1,-3.5383037E-1,2.2683349E-3,-1.255655E-1,8.2765675E-1,-5.619149E-2,5.4144006E-2,-3.6790296E-2,-6.348112E-2,1.143797E-1,-4.9000736E-2,4.6051216E-1,-1.8653486E-2,3.3301535E-1,1.4354005E-1,1.4936866E-2,-6.144787E-2,2.6378158E-2,1.2931871E-1,-1.280944E-2,-4.9324475E-2,4.146417E-2,-2.2437349E-2,1.3189966E-2,-3.531503E-2,1.446461E-1,5.628864E-2,1.3254288E-2,-3.237351E-2,-1.8319203E-2,3.790022E-2,4.001149E-2,5.1073093E-2,5.8154583E-2,1.3548537E-2],"categories":[],"categories_nodes":[],"categories_segments":[],"categories_sizes":[],"default_left":[0,0,0,0,0,0,0,0,0,0,0,0,0,0,0,0,0,0,0,0,0,0,0,0,0,0,0,0,0,0,0,0,0,0,0,0,0,0,0,0,0,0,0,0,0,0,0,0,0,0,0,0,0,0,0,0,0,0,0,0,0,0,0,0,0,0,0,0,0,0,0,0,0,0,0,0,0,0,0,0,0,0,0,0,0,0,0,0,0,0,0,0,0],"id":11,"left_children":[1,3,5,7,9,11,13,15,17,19,21,23,25,27,-1,29,31,33,35,-1,37,-1,39,41,43,-1,45,-1,-1,47,49,-1,51,-1,-1,53,55,-1,-1,-1,-1,-1,-1,-1,-1,-1,-1,57,59,61,63,-1,-1,65,67,69,71,73,75,77,79,81,83,85,-1,-1,-1,87,-1,89,-1,91,-1,-1,-1,-1,-1,-1,-1,-1,-1,-1,-1,-1,-1,-1,-1,-1,-1,-1,-1,-1,-1],"loss_changes":[6.2965004E1,1.15734344E2,1.454744E2,6.4495804E1,1.6070976E1,1.3496132E2,3.7289318E1,1.5719592E2,1.5552023E2,2.1522522E-1,3.9840534E1,3.417188E1,5.2769073E1,7.707716E0,0E0,7.6563416E1,1.9934921E0,4.0717926E1,9.026103E1,0E0,7.7742004E-1,0E0,3.4946136E0,2.5653896E1,7.4789863E0,0E0,1.6838993E1,0E0,0E0,7.680594E1,4.7453033E1,0E0,1.6976166E-1,0E0,0E0,1.0949059E1,2.5985245E1,0E0,0E0,0E0,0E0,0E0,0E0,0E0,0E0,0E0,0E0,1.3633392E2,3.2806763E1,7.976756E1,2.3910316E1,0E0,0E0,1.9762268E0,1.5543318E1,2.2168655E1,5.5167557E1,8.1478745E1,3.8684982E1,1.5937279E1,4.941617E1,6.8849597E0,5.829039E1,1.2564461E1,0E0,0E0,0E0,8.792622E0,0E0,1.8135834E-1,0E0,6.993888E0,0E0,0E0,0E0,0E0,0E0,0E0,0E0,0E0,0E0,0E0,0E0,0E0,0E0,0E0,0E0,0E0,0E0,0E0,0E0,0E0,0E0],"parents":[2147483647,0,0,1,1,2,2,3,3,4,4,5,5,6,6,7,7,8,8,9,9,10,10,11,11,12,12,13,13,15,15,16,16,17,17,18,18,20,20,22,22,23,23,24,24,26,26,29,29,30,30,32,32,35,35,36,36,47,47,48,48,49,49,50,50,53,53,54,54,55,55,56,56,57,57,58,58,59,59,60,60,61,61,62,62,63,63,67,67,69,69,71,71],"right_children":[2,4,6,8,10,12,14,16,18,20,22,24,26,28,-1,30,32,34,36,-1,38,-1,40,42,44,-1,46,-1,-1,48,50,-1,52,-1,-1,54,56,-1,-1,-1,-1,-1,-1,-1,-1,-1,-1,58,60,62,64,-1,-1,66,68,70,72,74,76,78,80,82,84,86,-1,-1,-1,88,-1,90,-1,92,-1,-1,-1,-1,-1,-1,-1,-1,-1,-1,-1,-1,-1,-1,-1,-1,-1,-1,-1,-1,-1],"split_conditions":[1.232936E0,1.1315395E0,1.3379858E0,2.2695862E-1,1.1153154E0,1.1559609E0,1.4211475E0,8.42382E-2,2.5863105E-1,1.0297762E0,1.222546E0,1.1971704E0,1.2779664E0,1.3305594E0,-6.115919E-2,-8.261401E-2,-3.5419944E-1,3.2410598E-1,1.065837E0,-6.377038E-2,3.3236837E-1,4.2450882E-2,-1.0001221E0,1.037698E0,1.2947793E0,1.4102922E-1,1.2103132E0,-1.3914585E-2,2.5697464E-2,-8.6662114E-1,3.6493067E-2,-4.1098353E-2,4.891285E-2,6.397845E-2,1.5625891E-1,9.367723E-1,1.0837245E0,-6.182177E-2,-4.439414E-2,-2.1688204E-2,-5.1592987E-2,5.985334E-3,9.8566934E-2,-2.7386462E-3,-4.8909873E-2,2.5430638E-2,9.651273E-2,-8.3804613E-1,-2.683576E-1,-2.4492155E-1,1.13477126E-1,-5.262394E-2,-6.356376E-2,9.891933E-1,1.0990041E0,1.0439752E0,-8.365335E-1,-1.0005964E0,5.0256425E-1,-7.225288E-1,-1.4728168E-1,-1.7625974E-1,-1.01235084E-1,-2.7501278E-2,5.4144006E-2,-3.6790296E-2,-6.348112E-2,1.0451564E0,-4.9000736E-2,-7.1889085E-1,-1.8653486E-2,1.2107942E0,1.4354005E-1,1.4936866E-2,-6.144787E-2,2.6378158E-2,1.2931871E-1,-1.280944E-2,-4.9324475E-2,4.146417E-2,-2.2437349E-2,1.3189966E-2,-3.531503E-2,1.446461E-1,5.628864E-2,1.3254288E-2,-3.237351E-2,-1.8319203E-2,3.790022E-2,4.001149E-2,5.1073093E-2,5.8154583E-2,1.3548537E-2],"split_indices":[1,4,5,1,1,0,4,4,0,1,5,4,5,1,0,1,6,1,1,0,7,0,7,0,4,0,0,0,0,0,5,0,5,0,0,1,0,0,0,0,0,0,0,0,0,0,0,1,1,0,1,0,0,4,5,4,6,4,7,0,5,5,5,4,0,0,0,0,0,6,0,5,0,0,0,0,0,0,0,0,0,0,0,0,0,0,0,0,0,0,0,0,0],"split_type":[0,0,0,0,0,0,0,0,0,0,0,0,0,0,0,0,0,0,0,0,0,0,0,0,0,0,0,0,0,0,0,0,0,0,0,0,0,0,0,0,0,0,0,0,0,0,0,0,0,0,0,0,0,0,0,0,0,0,0,0,0,0,0,0,0,0,0,0,0,0,0,0,0,0,0,0,0,0,0,0,0,0,0,0,0,0,0,0,0,0,0,0,0],"sum_hessian":[6.3761963E3,5.4592266E3,9.1696967E2,4.9484746E3,5.107518E2,5.93845E2,3.231247E2,4.0254995E3,9.2297516E2,2.2929422E2,2.8145758E2,2.665797E2,3.272653E2,1.9759396E2,1.2553074E2,3.6745054E3,3.509941E2,1.964261E2,7.265491E2,9.0879036E1,1.3841519E2,7.043204E1,2.1102553E2,1.1905099E2,1.4752872E2,1.9251666E2,1.3474861E2,8.670135E1,1.1089261E2,2.8613196E3,8.13186E2,6.7870255E1,2.8312384E2,9.089052E1,1.0553559E2,3.012211E2,4.2532794E2,7.171207E1,6.670312E1,5.4890553E1,1.5613498E2,6.139152E1,5.7659466E1,9.1499E1,5.602972E1,7.234193E1,6.2406693E1,1.8271577E3,1.0341617E3,4.7544897E2,3.37737E2,5.6260647E1,2.268632E2,1.2325188E2,1.7796924E2,2.1615155E2,2.0917639E2,1.6487573E3,1.784004E2,5.074217E2,5.2674005E2,1.1570555E2,3.597434E2,2.4697769E2,9.0759315E1,6.1160114E1,6.209176E1,1.0977886E2,6.819037E1,1.2616798E2,8.9983574E1,1.4306926E2,6.610714E1,1.4957278E3,1.5302956E2,5.2020878E1,1.26379524E2,1.9446614E2,3.1295554E2,1.865266E2,3.4021344E2,5.448616E1,6.1219395E1,1.0646264E2,2.5328078E2,1.4511395E2,1.0186373E2,5.1817303E1,5.796156E1,6.135037E1,6.481761E1,6.249478E1,8.057447E1],"tree_param":{"num_deleted":"0","num_feature":"8","num_nodes":"93","size_leaf_vector":"1"}},{"base_weights":[-3.5373002E-1,-3.9960182E-1,1.2896569E-1,-4.2358223E-1,1.0938589E-1,-3.4838337E-1,-5.992431E-1,5.6241173E-2,-9.293425E-2,-3.9896616E-1,2.0507097E-1,-6.254446E-2,-4.137025E-1,-5.3031106E-2,1.07873864E-1,-6.280312E-2,-3.3524376E-1,3.8992777E-1,-2.3441369E-2,-4.82761E-1,-2.5504222E-2,-7.866566E-3,2.9035334E-2,-1.8001117E-1,-4.496133E-1,6.1196696E-2,2.4034645E-2,1.6860856E-2,-3.6497798E-2,-5.776462E-2,-4.0155116E-2,-2.7110907E-1,1.2938963E-1,-5.4886895E-1,-2.1075752E-1,-4.2485367E-3,-3.27988E-2,-6.1724003E-2,-4.482774E-2,1.8726157E-2,-3.6199164E-2],"categories":[],"categories_nodes":[],"categories_segments":[],"categories_sizes":[],"default_left":[0,0,0,0,0,0,0,0,0,0,0,0,0,0,0,0,0,0,0,0,0,0,0,0,0,0,0,0,0,0,0,0,0,0,0,0,0,0,0,0,0],"id":12,"left_children":[1,3,-1,5,7,9,11,-1,13,15,17,-1,19,-1,21,-1,23,25,27,29,-1,-1,-1,31,33,-1,-1,-1,-1,-1,-1,35,-1,37,39,-1,-1,-1,-1,-1,-1],"loss_changes":[4.364347E2,6.871942E1,0E0,7.077063E1,2.3327919E1,1.0548413E2,7.5650024E0,0E0,1.5550617E1,5.0148438E1,1.3355371E1,0E0,2.0912323E0,0E0,4.1664515E0,0E0,4.7878174E1,5.655653E0,9.3909025E0,8.4443665E-1,0E0,0E0,0E0,1.54441E2,3.6743195E1,0E0,0E0,0E0,0E0,0E0,0E0,1.4051575E1,0E0,7.2727356E0,2.7638111E1,0E0,0E0,0E0,0E0,0E0,0E0],"parents":[2147483647,0,0,1,1,3,3,4,4,5,5,6,6,8,8,9,9,10,10,12,12,14,14,16,16,17,17,18,18,19,19,23,23,24,24,31,31,33,33,34,34],"right_children":[2,4,-1,6,8,10,12,-1,14,16,18,-1,20,-1,22,-1,24,26,28,30,-1,-1,-1,32,34,-1,-1,-1,-1,-1,-1,36,-1,38,40,-1,-1,-1,-1,-1,-1],"split_conditions":[1.4561822E0,1.3747811E0,1.2896569E-1,3.2410598E-1,1.1933534E0,1.7239636E-1,1.2916485E0,5.6241173E-2,1.3043041E0,-1.1877651E0,1.21554025E-1,-6.254446E-2,3.4304833E-1,-5.3031106E-2,-3.81697E-1,-6.280312E-2,-6.619175E-1,1.9556984E-1,2.7138352E-1,1.2467256E0,-2.5504222E-2,-7.866566E-3,2.9035334E-2,-8.3934116E-1,-5.7579153E-3,6.1196696E-2,2.4034645E-2,1.6860856E-2,-3.6497798E-2,-5.776462E-2,-4.0155116E-2,-1.1861305E0,1.2938963E-1,-1.0943262E-1,-7.2992505E-3,-4.2485367E-3,-3.27988E-2,-6.1724003E-2,-4.482774E-2,1.8726157E-2,-3.6199164E-2],"split_indices":[3,2,0,1,1,2,2,0,5,3,1,0,7,0,6,0,1,7,6,1,0,0,0,3,3,0,0,0,0,0,0,1,0,3,1,0,0,0,0,0,0],"split_type":[0,0,0,0,0,0,0,0,0,0,0,0,0,0,0,0,0,0,0,0,0,0,0,0,0,0,0,0,0,0,0,0,0,0,0,0,0,0,0,0,0],"sum_hessian":[5.7815654E3,5.625303E3,1.5626205E2,5.3723584E3,2.5294505E2,3.7640046E3,1.6083535E3,7.754039E1,1.7540466E2,3.4490583E3,3.1494644E2,1.4072551E3,2.0109839E2,5.4675648E1,1.20729004E2,7.4872723E2,2.700331E3,1.7371335E2,1.412331E2,1.3868959E2,6.24088E1,5.9981678E1,6.074733E1,1.1466156E3,1.5537155E3,6.867728E1,1.0503608E2,9.072418E1,5.050892E1,6.1140408E1,7.754918E1,1.0806404E3,6.597517E1,1.0966915E3,4.5702396E2,2.1563731E2,8.650031E2,6.498552E2,4.468363E2,1.2577366E2,3.312503E2],"tree_param":{"num_deleted":"0","num_feature":"8","num_nodes":"41","size_leaf_vector":"1"}},{"base_weights":[1.0621978E-1,1.7909214E-1,-3.7906256E-1,8.196379E-2,6.403979E-1,-6.056338E-1,-1.9250223E-1,2.105111E-1,-1.5550426E-1,9.945067E-1,4.0639853E-1,-5.434242E-2,-6.2312003E-2,1.5601052E-1,-4.922836E-1,1.0102854E-1,7.1005607E-1,-3.569723E-1,1.1501726E-1,1.2998608E-1,8.6707103E-1,4.3529015E-2,7.449771E-1,-2.365626E-2,2.8307703E-1,-2.8268313E-2,-6.17184E-2,7.219322E-1,2.3193713E-2,1.2763564E-1,6.011584E-1,-1.5685408E-1,-5.68407E-1,4.6896857E-1,-5.200704E-1,1.0406992E0,5.417625E-2,2.8269914E-1,-1.725421E-1,9.614272E-1,5.4067254E-1,1.7433401E-2,4.7672834E-2,3.8767877E-1,1.3940634E-1,-1.8655376E-1,2.5940028E-1,-1.1972833E-2,7.3547095E-1,-4.6476673E-2,-5.374449E-2,-3.6217842E-2,-6.2286824E-2,4.0339846E-2,7.679458E-1,-2.7810246E-2,-6.2047422E-2,7.340384E-2,1.1898213E-1,5.245256E-2,-5.6521124E-3,-3.7299313E-2,-4.5351847E-3,7.651473E-2,1.15027145E-1,8.1757694E-2,2.5833031E-2,1.1154696E-2,5.158054E-1,6.1555516E-2,-4.826787E-1,3.9497137E-1,-4.5310822E-1,1.045379E0,5.5304086E-1,-4.442443E-1,2.1258356E-1,4.3873027E-1,-5.3407837E-2,1.0080703E0,2.48511E-2,9.5695555E-2,2.6784614E-5,-4.4623196E-2,1.2502521E-2,-2.3139805E-2,-6.214974E-2,9.7136244E-2,3.0528372E-2,-6.3665815E-2,-1.0807518E-2,1.2424733E-1,6.875702E-2,7.967692E-2,2.9902155E-2,-5.0798513E-2,-3.585398E-2,3.8688093E-2,1.4138745E-2,7.5370684E-2,1.4489899E-2,6.927421E-2,1.3240336E-1],"categories":[],"categories_nodes":[],"categories_segments":[],"categories_sizes":[],"default_left":[0,0,0,0,0,0,0,0,0,0,0,0,0,0,0,0,0,0,0,0,0,0,0,0,0,0,0,0,0,0,0,0,0,0,0,0,0,0,0,0,0,0,0,0,0,0,0,0,0,0,0,0,0,0,0,0,0,0,0,0,0,0,0,0,0,0,0,0,0,0,0,0,0,0,0,0,0,0,0,0,0,0,0,0,0,0,0,0,0,0,0,0,0,0,0,0,0,0,0,0,0,0,0],"id":13,"left_children":[1,3,5,7,9,11,13,15,17,19,21,-1,-1,23,25,27,29,31,33,-1,35,37,39,-1,41,-1,-1,43,45,-1,47,49,51,53,55,57,-1,59,61,63,65,-1,-1,67,-1,69,71,-1,73,75,-1,-1,-1,77,79,-1,-1,-1,-1,-1,-1,-1,-1,-1,-1,-1,-1,-1,81,83,85,87,89,91,93,95,97,99,-1,101,-1,-1,-1,-1,-1,-1,-1,-1,-1,-1,-1,-1,-1,-1,-1,-1,-1,-1,-1,-1,-1,-1,-1],"loss_changes":[2.2637628E2,2.4927556E2,3.5213326E1,1.403883E2,7.978134E1,7.145691E-2,4.812142E1,1.6310143E2,8.808265E1,1.38289795E1,7.176227E1,0E0,0E0,1.0712162E1,6.3036194E0,1.1830699E2,3.229773E1,3.909642E1,1.5541359E2,0E0,1.4922516E1,1.4680056E1,1.2845657E1,0E0,3.321495E0,0E0,0E0,6.0724213E1,1.0788797E2,0E0,4.381247E1,2.0020266E1,4.8279266E0,5.683918E1,5.840576E0,7.2518616E0,0E0,1.1084232E1,3.7912455E0,4.511963E0,1.2123226E1,0E0,0E0,6.4350376E0,0E0,8.47775E1,9.910958E1,0E0,2.0951126E1,3.83233E1,0E0,0E0,0E0,4.2205418E1,3.235005E1,0E0,0E0,0E0,0E0,0E0,0E0,0E0,0E0,0E0,0E0,0E0,0E0,0E0,2.844487E1,2.0312145E1,1.8203308E1,4.421231E1,1.0329258E1,9.017273E0,1.4733482E1,6.189747E-1,2.7416496E0,9.964424E0,0E0,1.6858658E1,0E0,0E0,0E0,0E0,0E0,0E0,0E0,0E0,0E0,0E0,0E0,0E0,0E0,0E0,0E0,0E0,0E0,0E0,0E0,0E0,0E0,0E0,0E0],"parents":[2147483647,0,0,1,1,2,2,3,3,4,4,5,5,6,6,7,7,8,8,9,9,10,10,13,13,14,14,15,15,16,16,17,17,18,18,20,20,21,21,22,22,24,24,27,27,28,28,30,30,31,31,32,32,33,33,34,34,35,35,37,37,38,38,39,39,40,40,43,43,45,45,46,46,48,48,49,49,53,53,54,54,68,68,69,69,70,70,71,71,72,72,73,73,74,74,75,75,76,76,77,77,79,79],"right_children":[2,4,6,8,10,12,14,16,18,20,22,-1,-1,24,26,28,30,32,34,-1,36,38,40,-1,42,-1,-1,44,46,-1,48,50,52,54,56,58,-1,60,62,64,66,-1,-1,68,-1,70,72,-1,74,76,-1,-1,-1,78,80,-1,-1,-1,-1,-1,-1,-1,-1,-1,-1,-1,-1,-1,82,84,86,88,90,92,94,96,98,100,-1,102,-1,-1,-1,-1,-1,-1,-1,-1,-1,-1,-1,-1,-1,-1,-1,-1,-1,-1,-1,-1,-1,-1,-1],"split_conditions":[1.2286574E0,1.0616411E0,1.2779664E0,-8.261401E-2,1.0723221E0,-3.5419944E-1,1.3305594E0,-1.5895516E-1,1.6526173E-1,9.508808E-1,1.2200351E0,-5.434242E-2,-6.2312003E-2,1.2200351E0,-9.4293565E-1,-1.5455033E0,-3.2243887E-1,-3.692359E-1,1.0113571E0,1.2998608E-1,4.1966245E-1,1.1434675E0,1.1595755E0,-2.365626E-2,1.2920467E0,-2.8268313E-2,-6.17184E-2,-1.4118893E0,-1.0304546E0,1.2763564E-1,-1.6680722E-1,1.13477126E-1,-2.948732E-2,2.8003722E-1,-9.4293565E-1,1.1398706E0,5.417625E-2,-8.069166E-1,1.222546E0,1.2437427E0,-3.692359E-1,1.7433401E-2,4.7672834E-2,-6.092896E-1,1.3940634E-1,4.2803243E-1,-2.2210614E-1,-1.1972833E-2,-1.8182655E-1,-4.6694007E-2,-5.374449E-2,-3.6217842E-2,-6.2286824E-2,1.6713174E-1,8.9475256E-1,-2.7810246E-2,-6.2047422E-2,7.340384E-2,1.1898213E-1,5.245256E-2,-5.6521124E-3,-3.7299313E-2,-4.5351847E-3,7.651473E-2,1.15027145E-1,8.1757694E-2,2.5833031E-2,1.1154696E-2,-1.6630899E0,-1.5587909E0,-1.2602237E0,-1.2498459E0,-1.2661149E-1,-5.7146177E-2,-5.076559E-1,-1.1991389E-1,-2.4871452E-2,-5.4328877E-1,-5.3407837E-2,4.021162E-1,2.48511E-2,9.5695555E-2,2.6784614E-5,-4.4623196E-2,1.2502521E-2,-2.3139805E-2,-6.214974E-2,9.7136244E-2,3.0528372E-2,-6.3665815E-2,-1.0807518E-2,1.2424733E-1,6.875702E-2,7.967692E-2,2.9902155E-2,-5.0798513E-2,-3.585398E-2,3.8688093E-2,1.4138745E-2,7.5370684E-2,1.4489899E-2,6.927421E-2,1.3240336E-1],"split_indices":[1,0,5,1,1,6,1,0,0,1,0,0,0,0,6,1,1,6,1,0,6,1,1,0,1,0,0,0,0,0,3,1,1,0,6,0,0,6,5,3,6,0,0,6,0,6,1,0,1,0,0,0,0,4,1,0,0,0,0,0,0,0,0,0,0,0,0,0,1,0,1,1,5,4,6,0,1,6,0,0,0,0,0,0,0,0,0,0,0,0,0,0,0,0,0,0,0,0,0,0,0,0,0],"split_type":[0,0,0,0,0,0,0,0,0,0,0,0,0,0,0,0,0,0,0,0,0,0,0,0,0,0,0,0,0,0,0,0,0,0,0,0,0,0,0,0,0,0,0,0,0,0,0,0,0,0,0,0,0,0,0,0,0,0,0,0,0,0,0,0,0,0,0,0,0,0,0,0,0,0,0,0,0,0,0,0,0,0,0,0,0,0,0,0,0,0,0,0,0,0,0,0,0,0,0,0,0,0,0],"sum_hessian":[6.39846E3,5.5636294E3,8.3483075E2,4.596921E3,9.6670825E2,3.759752E2,4.5885553E2,2.982522E3,1.6143992E3,3.8334552E2,5.8336273E2,8.953143E1,2.8644376E2,2.1240376E2,2.4645177E2,2.4473513E3,5.3517053E2,9.2511206E2,6.892871E2,1.10167725E2,2.7317776E2,2.8212524E2,3.012375E2,5.1727974E1,1.6067578E2,9.324192E1,1.5320984E2,2.716969E2,2.1756545E3,8.458464E1,4.5058588E2,4.7616977E2,4.4894226E2,4.4277713E2,2.4650995E2,1.7667906E2,9.649871E1,1.3375873E2,1.4836653E2,1.4447153E2,1.5676595E2,1.041126E2,5.6563183E1,1.8251051E2,8.918638E1,1.152481E3,1.0231735E3,7.078343E1,3.7980246E2,3.6998914E2,1.0618064E2,9.538763E1,3.5355463E2,1.8240588E2,2.6037125E2,7.339698E1,1.7311298E2,5.974315E1,1.1693592E2,7.777063E1,5.5988102E1,5.6845623E1,9.1520905E1,7.331818E1,7.115335E1,7.818806E1,7.8577896E1,5.8438194E1,1.2407231E2,6.275109E2,5.2497003E2,8.5998694E2,1.631866E2,1.3897855E2,2.4082391E2,1.456459E2,2.2434323E2,1.0784541E2,7.456047E1,1.7741505E2,8.29562E1,6.639839E1,5.7673923E1,6.904975E1,5.584612E2,1.8776208E2,3.3720792E2,1.14473755E2,7.455132E2,1.05968506E2,5.721809E1,8.802093E1,5.095761E1,1.2181107E2,1.1901284E2,8.069997E1,6.494594E1,6.3776356E1,1.6056688E2,5.1294483E1,5.6550934E1,9.039461E1,8.702045E1],"tree_param":{"num_deleted":"0","num_feature":"8","num_nodes":"103","size_leaf_vector":"1"}},{"base_weights":[1.0649863E-1,1.18901365E-1,-6.2290926E-2,7.266679E-2,4.0464863E-1,1.0713453E-1,-3.8885733E-1,5.9702593E-1,1.7421602E-1,-3.472267E-1,1.24934055E-1,-5.456783E-1,-1.8895335E-1,8.255669E-1,5.239481E-1,-3.5100258E-3,3.3621433E-1,-4.8741475E-3,-6.065471E-2,5.74483E-1,9.8717436E-2,-6.3097276E-2,-4.7219627E-2,3.753775E-2,-4.3505007E-1,6.874356E-2,9.718635E-2,5.6856966E-1,2.9317483E-2,2.1243356E-2,-2.0135265E-2,5.40087E-1,1.2402355E-1,3.633735E-1,7.893551E-2,-1.1613672E-1,1.5255661E-1,-5.0636817E-2,-3.444889E-2,4.5950925E-1,7.3519665E-1,6.215611E-2,4.4049364E-2,2.863074E-2,-4.783962E-3,3.228085E-2,3.8955282E-2,1.03723116E-1,-4.6940336E-1,6.0718447E-1,1.06536835E-1,6.255739E-2,2.6458252E-2,5.239452E-2,9.218807E-2,-1.982092E-2,2.1928532E-2,-1.2135959E-2,-5.6918353E-2,4.53051E-2,9.7689904E-2,-4.9886177E-3,1.827901E-2],"categories":[],"categories_nodes":[],"categories_segments":[],"categories_sizes":[],"default_left":[0,0,0,0,0,0,0,0,0,0,0,0,0,0,0,0,0,0,0,0,0,0,0,0,0,0,0,0,0,0,0,0,0,0,0,0,0,0,0,0,0,0,0,0,0,0,0,0,0,0,0,0,0,0,0,0,0,0,0,0,0,0,0],"id":14,"left_children":[1,3,-1,5,7,9,11,13,15,17,19,21,23,25,27,29,31,-1,-1,33,35,-1,-1,-1,37,-1,-1,39,-1,-1,-1,41,43,45,-1,47,49,-1,-1,51,53,-1,-1,-1,-1,-1,-1,55,57,59,61,-1,-1,-1,-1,-1,-1,-1,-1,-1,-1,-1,-1],"loss_changes":[5.7958755E1,8.310103E1,0E0,8.6217155E1,3.8733627E1,4.0816475E1,1.1705242E1,7.5350647E0,1.1518756E1,1.4701912E1,5.712995E1,1.0217171E0,2.337291E1,1.6325836E0,3.5838242E0,8.23479E0,8.9868145E0,0E0,0E0,1.1832413E1,5.3067253E1,0E0,0E0,0E0,5.8015823E-1,0E0,0E0,5.1891174E0,0E0,0E0,0E0,5.898781E-1,2.9101434E0,1.9332886E-2,0E0,7.146506E1,7.6667595E1,0E0,0E0,5.8712616E0,4.1961746E0,0E0,0E0,0E0,0E0,0E0,0E0,1.9847507E1,1.2186829E1,1.8756447E1,3.9748276E1,0E0,0E0,0E0,0E0,0E0,0E0,0E0,0E0,0E0,0E0,0E0,0E0],"parents":[2147483647,0,0,1,1,3,3,4,4,5,5,6,6,7,7,8,8,9,9,10,10,11,11,12,12,13,13,14,14,15,15,16,16,19,19,20,20,24,24,27,27,31,31,32,32,33,33,35,35,36,36,39,39,40,40,47,47,48,48,49,49,50,50],"right_children":[2,4,-1,6,8,10,12,14,16,18,20,22,24,26,28,30,32,-1,-1,34,36,-1,-1,-1,38,-1,-1,40,-1,-1,-1,42,44,46,-1,48,50,-1,-1,52,54,-1,-1,-1,-1,-1,-1,56,58,60,62,-1,-1,-1,-1,-1,-1,-1,-1,-1,-1,-1,-1],"split_conditions":[1.4561822E0,1.2110934E0,-6.2290926E-2,1.1508583E0,1.2697053E0,-1.5820841E0,1.1221998E0,1.1641318E0,1.3747811E0,3.0045733E-1,-1.4339535E0,3.6758068E-1,1.240617E0,1.2487113E0,6.5475124E-1,1.2814618E0,1.3560688E0,-4.8741475E-3,-6.065471E-2,-1.4180028E0,-1.0471019E0,-6.3097276E-2,-4.7219627E-2,3.753775E-2,1.1749176E0,6.874356E-2,9.718635E-2,1.2916485E0,2.9317483E-2,2.1243356E-2,-2.0135265E-2,3.504273E-1,-3.0848898E-2,1.668903E-2,7.893551E-2,-1.113425E0,-1.0264821E0,-5.0636817E-2,-3.444889E-2,1.2302847E0,1.2272719E0,6.215611E-2,4.4049364E-2,2.863074E-2,-4.783962E-3,3.228085E-2,3.8955282E-2,-1.4180028E0,3.579264E-1,-8.5214233E-1,-1.1674069E-1,6.255739E-2,2.6458252E-2,5.239452E-2,9.218807E-2,-1.982092E-2,2.1928532E-2,-1.2135959E-2,-5.6918353E-2,4.53051E-2,9.7689904E-2,-4.9886177E-3,1.827901E-2],"split_indices":[3,2,0,4,3,2,2,3,2,7,5,7,5,2,7,4,3,0,0,2,2,0,0,0,2,0,0,2,0,0,0,7,7,6,0,4,5,0,0,3,5,0,0,0,0,0,0,2,7,2,2,0,0,0,0,0,0,0,0,0,0,0,0],"split_type":[0,0,0,0,0,0,0,0,0,0,0,0,0,0,0,0,0,0,0,0,0,0,0,0,0,0,0,0,0,0,0,0,0,0,0,0,0,0,0,0,0,0,0,0,0,0,0,0,0,0,0,0,0,0,0,0,0,0,0,0,0,0,0],"sum_hessian":[6.397464E3,6.2913237E3,1.0613968E2,5.416221E3,8.751029E2,5.0405483E3,3.7567252E2,4.7606656E2,3.9903635E2,1.89321E2,4.8512275E3,2.0955266E2,1.6611986E2,1.12849174E2,3.6321738E2,1.907479E2,2.0828845E2,8.856645E1,1.0075455E2,2.6616995E2,4.5850576E3,9.34702E1,1.1608245E2,5.0284904E1,1.1583495E2,6.0975662E1,5.1873516E1,3.031396E2,6.0077797E1,9.116657E1,9.958132E1,1.0543823E2,1.0285022E2,1.3561794E2,1.3055202E2,9.184947E2,3.666563E3,6.223369E1,5.360127E1,1.8549045E2,1.1764914E2,5.511195E1,5.0326283E1,5.2556866E1,5.029335E1,5.8422565E1,7.719537E1,5.6658185E2,3.519128E2,3.3591135E2,3.3306516E3,9.896747E1,8.652299E1,5.6978695E1,6.0670444E1,1.5663152E2,4.0995035E2,7.890391E1,2.730089E2,2.3864569E2,9.726566E1,1.0916431E3,2.2390085E3],"tree_param":{"num_deleted":"0","num_feature":"8","num_nodes":"63","size_leaf_vector":"1"}},{"base_weights":[1.0575738E-1,1.80024E-1,-3.930195E-1,1.109084E-1,9.0616715E-1,-1.2636515E-1,-5.811039E-1,9.905742E-1,8.499525E-2,5.4750154E-3,1.0550789E0,4.1910533E-2,-5.763049E-2,-4.231395E-1,-6.252414E-2,4.694866E-2,1.3090664E-1,-2.0950873E-1,1.5178457E-1,1.2568526E-1,7.695457E-1,-4.26652E-1,4.3624908E-1,-2.2960221E-2,-6.0726393E-2,1.2279774E-1,-4.6773487E-1,3.8084978E-1,-3.969842E-2,5.5167194E-2,1.1545209E-1,-5.9362352E-2,-2.060512E-2,1.7230567E-2,7.265779E-2,2.795238E-1,-7.853058E-2,4.160686E-2,-5.664365E-1,2.2985615E-1,8.8064754E-1,-3.4393522E-1,2.9103494E-1,1.6589783E-2,4.4721775E-2,-2.8505445E-2,1.455517E-2,-3.7949964E-2,-6.0090417E-1,7.1189165E-1,4.1296158E-2,1.6110282E-2,1.0656525E0,-9.738254E-2,-5.583947E-1,7.294564E-1,-2.0381622E-1,-5.0674528E-2,-6.349643E-2,4.607002E-2,1.2963256E-1,-1.838571E-2,2.8675348E-2,7.538181E-2,1.278408E-1,-4.3783855E-2,6.0614557E-3,-2.8860698E-2,-6.1928537E-2,9.50077E-2,3.959318E-2,-5.145171E-2,8.696835E-3],"categories":[],"categories_nodes":[],"categories_segments":[],"categories_sizes":[],"default_left":[0,0,0,0,0,0,0,0,0,0,0,0,0,0,0,0,0,0,0,0,0,0,0,0,0,0,0,0,0,0,0,0,0,0,0,0,0,0,0,0,0,0,0,0,0,0,0,0,0,0,0,0,0,0,0,0,0,0,0,0,0,0,0,0,0,0,0,0,0,0,0,0,0],"id":15,"left_children":[1,3,5,7,9,11,13,15,17,-1,19,21,-1,23,-1,-1,-1,25,27,-1,29,31,33,-1,-1,35,37,39,41,-1,-1,-1,-1,-1,-1,43,45,-1,47,49,51,53,55,-1,-1,-1,-1,-1,57,59,61,-1,63,65,67,69,71,-1,-1,-1,-1,-1,-1,-1,-1,-1,-1,-1,-1,-1,-1,-1,-1],"loss_changes":[2.3595122E2,2.7810315E2,4.133271E1,1.1531795E2,6.1005157E1,2.5975037E1,3.1088257E0,2.3412323E1,9.67843E1,0E0,2.264679E1,4.6450607E1,0E0,3.7362366E0,0E0,0E0,0E0,7.812143E1,1.7590768E2,0E0,1.3814102E1,4.111023E0,1.0331518E1,0E0,0E0,1.2598974E1,4.4910515E1,1.3759714E2,2.1997272E2,0E0,0E0,0E0,0E0,0E0,0E0,4.2005253E0,8.151861E0,0E0,2.7429962E0,1.2755421E2,5.6177887E1,6.0151093E1,2.274128E2,0E0,0E0,0E0,0E0,0E0,9.213257E-1,5.7336E1,5.5873466E1,0E0,2.1364319E1,2.8583757E1,9.821289E0,4.0509888E1,4.4574566E1,0E0,0E0,0E0,0E0,0E0,0E0,0E0,0E0,0E0,0E0,0E0,0E0,0E0,0E0,0E0,0E0],"parents":[2147483647,0,0,1,1,2,2,3,3,4,4,5,5,6,6,7,7,8,8,10,10,11,11,13,13,17,17,18,18,20,20,21,21,22,22,25,25,26,26,27,27,28,28,35,35,36,36,38,38,39,39,40,40,41,41,42,42,48,48,49,49,50,50,52,52,53,53,54,54,55,55,56,56],"right_children":[2,4,6,8,10,12,14,16,18,-1,20,22,-1,24,-1,-1,-1,26,28,-1,30,32,34,-1,-1,36,38,40,42,-1,-1,-1,-1,-1,-1,44,46,-1,48,50,52,54,56,-1,-1,-1,-1,-1,58,60,62,-1,64,66,68,70,72,-1,-1,-1,-1,-1,-1,-1,-1,-1,-1,-1,-1,-1,-1,-1,-1],"split_conditions":[1.2167381E0,1.2238075E0,-4.720164E-1,-1.6455889E0,1.037698E0,1.3747811E0,1.2712733E0,3.993679E-1,-1.1549908E0,5.4750154E-3,1.1221998E0,1.3250248E0,-5.763049E-2,4.9867187E-2,-6.252414E-2,4.694866E-2,1.3090664E-1,1.4315769E-1,-1.1674069E-1,1.2568526E-1,1.3641033E0,1.209548E0,1.3305594E0,-2.2960221E-2,-6.0726393E-2,-1.4082031E0,-1.5372579E0,-1.183575E-1,2.1033578E-1,5.5167194E-2,1.1545209E-1,-5.9362352E-2,-2.060512E-2,1.7230567E-2,7.265779E-2,-1.5596751E0,-1.2719307E0,4.160686E-2,-1.4180028E0,-1.123966E0,-2.5614578E-1,-3.692359E-1,1.0357844E0,1.6589783E-2,4.4721775E-2,-2.8505445E-2,1.455517E-2,-3.7949964E-2,7.700954E-1,-8.962274E-1,-8.3804613E-1,1.6110282E-2,-2.376433E-1,-2.948732E-2,-6.0917918E-2,8.9768505E-1,1.1670965E0,-5.0674528E-2,-6.349643E-2,4.607002E-2,1.2963256E-1,-1.838571E-2,2.8675348E-2,7.538181E-2,1.278408E-1,-4.3783855E-2,6.0614557E-3,-2.8860698E-2,-6.1928537E-2,9.50077E-2,3.959318E-2,-5.145171E-2,8.696835E-3],"split_indices":[2,1,6,2,0,2,2,6,1,0,2,5,0,6,0,0,0,6,2,0,1,1,1,0,0,2,2,1,1,0,0,0,0,0,0,4,1,0,2,2,0,6,2,0,0,0,0,0,6,1,1,0,6,1,2,2,5,0,0,0,0,0,0,0,0,0,0,0,0,0,0,0,0],"split_type":[0,0,0,0,0,0,0,0,0,0,0,0,0,0,0,0,0,0,0,0,0,0,0,0,0,0,0,0,0,0,0,0,0,0,0,0,0,0,0,0,0,0,0,0,0,0,0,0,0,0,0,0,0,0,0,0,0,0,0,0,0,0,0,0,0,0,0,0,0,0,0,0,0],"sum_hessian":[6.3668384E3,5.5422505E3,8.2458795E2,5.0616284E3,4.8062204E2,3.4174918E2,4.8283878E2,1.4377327E2,4.917855E3,7.175029E1,4.0887173E2,2.4938646E2,9.236269E1,1.077603E2,3.750785E2,5.5478527E1,8.829475E1,9.087283E2,4.0091267E3,2.3758147E2,1.7129028E2,1.1393007E2,1.3545639E2,5.3632732E1,5.412757E1,3.97595E2,5.1113327E2,1.8249756E3,2.1841511E3,1.1093849E2,6.035179E1,6.388497E1,5.0045097E1,7.178698E1,6.366942E1,2.2334302E2,1.74252E2,5.1024998E1,4.6010828E2,1.4026743E3,4.2230127E2,1.1376259E3,1.0465254E3,1.3431992E2,8.90231E1,9.0537056E1,8.371494E1,7.3498116E1,3.8661017E2,3.9362766E2,1.00904663E3,8.675469E1,3.3554657E2,5.298916E2,6.0773425E2,5.5465E2,4.9187534E2,1.0691716E2,2.79693E2,2.7655276E2,1.1707491E2,5.2642145E2,4.826252E2,1.3792859E2,1.9761797E2,1.674009E2,3.624907E2,1.1296431E2,4.9476993E2,3.3271585E2,2.2193417E2,2.3742226E2,2.544531E2],"tree_param":{"num_deleted":"0","num_feature":"8","num_nodes":"73","size_leaf_vector":"1"}},{"base_weights":[-3.4142855E-1,-3.936574E-1,9.7809523E-1,-6.1857678E-2,-3.6140138E-1,1.12891495E-1,6.678663E-2,-2.7064615E-1,-5.153131E-1,-3.6482912E-1,9.6952654E-2,-5.732161E-1,-1.0548515E-1,-1.8933862E-1,-5.443436E-1,2.5067464E-1,-1.8833342E-1,-6.0947236E-2,-4.133228E-1,1.9658023E-2,-2.6424572E-1,-3.2980123E-1,2.482343E-1,-5.793522E-1,-3.770009E-1,1.7161649E-2,4.3640512E-1,-4.681849E-2,-8.900593E-2,-2.9749158E-1,-5.062678E-1,6.4557353E-3,-5.7416983E-2,-4.5535177E-1,-2.1177517E-1,-1.0996711E-1,6.1114925E-1,-6.0949415E-1,-4.7184336E-1,-3.066634E-1,-5.4811537E-2,-5.9425547E-3,1.303069E-2,5.73218E-1,4.2626113E-3,6.202374E-3,-1.7218454E-2,-1.679303E-3,-5.1149644E-2,-4.0755905E-2,-6.1507076E-2,-5.5949777E-2,-3.9607923E-2,-2.970366E-2,-7.566645E-4,-2.3325179E-2,7.2310613E-3,9.534027E-2,4.171433E-2,-5.350828E-2,-6.185043E-2,-6.2238753E-2,-4.211689E-2,-4.361051E-2,-1.7157545E-2,8.152143E-2,4.5718238E-2],"categories":[],"categories_nodes":[],"categories_segments":[],"categories_sizes":[],"default_left":[0,0,0,0,0,0,0,0,0,0,0,0,0,0,0,0,0,0,0,0,0,0,0,0,0,0,0,0,0,0,0,0,0,0,0,0,0,0,0,0,0,0,0,0,0,0,0,0,0,0,0,0,0,0,0,0,0,0,0,0,0,0,0,0,0,0,0],"id":16,"left_children":[1,3,5,-1,7,-1,-1,9,11,13,15,17,19,21,23,25,27,-1,29,-1,31,33,35,37,39,41,43,-1,45,47,49,-1,-1,51,53,55,57,59,61,63,-1,-1,-1,65,-1,-1,-1,-1,-1,-1,-1,-1,-1,-1,-1,-1,-1,-1,-1,-1,-1,-1,-1,-1,-1,-1,-1],"loss_changes":[3.8513635E2,3.8742676E1,9.204971E0,0E0,6.550751E1,0E0,0E0,1.0246451E2,4.128183E1,7.409732E1,2.6544262E1,8.59613E0,1.0453577E1,7.3379196E1,6.5995483E0,1.7039883E1,5.8550687E0,0E0,2.9200935E0,0E0,1.4568695E1,1.3287262E1,3.7813095E1,2.8251953E0,2.2897243E0,1.5257062E0,1.1768074E1,0E0,1.9930457E0,7.764803E0,1.4335442E0,0E0,0E0,2.4746094E0,8.135973E0,3.3197334E0,9.189259E0,1.6973877E-1,1.3762894E0,2.4954567E0,0E0,0E0,0E0,4.186661E0,0E0,0E0,0E0,0E0,0E0,0E0,0E0,0E0,0E0,0E0,0E0,0E0,0E0,0E0,0E0,0E0,0E0,0E0,0E0,0E0,0E0,0E0,0E0],"parents":[2147483647,0,0,1,1,2,2,4,4,7,7,8,8,9,9,10,10,11,11,12,12,13,13,14,14,15,15,16,16,18,18,20,20,21,21,22,22,23,23,24,24,25,25,26,26,28,28,29,29,30,30,33,33,34,34,35,35,36,36,37,37,38,38,39,39,43,43],"right_children":[2,4,6,-1,8,-1,-1,10,12,14,16,18,20,22,24,26,28,-1,30,-1,32,34,36,38,40,42,44,-1,46,48,50,-1,-1,52,54,56,58,60,62,64,-1,-1,-1,66,-1,-1,-1,-1,-1,-1,-1,-1,-1,-1,-1,-1,-1,-1,-1,-1,-1,-1,-1,-1,-1,-1,-1],"split_conditions":[1.4211475E0,-1.2635934E0,6.200835E-1,-6.1857678E-2,3.2410598E-1,1.12891495E-1,6.678663E-2,6.0246095E-2,1.3396528E0,-6.0127836E-1,1.13477126E-1,1.2524389E0,1.2286574E0,-8.5631466E-1,4.6879562E-5,7.270796E-2,2.0981264E-1,-6.0947236E-2,1.2664539E0,1.9658023E-2,2.6442176E-2,-1.06322E0,-8.716067E-1,4.2717713E-3,-1.750184E-2,-1.2218708E-1,3.2917568E-1,-4.681849E-2,1.6526173E-1,1.3067331E0,-1.729969E-1,6.4557353E-3,-5.7416983E-2,-1.1139067E0,-9.942482E-1,1.1640568E0,1.01754E0,-9.0471435E-1,-4.4064928E-2,-7.9361714E-2,-5.4811537E-2,-5.9425547E-3,1.303069E-2,6.803948E-2,4.2626113E-3,6.202374E-3,-1.7218454E-2,-1.679303E-3,-5.1149644E-2,-4.0755905E-2,-6.1507076E-2,-5.5949777E-2,-3.9607923E-2,-2.970366E-2,-7.566645E-4,-2.3325179E-2,7.2310613E-3,9.534027E-2,4.171433E-2,-5.350828E-2,-6.185043E-2,-6.2238753E-2,-4.211689E-2,-4.361051E-2,-1.7157545E-2,8.152143E-2,4.5718238E-2],"split_indices":[4,0,7,0,1,0,0,0,4,1,1,4,1,0,0,4,5,0,1,0,7,0,4,5,6,6,0,0,0,0,7,0,0,5,4,7,6,7,1,4,0,0,0,5,0,0,0,0,0,0,0,0,0,0,0,0,0,0,0,0,0,0,0,0,0,0,0],"split_type":[0,0,0,0,0,0,0,0,0,0,0,0,0,0,0,0,0,0,0,0,0,0,0,0,0,0,0,0,0,0,0,0,0,0,0,0,0,0,0,0,0,0,0,0,0,0,0,0,0,0,0,0,0,0,0,0,0,0,0,0,0,0,0,0,0,0,0],"sum_hessian":[5.581807E3,5.3699575E3,2.1184969E2,6.7124243E2,4.698715E3,1.4077303E2,7.107666E1,2.9575383E3,1.7411768E3,2.3543381E3,6.0320026E2,1.5252776E3,2.1589915E2,1.1915513E3,1.1627869E3,3.92064E2,2.111363E2,1.2410533E3,2.8422424E2,7.429801E1,1.4160114E2,9.021908E2,2.8936044E2,9.595779E2,2.0320892E2,1.7417354E2,2.1789044E2,5.433524E1,1.5680107E2,1.2840376E2,1.5582047E2,6.909206E1,7.250908E1,4.357754E2,4.664154E2,1.4597668E2,1.4338374E2,7.4580865E2,2.1376926E2,1.459908E2,5.7218132E1,1.0414997E2,7.002357E1,1.613693E2,5.6521137E1,5.5777912E1,1.01023155E2,5.6013004E1,7.239076E1,8.418843E1,7.163203E1,1.5499648E2,2.807789E2,3.2871518E2,1.3770021E2,8.691293E1,5.906375E1,5.0456753E1,9.2926994E1,8.707508E1,6.587336E2,5.0993904E1,1.6277534E2,7.3415504E1,7.257529E1,5.034582E1,1.11023476E2],"tree_param":{"num_deleted":"0","num_feature":"8","num_nodes":"67","size_leaf_vector":"1"}},{"base_weights":[1.00305974E-1,1.6725944E-1,-3.5972583E-1,1.0358652E-1,7.7903485E-1,-1.5267129E-1,-5.5245745E-1,6.8196094E-1,6.8694316E-2,9.422862E-1,4.4823217E-1,-8.812516E-3,-5.8760654E-2,-4.1451183E-1,-6.087169E-2,3.6101907E-1,1.24593E-1,-2.6912868E-1,1.3179135E-1,3.803521E-2,1.0369191E0,5.8985186E-1,1.3779141E-2,-4.4473633E-1,3.0626532E-1,-5.860203E-2,-1.6164502E-2,5.8905657E-2,2.2642653E-1,6.627354E-2,-5.2656263E-1,3.2103547E-1,-4.255939E-2,1.1368771E0,6.51533E-2,6.537004E-2,4.9651213E-2,-5.8935314E-2,-2.4901556E-2,7.83329E-3,6.666654E-2,1.3632134E-2,3.0331252E-2,2.6477454E-2,-1.0084575E-1,-6.4887546E-2,-4.332333E-1,1.7744912E-1,7.037141E-1,-3.414399E-1,2.1475348E-1,1.1978101E-1,9.810691E-2,-2.7717823E-2,1.2159429E-2,-6.411075E-4,-6.022848E-2,4.73463E-1,-1.4053126E-2,2.500069E-3,8.2980084E-1,-1.693601E-1,-5.9638447E-1,4.6943012E-1,-3.1878576E-1,5.8599602E-2,-1.2436668E-2,-1.213784E-2,3.644882E-2,9.600927E-2,3.816418E-2,-4.4982772E-2,-2.0643326E-3,-4.6696644E-2,-6.162989E-2,7.82026E-2,3.156356E-2,-5.121667E-2,-1.6222394E-3],"categories":[],"categories_nodes":[],"categories_segments":[],"categories_sizes":[],"default_left":[0,0,0,0,0,0,0,0,0,0,0,0,0,0,0,0,0,0,0,0,0,0,0,0,0,0,0,0,0,0,0,0,0,0,0,0,0,0,0,0,0,0,0,0,0,0,0,0,0,0,0,0,0,0,0,0,0,0,0,0,0,0,0,0,0,0,0,0,0,0,0,0,0,0,0,0,0,0,0],"id":17,"left_children":[1,3,5,7,9,11,13,15,17,19,21,23,-1,25,-1,27,-1,29,31,-1,33,35,-1,37,39,-1,-1,-1,41,43,45,47,49,51,-1,-1,-1,-1,-1,-1,-1,-1,-1,-1,53,-1,55,57,59,61,63,-1,-1,-1,-1,-1,-1,65,67,-1,69,71,73,75,77,-1,-1,-1,-1,-1,-1,-1,-1,-1,-1,-1,-1,-1,-1],"loss_changes":[1.9718585E2,2.1757574E2,3.2376816E1,1.0210846E2,2.8014832E1,2.4617786E1,3.0142517E0,5.16595E1,1.018202E2,1.830661E1,7.652298E0,4.0892696E1,0E0,5.3293304E0,0E0,5.541237E0,0E0,6.495174E1,1.3279425E2,0E0,1.08316345E1,3.9352036E-1,0E0,3.3885021E0,1.4145533E1,0E0,0E0,0E0,7.753744E-1,1.0886601E1,4.575821E0,1.0591475E2,1.6122511E2,1.0767212E0,0E0,0E0,0E0,0E0,0E0,0E0,0E0,0E0,0E0,0E0,7.033417E0,0E0,1.7626324E1,7.9631775E1,4.5009827E1,4.244516E1,1.5323724E2,0E0,0E0,0E0,0E0,0E0,0E0,3.7194695E1,3.4733635E1,0E0,2.554364E1,2.419915E1,7.1839905E-1,3.643576E1,2.1325493E1,0E0,0E0,0E0,0E0,0E0,0E0,0E0,0E0,0E0,0E0,0E0,0E0,0E0,0E0],"parents":[2147483647,0,0,1,1,2,2,3,3,4,4,5,5,6,6,7,7,8,8,9,9,10,10,11,11,13,13,15,15,17,17,18,18,20,20,21,21,23,23,24,24,28,28,29,29,30,30,31,31,32,32,33,33,44,44,46,46,47,47,48,48,49,49,50,50,57,57,58,58,60,60,61,61,62,62,63,63,64,64],"right_children":[2,4,6,8,10,12,14,16,18,20,22,24,-1,26,-1,28,-1,30,32,-1,34,36,-1,38,40,-1,-1,-1,42,44,46,48,50,52,-1,-1,-1,-1,-1,-1,-1,-1,-1,-1,54,-1,56,58,60,62,64,-1,-1,-1,-1,-1,-1,66,68,-1,70,72,74,76,78,-1,-1,-1,-1,-1,-1,-1,-1,-1,-1,-1,-1,-1,-1],"split_conditions":[1.2286574E0,1.200639E0,-3.81697E-1,-1.5455033E0,1.1595755E0,1.396521E0,1.286276E0,-1.4217114E0,-1.1727912E0,1.0357844E0,1.2144149E-2,1.2200351E0,-5.8760654E-2,1.2293642E0,-6.087169E-2,-1.5762087E0,1.24593E-1,1.4315769E-1,-1.0096824E-1,3.803521E-2,9.5478153E-1,-8.1381506E-1,1.3779141E-2,1.165482E0,1.3209397E0,-5.860203E-2,-1.6164502E-2,5.8905657E-2,-7.007184E-1,-1.3993179E0,-1.4118893E0,-1.5895516E-1,1.7218204E-1,1.1203848E0,6.51533E-2,6.537004E-2,4.9651213E-2,-5.8935314E-2,-2.4901556E-2,7.83329E-3,6.666654E-2,1.3632134E-2,3.0331252E-2,2.6477454E-2,-1.2741361E0,-6.4887546E-2,-1.237466E0,-1.0613964E0,-2.6685154E-1,-1.2218708E-1,1.0871763E0,1.1978101E-1,9.810691E-2,-2.7717823E-2,1.2159429E-2,-6.411075E-4,-6.022848E-2,-8.3794326E-1,-3.364728E-1,2.500069E-3,7.44474E-2,-4.6694007E-2,-6.704196E-2,2.3858666E-1,1.1966594E0,5.8599602E-2,-1.2436668E-2,-1.213784E-2,3.644882E-2,9.600927E-2,3.816418E-2,-4.4982772E-2,-2.0643326E-3,-4.6696644E-2,-6.162989E-2,7.82026E-2,3.156356E-2,-5.121667E-2,-1.6222394E-3],"split_indices":[1,0,6,1,1,1,1,0,0,2,7,0,0,0,0,5,0,6,1,0,7,7,0,0,0,0,0,0,7,1,0,0,0,1,0,0,0,0,0,0,0,0,0,0,0,0,1,1,2,6,1,0,0,0,0,0,0,2,0,0,0,0,1,2,5,0,0,0,0,0,0,0,0,0,0,0,0,0,0],"split_type":[0,0,0,0,0,0,0,0,0,0,0,0,0,0,0,0,0,0,0,0,0,0,0,0,0,0,0,0,0,0,0,0,0,0,0,0,0,0,0,0,0,0,0,0,0,0,0,0,0,0,0,0,0,0,0,0,0,0,0,0,0,0,0,0,0,0,0,0,0,0,0,0,0,0,0,0,0,0,0],"sum_hessian":[6.3990337E3,5.5865923E3,8.124415E2,5.061016E3,5.255758E2,3.9253134E2,4.1991022E2,2.8689468E2,4.7741216E3,3.50671E2,1.7490482E2,2.9573468E2,9.679667E1,1.2406819E2,2.95842E2,1.8388823E2,1.0300645E2,7.508403E2,4.0232812E3,5.126669E1,2.994043E2,1.19493256E2,5.541156E1,1.2390091E2,1.7183377E2,7.3141815E1,5.0926376E1,6.699809E1,1.1689014E2,3.2636832E2,4.2447195E2,1.9288375E3,2.0944438E3,2.361928E2,6.3211494E1,6.739124E1,5.2102016E1,7.009614E1,5.3804768E1,1.0600746E2,6.582631E1,5.5095253E1,6.1794888E1,1.4891075E2,1.7745758E2,1.811341E2,2.4333786E2,1.403637E3,5.252005E2,9.688055E2,1.1256383E3,1.6498373E2,7.120906E1,9.885068E1,7.86069E1,6.9330284E1,1.7400758E2,5.507873E2,8.5284973E2,8.247007E1,4.4273044E2,5.793955E2,3.8941E2,7.6202E2,3.6361823E2,4.6355026E2,8.723702E1,6.649892E2,1.8786055E2,3.4212363E2,1.00606834E2,2.0006487E2,3.7933063E2,5.5190777E1,3.3421924E2,2.4993289E2,5.1208716E2,2.2141188E2,1.4220634E2],"tree_param":{"num_deleted":"0","num_feature":"8","num_nodes":"79","size_leaf_vector":"1"}},{"base_weights":[9.994216E-2,1.7556103E-1,-3.9226356E-1,7.5809725E-2,6.5543324E-1,-1.5562859E-1,-5.77814E-1,2.2459242E-1,-1.818562E-1,1.001519E0,3.4609768E-1,-6.4635617E-3,-5.1562136E-1,-4.5027095E-1,-6.265318E-2,9.699123E-2,8.3288854E-1,-5.58115E-1,-2.5312118E-2,6.835914E-1,1.1565971E0,-2.5764272E-1,5.8689445E-1,-3.8944566E-1,3.3982E-1,-4.1324046E-2,-6.1289575E-2,-6.283343E-2,-3.1392537E-2,3.0553257E-1,-1.615863E-1,8.569925E-3,1.0081214E0,-6.3721865E-2,-4.6163723E-1,3.6559224E-1,-2.1551386E-1,5.333553E-2,8.787205E-2,8.9997165E-2,1.2596326E-1,-3.8601023E-3,-4.9388364E-2,6.0553584E-2,8.805992E-1,-5.9384167E-2,-1.791891E-2,4.8510067E-2,1.05714565E-2,-6.743901E-2,5.2038676E-1,-4.5960245E-1,-2.600614E-3,1.1713183E0,6.207794E-1,-1.941175E-2,-5.883623E-1,1.9671297E-1,1.3554609E-1,-5.4530853E-1,-4.847527E-2,2.2163609E-2,-9.50137E-3,7.2006285E-2,9.89757E-1,8.7972686E-2,-2.2978942E-1,1.2618326E-1,4.1459453E-1,5.8458946E-3,-5.872409E-1,1.2218227E-1,-4.024664E-1,8.4952906E-2,1.2887845E0,7.04199E-2,5.415259E-2,-5.048272E-2,-6.418446E-2,2.7232802E-2,4.690117E-1,-3.7154656E-2,-6.29542E-2,3.0941954E-1,-5.539648E-1,7.3812276E-2,1.1670654E-1,1.4229658E-2,-4.903074E-2,2.6038582E-2,1.0850664E-1,-3.985219E-2,-6.388589E-2,-5.546299E-3,9.83695E-2,-6.447604E-2,1.3610892E-3,1.3753408E-1,1.17750786E-1,-2.6632732E-2,1.3010541E-2,1.00720644E-1,9.274714E-3,-1.4339115E-3,5.192528E-2,-3.9012726E-2,-6.244644E-2],"categories":[],"categories_nodes":[],"categories_segments":[],"categories_sizes":[],"default_left":[0,0,0,0,0,0,0,0,0,0,0,0,0,0,0,0,0,0,0,0,0,0,0,0,0,0,0,0,0,0,0,0,0,0,0,0,0,0,0,0,0,0,0,0,0,0,0,0,0,0,0,0,0,0,0,0,0,0,0,0,0,0,0,0,0,0,0,0,0,0,0,0,0,0,0,0,0,0,0,0,0,0,0,0,0,0,0,0,0,0,0,0,0,0,0,0,0,0,0,0,0,0,0,0,0,0,0],"id":18,"left_children":[1,3,5,7,9,11,13,15,17,19,21,23,25,27,-1,29,31,33,35,37,39,41,43,45,47,-1,-1,-1,-1,49,51,-1,53,-1,55,57,59,-1,-1,-1,-1,-1,-1,61,63,-1,-1,-1,-1,65,67,69,71,73,75,-1,77,79,-1,81,83,-1,-1,-1,85,-1,87,-1,89,-1,91,93,95,-1,97,-1,-1,-1,-1,99,101,-1,-1,103,105,-1,-1,-1,-1,-1,-1,-1,-1,-1,-1,-1,-1,-1,-1,-1,-1,-1,-1,-1,-1,-1,-1],"loss_changes":[2.3923299E2,2.666053E2,3.7496643E1,1.768892E2,1.022735E2,2.0272957E1,2.6969452E0,2.2694705E2,9.9481445E1,2.1488586E1,7.395726E1,3.567285E1,8.482895E-1,3.1062737E0,0E0,1.3048416E2,6.630017E1,3.493164E0,8.8848915E1,3.9461365E0,6.8591614E0,7.5072947E0,5.6098694E1,5.3822823E0,4.75346E0,0E0,0E0,0E0,0E0,1.0736124E2,5.1194805E1,0E0,2.5229187E1,0E0,7.5884056E0,6.5122665E1,4.425252E1,0E0,0E0,0E0,0E0,0E0,0E0,3.3080392E0,3.371521E0,0E0,0E0,0E0,0E0,7.561498E1,6.6142944E1,2.489051E1,3.525777E1,9.782654E0,4.374466E-1,0E0,3.6257553E-1,1.5461976E1,0E0,3.7199936E0,9.689445E1,0E0,0E0,0E0,5.2092743E0,0E0,4.0729164E1,0E0,7.677304E1,0E0,2.6841965E0,8.247966E1,1.6951563E1,0E0,3.9239502E-1,0E0,0E0,0E0,0E0,6.30832E0,2.5943987E1,0E0,0E0,2.1316072E1,2.320366E0,0E0,0E0,0E0,0E0,0E0,0E0,0E0,0E0,0E0,0E0,0E0,0E0,0E0,0E0,0E0,0E0,0E0,0E0,0E0,0E0,0E0,0E0],"parents":[2147483647,0,0,1,1,2,2,3,3,4,4,5,5,6,6,7,7,8,8,9,9,10,10,11,11,12,12,13,13,15,15,16,16,17,17,18,18,19,19,20,20,21,21,22,22,23,23,24,24,29,29,30,30,32,32,34,34,35,35,36,36,43,43,44,44,49,49,50,50,51,51,52,52,53,53,54,54,56,56,57,57,59,59,60,60,64,64,66,66,68,68,70,70,71,71,72,72,74,74,79,79,80,80,83,83,84,84],"right_children":[2,4,6,8,10,12,14,16,18,20,22,24,26,28,-1,30,32,34,36,38,40,42,44,46,48,-1,-1,-1,-1,50,52,-1,54,-1,56,58,60,-1,-1,-1,-1,-1,-1,62,64,-1,-1,-1,-1,66,68,70,72,74,76,-1,78,80,-1,82,84,-1,-1,-1,86,-1,88,-1,90,-1,92,94,96,-1,98,-1,-1,-1,-1,100,102,-1,-1,104,106,-1,-1,-1,-1,-1,-1,-1,-1,-1,-1,-1,-1,-1,-1,-1,-1,-1,-1,-1,-1,-1,-1],"split_conditions":[1.2103132E0,1.0596727E0,-4.4411308E-1,-9.944529E-2,1.07783E0,1.3477837E0,1.27998E0,-1.6182055E-1,3.6493067E-2,1.0871763E0,1.2076119E0,1.3250248E0,1.4180833E0,1.0600256E0,-6.265318E-2,-1.0718918E0,-2.4368733E-1,-5.7387233E-2,9.839389E-2,1.061779E0,-2.284713E-1,-1.2530522E-1,1.2071196E0,1.1648184E0,1.2920682E0,-4.1324046E-2,-6.1289575E-2,-6.283343E-2,-3.1392537E-2,-1.4082031E0,-1.0389771E0,8.569925E-3,-1.5097962E-1,-6.3721865E-2,-2.9699836E-2,3.0021366E-1,1.932298E-1,5.333553E-2,8.787205E-2,8.9997165E-2,1.2596326E-1,-3.8601023E-3,-4.9388364E-2,1.2286574E0,1.2916485E0,-5.9384167E-2,-1.791891E-2,4.8510067E-2,1.05714565E-2,-1.6760981E0,-1.5412397E0,-3.049475E-1,-2.5614578E-1,-3.1708083E-1,-8.5475373E-1,-1.941175E-2,-3.918195E-1,9.0409696E-2,1.3554609E-1,-7.1336704E-1,1.0210143E0,2.2163609E-2,-9.50137E-3,7.2006285E-2,1.2613126E0,8.7972686E-2,-3.6293307E-1,1.2618326E-1,-8.8504505E-1,5.8458946E-3,4.1582704E-1,-3.9519352E-1,-1.4135435E-1,8.4952906E-2,-1.3568428E-1,7.04199E-2,5.415259E-2,-5.048272E-2,-6.418446E-2,-4.4603776E-2,1.2308425E-1,-3.7154656E-2,-6.29542E-2,3.3935726E-1,-7.9369956E-1,7.3812276E-2,1.1670654E-1,1.4229658E-2,-4.903074E-2,2.6038582E-2,1.0850664E-1,-3.985219E-2,-6.388589E-2,-5.546299E-3,9.83695E-2,-6.447604E-2,1.3610892E-3,1.3753408E-1,1.17750786E-1,-2.6632732E-2,1.3010541E-2,1.00720644E-1,9.274714E-3,-1.4339115E-3,5.192528E-2,-3.9012726E-2,-6.244644E-2],"split_indices":[0,2,7,0,0,0,0,2,5,1,5,5,2,1,0,0,1,5,0,3,7,7,2,2,0,0,0,0,0,2,2,0,0,0,0,2,2,0,0,0,0,0,0,1,2,0,0,0,0,0,0,7,0,7,7,0,7,2,0,7,0,0,0,0,1,0,7,0,2,0,7,2,5,0,5,0,0,0,0,2,5,0,0,2,7,0,0,0,0,0,0,0,0,0,0,0,0,0,0,0,0,0,0,0,0,0,0],"split_type":[0,0,0,0,0,0,0,0,0,0,0,0,0,0,0,0,0,0,0,0,0,0,0,0,0,0,0,0,0,0,0,0,0,0,0,0,0,0,0,0,0,0,0,0,0,0,0,0,0,0,0,0,0,0,0,0,0,0,0,0,0,0,0,0,0,0,0,0,0,0,0,0,0,0,0,0,0,0,0,0,0,0,0,0,0,0,0,0,0,0,0,0,0,0,0,0,0,0,0,0,0,0,0,0,0,0,0],"sum_hessian":[6.4246816E3,5.5696455E3,8.55036E2,4.612087E3,9.5755896E2,3.7659628E2,4.7843973E2,2.923889E3,1.6881978E3,4.5087775E2,5.066812E2,2.6698676E2,1.0960952E2,1.3506987E2,3.4336984E2,2.4178586E3,5.0603043E2,4.9525967E2,1.192938E3,1.4959645E2,3.0128128E2,1.444464E2,3.622348E2,1.2671646E2,1.4027031E2,5.5960014E1,5.3649506E1,5.7009174E1,7.80607E1,1.3383252E3,1.0795334E3,9.641366E1,4.0961676E2,2.6905356E2,2.2620612E2,3.901585E2,8.0277954E2,8.663033E1,6.2966125E1,8.909965E1,2.1218166E2,7.555525E1,6.889115E1,1.301688E2,2.3206601E2,6.3328636E1,6.338783E1,8.589415E1,5.4376156E1,4.8941742E2,8.489078E2,3.7489948E2,7.046339E2,2.867696E2,1.22847176E2,7.352495E1,1.5268117E2,3.343197E2,5.5838814E1,2.6913837E2,5.336412E2,6.374215E1,6.642665E1,9.70026E1,1.350634E2,7.0967636E1,4.184498E2,1.0463625E2,7.442715E2,7.421523E1,3.0068423E2,5.3757245E2,1.6706146E2,7.88897E1,2.0787988E2,5.600878E1,6.6838394E1,6.36711E1,8.901007E1,2.0674225E2,1.2757745E2,8.963815E1,1.7950021E2,3.1266037E2,2.2098077E2,5.7964165E1,7.709924E1,1.725122E2,2.4593758E2,6.062274E2,1.380441E2,6.645194E1,2.342323E2,4.4644952E2,9.1122955E1,1.052321E2,6.182937E1,1.1053831E2,9.7341576E1,5.323642E1,1.5350583E2,5.1803215E1,7.577424E1,1.2331902E2,1.8934135E2,6.8447044E1,1.5253372E2],"tree_param":{"num_deleted":"0","num_feature":"8","num_nodes":"107","size_leaf_vector":"1"}},{"base_weights":[9.1875546E-2,1.6595376E-1,-3.7966713E-1,7.203333E-2,6.581209E-1,-1.4896278E-1,-5.7014215E-1,2.0838255E-1,-1.6065784E-1,-5.065958E-2,7.499466E-1,-1.4279178E-2,-5.9583127E-2,-6.043731E-2,-3.0936768E-2,1.139472E-2,5.5970716E-1,-4.1722846E-1,1.0303845E-1,9.7806305E-1,3.276666E-1,-2.2799084E-1,5.899786E-2,6.8565005E-1,-1.0575592E-1,8.4188145E-1,2.697359E-1,-1.4374822E-1,-5.689402E-1,3.5223028E-1,-5.0196826E-1,6.650066E-1,1.118237E0,-3.7109517E-2,6.34473E-1,-5.6087296E-2,-1.9508761E-3,3.8672286E-1,1.2417157E-1,-2.3703359E-3,-5.1645637E-1,1.4089747E-2,9.575654E-1,-3.3789378E-1,6.466596E-1,-4.6203088E-2,3.1851117E-2,-3.9250057E-2,-5.9904724E-1,-1.7865742E-2,7.47469E-1,-2.726844E-2,-6.139622E-2,8.154666E-2,5.1470336E-2,1.2178164E0,9.2319846E-1,1.056227E-2,-1.8864537E-2,2.9646192E-2,9.036554E-2,9.357469E-2,1.20367706E-1,-2.512301E-1,2.4393983E-1,-2.430495E-2,-5.7474154E-1,7.4313635E-1,1.1886692E0,2.8725207E-2,-5.7125247E-1,-1.0978821E-2,8.6505127E-1,2.547227E-1,-6.0605437E-2,-5.270944E-1,-6.2405266E-2,5.1989007E-1,-4.9752298E-1,1.096811E0,1.8874608E-1,1.3197646E-1,1.1247672E-1,6.83563E-2,1.1428048E-1,1.9490933E-2,3.5857514E-3,1.1468602E-2,-5.1131375E-2,9.558071E-2,1.253881E-2,-4.7866784E-2,-6.2739626E-2,1.0410935E-1,3.8866352E-3,1.4233342E-1,1.0166384E-1,-6.450843E-2,-4.2532366E-2,1.1331767E-1,7.439854E-2,1.3901505E-2,3.926624E-2,-6.284974E-2,-3.7697446E-2,4.008097E-2,6.71801E-2,-2.8927786E-2,-6.1416205E-2,7.882728E-2,1.3403998E-1,8.843541E-3,2.8379409E-2],"categories":[],"categories_nodes":[],"categories_segments":[],"categories_sizes":[],"default_left":[0,0,0,0,0,0,0,0,0,0,0,0,0,0,0,0,0,0,0,0,0,0,0,0,0,0,0,0,0,0,0,0,0,0,0,0,0,0,0,0,0,0,0,0,0,0,0,0,0,0,0,0,0,0,0,0,0,0,0,0,0,0,0,0,0,0,0,0,0,0,0,0,0,0,0,0,0,0,0,0,0,0,0,0,0,0,0,0,0,0,0,0,0,0,0,0,0,0,0,0,0,0,0,0,0,0,0,0,0,0,0,0,0],"id":19,"left_children":[1,3,5,7,9,11,13,15,17,-1,19,21,-1,-1,-1,23,25,27,29,31,33,35,-1,37,39,41,43,45,47,49,51,53,55,57,59,-1,-1,61,-1,63,65,-1,67,69,71,-1,73,-1,75,77,79,-1,-1,-1,-1,81,83,-1,-1,-1,-1,-1,85,87,89,-1,91,93,95,-1,97,-1,99,101,-1,103,-1,105,107,109,111,-1,-1,-1,-1,-1,-1,-1,-1,-1,-1,-1,-1,-1,-1,-1,-1,-1,-1,-1,-1,-1,-1,-1,-1,-1,-1,-1,-1,-1,-1,-1,-1],"loss_changes":[2.2200842E2,2.538115E2,3.7836197E1,1.4638866E2,9.449106E1,2.3561325E1,4.0293427E0,2.0131717E2,1.1539073E2,0E0,7.828836E1,3.9126884E1,0E0,0E0,0E0,1.4738304E2,8.528381E1,3.5779068E1,1.2705498E2,2.2484528E1,3.2223824E1,1.5519206E1,0E0,4.5430252E1,6.750002E1,4.277841E1,1.1860182E2,1.7325863E1,2.7162018E0,8.728961E1,6.1474648E0,3.3382874E0,5.9481506E0,2.8833213E0,1.39562645E1,0E0,0E0,2.636831E1,0E0,7.7971855E1,4.9549255E0,0E0,2.1617523E1,2.9127972E1,5.2851944E1,0E0,2.8665964E1,0E0,5.215454E-1,7.998848E1,5.6113617E1,0E0,0E0,0E0,0E0,7.7267456E-1,5.9135513E0,0E0,0E0,0E0,0E0,0E0,7.6834583E-1,6.0275806E1,5.3832645E1,0E0,1.0290756E0,4.9942368E1,7.3076477E0,0E0,1.2868996E0,0E0,7.2045593E0,2.328722E0,0E0,1.7168274E0,0E0,2.3757133E0,3.803112E0,1.2271179E1,1.0448053E0,0E0,0E0,0E0,0E0,0E0,0E0,0E0,0E0,0E0,0E0,0E0,0E0,0E0,0E0,0E0,0E0,0E0,0E0,0E0,0E0,0E0,0E0,0E0,0E0,0E0,0E0,0E0,0E0,0E0,0E0,0E0,0E0],"parents":[2147483647,0,0,1,1,2,2,3,3,4,4,5,5,6,6,7,7,8,8,10,10,11,11,15,15,16,16,17,17,18,18,19,19,20,20,21,21,23,23,24,24,25,25,26,26,27,27,28,28,29,29,30,30,31,31,32,32,33,33,34,34,37,37,39,39,40,40,42,42,43,43,44,44,46,46,48,48,49,49,50,50,55,55,56,56,62,62,63,63,64,64,66,66,67,67,68,68,70,70,72,72,73,73,75,75,77,77,78,78,79,79,80,80],"right_children":[2,4,6,8,10,12,14,16,18,-1,20,22,-1,-1,-1,24,26,28,30,32,34,36,-1,38,40,42,44,46,48,50,52,54,56,58,60,-1,-1,62,-1,64,66,-1,68,70,72,-1,74,-1,76,78,80,-1,-1,-1,-1,82,84,-1,-1,-1,-1,-1,86,88,90,-1,92,94,96,-1,98,-1,100,102,-1,104,-1,106,108,110,112,-1,-1,-1,-1,-1,-1,-1,-1,-1,-1,-1,-1,-1,-1,-1,-1,-1,-1,-1,-1,-1,-1,-1,-1,-1,-1,-1,-1,-1,-1,-1,-1],"split_conditions":[1.2071196E0,1.0975221E0,-3.81697E-1,-1.09492734E-1,9.175833E-1,1.3863542E0,1.4213655E0,-8.5055774E-1,1.13477126E-1,-5.065958E-2,1.1221998E0,1.3386554E0,-5.9583127E-2,-6.043731E-2,-3.0936768E-2,-1.554769E0,-2.6685154E-1,-6.728492E-1,1.0120515E0,-4.4074965E-1,1.2467256E0,1.209548E0,5.899786E-2,-1.3993179E0,-9.8753995E-1,-2.0446515E-1,-1.4151552E-1,-2.948732E-2,-3.692359E-1,2.9510593E-1,-9.4293565E-1,1.0652827E0,1.0357844E0,-1.268822E0,1.2437427E0,-5.6087296E-2,-1.9508761E-3,-1.7058947E0,1.2417157E-1,-1.1965284E0,3.993679E-1,1.4089747E-2,-2.8172317E-1,-2.4928617E-1,-1.183575E-1,-4.6203088E-2,8.136076E-2,-3.9250057E-2,1.668903E-2,1.4477666E-1,8.7412035E-1,-2.726844E-2,-6.139622E-2,8.154666E-2,5.1470336E-2,9.3944764E-1,1.2437427E0,1.056227E-2,-1.8864537E-2,2.9646192E-2,9.036554E-2,9.357469E-2,-3.9324597E-1,6.3606775E-3,-1.3335404E0,-2.430495E-2,-9.702963E-1,-9.0569645E-1,-3.7386215E-1,2.8725207E-2,-1.8932371E-1,-1.0978821E-2,-1.9948071E-1,6.055939E-3,-6.0605437E-2,-2.9699836E-2,-6.2405266E-2,1.8863322E-1,-7.350943E-1,4.0298927E-1,9.8033243E-1,1.3197646E-1,1.1247672E-1,6.83563E-2,1.1428048E-1,1.9490933E-2,3.5857514E-3,1.1468602E-2,-5.1131375E-2,9.558071E-2,1.253881E-2,-4.7866784E-2,-6.2739626E-2,1.0410935E-1,3.8866352E-3,1.4233342E-1,1.0166384E-1,-6.450843E-2,-4.2532366E-2,1.1331767E-1,7.439854E-2,1.3901505E-2,3.926624E-2,-6.284974E-2,-3.7697446E-2,4.008097E-2,6.71801E-2,-2.8927786E-2,-6.1416205E-2,7.882728E-2,1.3403998E-1,8.843541E-3,2.8379409E-2],"split_indices":[2,1,6,2,0,2,1,1,1,0,2,1,0,0,0,2,2,6,2,6,1,1,0,1,4,6,3,1,6,1,6,2,2,6,3,0,0,2,0,1,6,0,1,6,1,0,2,0,6,2,2,0,0,0,0,2,3,0,0,0,0,0,6,6,2,0,2,2,2,0,4,0,2,2,0,0,0,1,6,1,4,0,0,0,0,0,0,0,0,0,0,0,0,0,0,0,0,0,0,0,0,0,0,0,0,0,0,0,0,0,0,0,0],"split_type":[0,0,0,0,0,0,0,0,0,0,0,0,0,0,0,0,0,0,0,0,0,0,0,0,0,0,0,0,0,0,0,0,0,0,0,0,0,0,0,0,0,0,0,0,0,0,0,0,0,0,0,0,0,0,0,0,0,0,0,0,0,0,0,0,0,0,0,0,0,0,0,0,0,0,0,0,0,0,0,0,0,0,0,0,0,0,0,0,0,0,0,0,0,0,0,0,0,0,0,0,0,0,0,0,0,0,0,0,0,0,0,0,0],"sum_hessian":[6.3528164E3,5.4908633E3,8.619533E2,4.611916E3,8.789472E2,3.9061743E2,4.7133588E2,2.9080188E3,1.703897E3,6.3901695E1,8.1504553E2,3.0094598E2,8.967145E1,4.1547974E2,5.5856144E1,1.8639397E3,1.0440791E3,8.6332184E2,8.405752E2,5.283264E2,2.8671912E2,2.2277754E2,7.816845E1,2.7519788E2,1.5887418E3,5.2818915E2,5.1589E2,3.0873474E2,5.545871E2,5.9565356E2,2.4492162E2,1.6517598E2,3.6315042E2,1.3138661E2,1.553325E2,8.514182E1,1.3763573E2,1.8008441E2,9.5113464E1,1.2700404E3,3.187014E2,7.5134094E1,4.5305502E2,1.9754153E2,3.1834848E2,1.0919042E2,1.9954433E2,8.2884834E1,4.7170227E2,3.0810406E2,2.875495E2,8.1500824E1,1.6342079E2,8.033336E1,8.484261E1,2.369359E2,1.2621453E2,6.781468E1,6.3571934E1,6.979392E1,8.553859E1,5.800617E1,1.2207824E2,6.317406E2,6.382998E2,5.6910923E1,2.6179047E2,2.3719232E2,2.1586272E2,5.363296E1,1.4390857E2,7.143048E1,2.4691798E2,1.4832365E2,5.122067E1,1.2734544E2,3.443568E2,1.4521545E2,1.628886E2,1.7633366E2,1.11215836E2,1.067705E2,1.3016539E2,6.2321564E1,6.3892963E1,6.417063E1,5.7907604E1,2.6270105E2,3.6903955E2,